tree
version=v4
num_class=1
num_tree_per_iteration=1
label_index=0
max_feature_idx=47
objective=regression
feature_names=Column_0 Column_1 Column_2 Column_3 Column_4 Column_5 Column_6 Column_7 Column_8 Column_9 Column_10 Column_11 Column_12 Column_13 Column_14 Column_15 Column_16 Column_17 Column_18 Column_19 Column_20 Column_21 Column_22 Column_23 Column_24 Column_25 Column_26 Column_27 Column_28 Column_29 Column_30 Column_31 Column_32 Column_33 Column_34 Column_35 Column_36 Column_37 Column_38 Column_39 Column_40 Column_41 Column_42 Column_43 Column_44 Column_45 Column_46 Column_47
feature_infos=none [0:1] [0:1] [0:1] [0:1] [0:1] [0:1] [0:1] [0:1] [0:1] [0:1] [0:1] [0:1] [0:1] [0:1] [0:1] [0:1] [0:1] [0:1] [0:1] [0:1] [0:1] [0:1] [0:1] [0:1] [0:1] [0:1] [0:1] [0:1] [0:1] [0:1] [0:1] [0:1] [0:1] [0:1] [0:1] [0:1] [0:1] [0:1] [0:1] [0:1] [0:1] [0:1] [0:1] [0:1] [0:1] [0:1] [0:0.99999999999999989]
tree_sizes=421 422 421 422 423 421 420 423 422 420 424 423 422 425 423 423 422 423 423 423 423 423 423 423 423 423 424 422 423 423 423 424 422 423 423 420 423 421 423 423 422 420 424 423 424 422 419 423 424 422 421 424 422 418 423 421 421 422 421 424 423 422 423 424 421 421 422 423 423 424 424 420 424 424 424 423 423 422 424 420 423 424 424 422 423 421 421 424 422 424 423 424 424 422 420 424 422 423 423 421 424 421 424 425 421 424 424 424 425 419 423 424 423 425 424 424 425 424 422 421 425 423 422 422 425 423 423 424 424 424 425 424 424 425 424 425 423 423 423 421 424 424 423 423 424 425 425 422 423 425 425 423 424 424 425 424 423 424 425 425 424 425 422 424 424 425 422 425 420 423 424 422 422 423 422 424 423 421 425 424 424 423 425 423 424 425 422 424 423 424 425 425 423 424 425 425 425 425 424 424 421 425 423 425 423 425 424 424 423 423 424 424 422 425 419 423 420 425 424 422 425 423 424 423 423 424 425 423 423 423 422 425 423 425 425 424 425 423 422 422 425 425 422 424 424 423 425 423 422 424 425 425 425 423 423 422 422 423 425 424 424 424 424 421 422 424 425 423 425 423 423 424 423 425 422 423 423 425 423 423 423 424 424 422 425 424 424 425 422 424 422 425 425 424 424 423 424 421 425 425 424 424 422 425 425 424 425 424 423 424 425 421 421 419 425 425 425 424 423 424 424 423 423 422 425 422 424 421 425 424 425 424 424 424 425 424 425 424 425 422 424 424 424 424 425 425 423 424 422 425 424 424 424 424 425 424 424 424 425 425 425 422 423 423 424 424 425 423 424 424 423 425 423 425 423 423 425 425 424 423 424 424 425 422 419 425 424 423 425 424 423 423 425 424 423 425 425 422 424 425 423 425 425 422 425 423 424 423 422 423 424 423 425 422 424 425 425 424 425 425 424 424 423 425 424 423 419 422 425 424 424 424 425 422 423 424 425 425 422 424 422 422 424 425 425 424 425 425 423 419 424 424 425 424 424 424 424 423 424 424 424 424 425 423 423 425 423 424 420 423 425 421 424 425 421 418 424 425 424 425 425 424 423 425 423 424 423 423 425 425 423 425 424 422 424 424 422 425 424 416 423 424 423 423 425 421 424 425 425 424 425 424 421 424 423 423 417 423 425 419 424 423 425 423 418 424 424 418 424 424 424 424 423 424 423 424 424 423 424 415 420 423 415 423 418 422 419 425 425 424 423 423 424 424 425 424 424 423 425 423 423 422 424 424 423 424 424 424 423 424 424 425 423 424 415 425 423 422 423 424 421 423 415 425 417 425 424 424 423 424 425 423 424 418 421 425 424 425 424 424 424 425 422 424 424 424 424 424 424 416 416 424 424 422 415 423 423 425 424 425 423 424 416 423 423 415 425 422 425 424 424 412 421 424 416 425 424 424 424 423 419 422 424 425 425 423 417 418 425 424 418 423 423 418 423 417 418 420 423 424 418 419 424 423 423 423 424 425 422 422 417 418 421 421 426 417 416 423 424 424 422 417 424 424 422 422 422 417 425 424 417 423 424 423 424 419 425 421 417 424 418 414 424 423 417 423 417 418 422 424 424 421 416 424 423 424 422 423 422 427 423 421 415 423 422 424 423 424 424 425 422 418 425 425 424 417 419 421 417 424 417 426 421 424 425 423 424 422 425 418 425 416 423 416 424 418 413 426 423 421 418 418 425 423 418 424 419 424 424 424 421 418 420 418 420 414 416 415 423 415 427 425 414 424 423 421 422 423 421 425 421 422 424 416 425 424 415 418 421 424 418 425 424 418 425 416 426 414 424 420 424 422 423 425 423 423 420 422 424 416 423 417 415 422 423 416 425 425 422 418 423 423 424 422 417 423 423 422 421 423 424 425 423 425 415 419 423 419 425 423 418 426 422 417 423 416 421 415 416 418 418 423 424 423 424 417 422 422 424 422 420 418 416 421 416 423 421 420 418 425 424 416 424 422 427 417 423 422 423 424 423 417 423 422 425 423 424 418 424 427 423 421 419 422 426 419 423 427 424 423 425 421 423 424 424 422 423 414 424 417 422 420 418 422 425 417 422 422 421 418 423 424 417 424 420 423 425 423 420 417 418 424 424 424 415 419 423 418 425 419 423 418 423 422 421 419 416 423 423 416 420 419 423 419 424 424 423 425 419 414 417 426 418 417 418 414 415 423 424 421 423 423 423 417 425 421 418 418 423 420 423 421 418 416 423 416 417 417 418 423 425 423 426 421 414 426 418 418 425 426 415 422 422 425 423 422 419 425 424 425 419 421 419 425 419 419 427 417 418 420 425 425 419 424 417 422 424 420 424 419 426 419 422 426 426 417 423 414 419 424 425 418 420 417 425 416 424 420 423 425 425 425 420 426 418 425 419 418 420 426 417 425 416 425 418 417 420 424 419 417 416 417 424 424 419 428 418 419 425 418 421 421 425 423 418 419 424 417 423 421 424 421 418 419 420 416 419 426 419 418 416 421 423 413 419 425 418 417 417 428 423 425 419 424 420

Tree=0
num_leaves=3
num_cat=0
split_feature=47 47
split_gain=3.29478e+14 5.26052e+14
threshold=0.13198009425797555 0.073275436401483471
decision_type=2 2
left_child=1 -1
right_child=-2 -3
leaf_value=427610.64505991479 428009.78624988737 417188.50009550166
leaf_weight=22167 40685 26680
leaf_count=22167 40685 26680
internal_value=424686 421918
internal_weight=0 48847
internal_count=89532 48847
is_linear=0
shrinkage=1


Tree=1
num_leaves=3
num_cat=0
split_feature=23 8
split_gain=1.4919e+14 1.11624e+14
threshold=1.0000000180025095e-35 1.0000000180025095e-35
decision_type=2 2
left_child=1 -1
right_child=-2 -3
leaf_value=-22.937448355923969 13485.414943059721 -11457.662163136265
leaf_weight=85338 2005 2189
leaf_count=85338 2005 2189
internal_value=0 -308.913
internal_weight=0 87527
internal_count=89532 87527
is_linear=0
shrinkage=0.05


Tree=2
num_leaves=3
num_cat=0
split_feature=11 5
split_gain=1.61399e+14 1.16182e+14
threshold=1.0000000180025095e-35 1.0000000180025095e-35
decision_type=2 2
left_child=1 -1
right_child=-2 -3
leaf_value=-47.61560785384097 13416.074054373004 -11870.139932697906
leaf_weight=85215 2187 2130
leaf_count=85215 2187 2130
internal_value=0 -335.92
internal_weight=0 87345
internal_count=89532 87345
is_linear=0
shrinkage=0.05


Tree=3
num_leaves=3
num_cat=0
split_feature=47 47
split_gain=2.91775e+14 4.59493e+14
threshold=0.13198009425797555 0.073275436401483471
decision_type=2 2
left_child=1 -1
right_child=-2 -3
leaf_value=2715.2529235695388 3127.5683248185405 -7025.2668282368004
leaf_weight=22167 40685 26680
leaf_count=22167 40685 26680
internal_value=0 -2604.97
internal_weight=0 48847
internal_count=89532 48847
is_linear=0
shrinkage=0.05


Tree=4
num_leaves=3
num_cat=0
split_feature=16 11
split_gain=1.78394e+14 1.51029e+14
threshold=1.0000000180025095e-35 1.0000000180025095e-35
decision_type=2 2
left_child=1 -1
right_child=-2 -3
leaf_value=-697.81126620199564 13681.040993325623 12609.507498311104
leaf_weight=85024 2321 2187
leaf_count=85024 2321 2187
internal_value=0 -364.102
internal_weight=0 87211
internal_count=89532 87211
is_linear=0
shrinkage=0.05


Tree=5
num_leaves=3
num_cat=0
split_feature=13 23
split_gain=1.32875e+14 1.25604e+14
threshold=1.0000000180025095e-35 1.0000000180025095e-35
decision_type=2 2
left_child=1 -1
right_child=-2 -3
leaf_value=30.930693905976753 -11507.930109400515 12692.037537419803
leaf_weight=85087 2440 2005
leaf_count=85087 2440 2005
internal_value=0 322.41
internal_weight=0 87092
internal_count=89532 87092
is_linear=0
shrinkage=0.05


Tree=6
num_leaves=3
num_cat=0
split_feature=11 13
split_gain=1.28641e+14 1.13511e+14
threshold=1.0000000180025095e-35 1.0000000180025095e-35
decision_type=2 2
left_child=1 -1
right_child=-2 -3
leaf_value=5.6607813456043274 11977.485346767789 -10932.53338713517
leaf_weight=84905 2187 2440
leaf_count=84905 2187 2440
internal_value=0 -299.9
internal_weight=0 87345
internal_count=89532 87345
is_linear=0
shrinkage=0.05


Tree=7
num_leaves=3
num_cat=0
split_feature=16 5
split_gain=1.60955e+14 9.71386e+13
threshold=1.0000000180025095e-35 1.0000000180025095e-35
decision_type=2 2
left_child=1 -1
right_child=-2 -3
leaf_value=-81.817988241590214 12995.159507431013 -10892.308669115479
leaf_weight=85081 2321 2130
leaf_count=85081 2321 2130
internal_value=0 -345.848
internal_weight=0 87211
internal_count=89532 87211
is_linear=0
shrinkage=0.05


Tree=8
num_leaves=3
num_cat=0
split_feature=16 23
split_gain=1.45262e+14 1.2601e+14
threshold=1.0000000180025095e-35 1.0000000180025095e-35
decision_type=2 2
left_child=1 -1
right_child=-2 -3
leaf_value=-620.10254448408659 12345.401987976311 12061.242910812693
leaf_weight=85206 2321 2005
leaf_count=85206 2321 2005
internal_value=0 -328.556
internal_weight=0 87211
internal_count=89532 87211
is_linear=0
shrinkage=0.05


Tree=9
num_leaves=3
num_cat=0
split_feature=47 47
split_gain=2.6434e+14 3.92085e+14
threshold=0.13198009425797555 0.073275436401483471
decision_type=2 2
left_child=1 -1
right_child=-2 -3
leaf_value=2435.0350730770629 2976.9016306637272 -6562.693667865421
leaf_weight=22167 40685 26680
leaf_count=22167 40685 26680
internal_value=0 -2479.48
internal_weight=0 48847
internal_count=89532 48847
is_linear=0
shrinkage=0.05


Tree=10
num_leaves=3
num_cat=0
split_feature=23 5
split_gain=1.04926e+14 8.26645e+13
threshold=1.0000000180025095e-35 1.0000000180025095e-35
decision_type=2 2
left_child=1 -1
right_child=-2 -3
leaf_value=-16.389403376626387 11309.335947382064 -9988.5537446594244
leaf_weight=85397 2005 2130
leaf_count=85397 2005 2130
internal_value=0 -259.065
internal_weight=0 87527
internal_count=89532 87527
is_linear=0
shrinkage=0.05


Tree=11
num_leaves=3
num_cat=0
split_feature=47 47
split_gain=2.34019e+14 3.50569e+14
threshold=0.13198009425797555 0.073275436401483471
decision_type=2 2
left_child=1 -1
right_child=-2 -3
leaf_value=2314.1029966439201 2800.9685758930868 -6193.9332781395515
leaf_weight=22167 40685 26680
leaf_count=22167 40685 26680
internal_value=0 -2332.95
internal_weight=0 48847
internal_count=89532 48847
is_linear=0
shrinkage=0.05


Tree=12
num_leaves=3
num_cat=0
split_feature=47 47
split_gain=2.1154e+14 3.21191e+14
threshold=0.13017708110830392 0.073275436401483471
decision_type=2 2
left_child=1 -1
right_child=-2 -3
leaf_value=2198.3975939057068 2641.6707522349407 -5970.4423964986099
leaf_weight=22167 41043 26322
leaf_count=22167 41043 26322
internal_value=0 -2236.01
internal_weight=0 48489
internal_count=89532 48489
is_linear=0
shrinkage=0.05


Tree=13
num_leaves=3
num_cat=0
split_feature=16 41
split_gain=1.23466e+14 1.02619e+14
threshold=1.0000000180025095e-35 1.0000000180025095e-35
decision_type=2 2
left_child=1 -1
right_child=-2 -3
leaf_value=-33.165967106468905 11381.574478384771 -11208.557894272793
leaf_weight=85106 2321 2105
leaf_count=85106 2321 2105
internal_value=0 -302.905
internal_weight=0 87211
internal_count=89532 87211
is_linear=0
shrinkage=0.05


Tree=14
num_leaves=3
num_cat=0
split_feature=16 11
split_gain=1.11428e+14 1.15726e+14
threshold=1.0000000180025095e-35 1.0000000180025095e-35
decision_type=2 2
left_child=1 -1
right_child=-2 -3
leaf_value=-579.87487404272986 10812.495874818591 11068.808745207611
leaf_weight=85024 2321 2187
leaf_count=85024 2321 2187
internal_value=0 -287.76
internal_weight=0 87211
internal_count=89532 87211
is_linear=0
shrinkage=0.05


Tree=15
num_leaves=3
num_cat=0
split_feature=47 47
split_gain=2.00045e+14 2.76813e+14
threshold=0.13017708110830392 0.073275436401483471
decision_type=2 2
left_child=1 -1
right_child=-2 -3
leaf_value=1942.2658387923309 2568.8973943257624 -5641.2680194490576
leaf_weight=22167 41043 26322
leaf_count=22167 41043 26322
internal_value=0 -2174.42
internal_weight=0 48489
internal_count=89532 48489
is_linear=0
shrinkage=0.05


Tree=16
num_leaves=3
num_cat=0
split_feature=47 47
split_gain=1.80541e+14 2.49823e+14
threshold=0.13017708110830392 0.073275436401483471
decision_type=2 2
left_child=1 -1
right_child=-2 -3
leaf_value=1845.1526962577559 2440.4526661524246 -5359.2047521335853
leaf_weight=22167 41043 26322
leaf_count=22167 41043 26322
internal_value=0 -2065.7
internal_weight=0 48489
internal_count=89532 48489
is_linear=0
shrinkage=0.05


Tree=17
num_leaves=3
num_cat=0
split_feature=13 16
split_gain=1.18249e+14 9.12005e+13
threshold=1.0000000180025095e-35 1.0000000180025095e-35
decision_type=2 2
left_child=1 -1
right_child=-2 -3
leaf_value=36.420148078259835 -10856.087613885677 10082.499885014078
leaf_weight=84771 2440 2321
leaf_count=84771 2440 2321
internal_value=0 304.148
internal_weight=0 87092
internal_count=89532 87092
is_linear=0
shrinkage=0.05


Tree=18
num_leaves=3
num_cat=0
split_feature=47 47
split_gain=1.62788e+14 2.22744e+14
threshold=0.13198009425797555 0.073275436401483471
decision_type=2 2
left_child=1 -1
right_child=-2 -3
leaf_value=1758.4288410250892 2336.1106937692321 -5023.3790056748012
leaf_weight=22167 40685 26680
leaf_count=22167 40685 26680
internal_value=0 -1945.76
internal_weight=0 48847
internal_count=89532 48847
is_linear=0
shrinkage=0.05


Tree=19
num_leaves=3
num_cat=0
split_feature=41 11
split_gain=1.04112e+14 8.92171e+13
threshold=1.0000000180025095e-35 1.0000000180025095e-35
decision_type=2 2
left_child=1 -1
right_child=-2 -3
leaf_value=8.7230516874760138 -10988.229960039189 10236.254280993249
leaf_weight=85240 2105 2187
leaf_count=85240 2105 2187
internal_value=0 264.566
internal_weight=0 87427
internal_count=89532 87427
is_linear=0
shrinkage=0.05


Tree=20
num_leaves=3
num_cat=0
split_feature=41 12
split_gain=9.3961e+13 8.81667e+13
threshold=1.0000000180025095e-35 1.0000000180025095e-35
decision_type=2 2
left_child=1 -1
right_child=-2 -3
leaf_value=498.05303189324815 -10438.818830172613 -9967.5326401889706
leaf_weight=85366 2105 2061
leaf_count=85366 2105 2061
internal_value=0 251.338
internal_weight=0 87427
internal_count=89532 87427
is_linear=0
shrinkage=0.05


Tree=21
num_leaves=3
num_cat=0
split_feature=47 47
split_gain=1.51276e+14 2.04026e+14
threshold=0.13017708110830392 0.073275436401483471
decision_type=2 2
left_child=1 -1
right_child=-2 -3
leaf_value=1643.3685788988496 2233.9208034449252 -4867.2352390388869
leaf_weight=22167 41043 26322
leaf_count=22167 41043 26322
internal_value=0 -1890.88
internal_weight=0 48489
internal_count=89532 48489
is_linear=0
shrinkage=0.05


Tree=22
num_leaves=3
num_cat=0
split_feature=47 47
split_gain=1.36526e+14 1.84133e+14
threshold=0.13017708110830392 0.073275436401483471
decision_type=2 2
left_child=1 -1
right_child=-2 -3
leaf_value=1561.2000731201281 2122.2247918219487 -4623.8736623119721
leaf_weight=22167 41043 26322
leaf_count=22167 41043 26322
internal_value=0 -1796.33
internal_weight=0 48489
internal_count=89532 48489
is_linear=0
shrinkage=0.05


Tree=23
num_leaves=3
num_cat=0
split_feature=47 47
split_gain=1.23273e+14 1.64004e+14
threshold=0.13198009425797555 0.078190141654991413
decision_type=2 2
left_child=1 -1
right_child=-2 -3
leaf_value=1394.2578670492162 2032.9008634637221 -4411.8589354505084
leaf_weight=22872 40685 25975
leaf_count=22872 40685 25975
internal_value=0 -1693.22
internal_weight=0 48847
internal_count=89532 48847
is_linear=0
shrinkage=0.05


Tree=24
num_leaves=3
num_cat=0
split_feature=13 41
split_gain=1.1394e+14 9.57629e+13
threshold=1.0000000180025095e-35 1.0000000180025095e-35
decision_type=2 2
left_child=1 -1
right_child=-2 -3
leaf_value=559.48902907154923 -10656.484624656603 -10236.329929357062
leaf_weight=84987 2440 2105
leaf_count=84987 2440 2105
internal_value=0 298.556
internal_weight=0 87092
internal_count=89532 87092
is_linear=0
shrinkage=0.05


Tree=25
num_leaves=3
num_cat=0
split_feature=47 47
split_gain=1.11397e+14 1.53926e+14
threshold=0.13017708110830392 0.073275436401483471
decision_type=2 2
left_child=1 -1
right_child=-2 -3
leaf_value=1447.1819873517588 1916.9895749089283 -4207.8368399115689
leaf_weight=22167 41043 26322
leaf_count=22167 41043 26322
internal_value=0 -1622.62
internal_weight=0 48489
internal_count=89532 48489
is_linear=0
shrinkage=0.05


Tree=26
num_leaves=3
num_cat=0
split_feature=41 12
split_gain=8.31572e+13 8.50373e+13
threshold=1.0000000180025095e-35 1.0000000180025095e-35
decision_type=2 2
left_child=1 -1
right_child=-2 -3
leaf_value=478.74430227198582 -9820.3628411404934 -9799.4300947801057
leaf_weight=85366 2105 2061
leaf_count=85366 2105 2061
internal_value=0 236.447
internal_weight=0 87427
internal_count=89532 87427
is_linear=0
shrinkage=0.05


Tree=27
num_leaves=3
num_cat=0
split_feature=47 47
split_gain=1.00809e+14 1.41647e+14
threshold=0.13017708110830392 0.080540282970409646
decision_type=2 2
left_child=1 -1
right_child=-2 -3
leaf_value=1273.450589492589 1823.6138695707702 -4136.0351394974523
leaf_weight=23238 41043 25251
leaf_count=23238 41043 25251
internal_value=0 -1543.58
internal_weight=0 48489
internal_count=89532 48489
is_linear=0
shrinkage=0.05


Tree=28
num_leaves=3
num_cat=0
split_feature=16 23
split_gain=7.80142e+13 7.86812e+13
threshold=1.0000000180025095e-35 1.0000000180025095e-35
decision_type=2 2
left_child=1 -1
right_child=-2 -3
leaf_value=-471.15799006818537 9047.230110396913 9549.5625359970418
leaf_weight=85206 2321 2005
leaf_count=85206 2321 2005
internal_value=0 -240.779
internal_weight=0 87211
internal_count=89532 87211
is_linear=0
shrinkage=0.05


Tree=29
num_leaves=3
num_cat=0
split_feature=13 41
split_gain=1.05621e+14 8.09254e+13
threshold=1.0000000180025095e-35 1.0000000180025095e-35
decision_type=2 2
left_child=1 -1
right_child=-2 -3
leaf_value=527.31833644765607 -10260.070876912601 -9396.9675149383911
leaf_weight=84987 2440 2105
leaf_count=84987 2440 2105
internal_value=0 287.45
internal_weight=0 87092
internal_count=89532 87092
is_linear=0
shrinkage=0.05


Tree=30
num_leaves=3
num_cat=0
split_feature=47 47
split_gain=9.08354e+13 1.26836e+14
threshold=0.13198009425797555 0.073275436401483471
decision_type=2 2
left_child=1 -1
right_child=-2 -3
leaf_value=1341.7252212582162 1745.0590991540294 -3775.8530555008592
leaf_weight=22167 40685 26680
leaf_count=22167 40685 26680
internal_value=0 -1453.47
internal_weight=0 48847
internal_count=89532 48847
is_linear=0
shrinkage=0.05


Tree=31
num_leaves=3
num_cat=0
split_feature=12 41
split_gain=7.52445e+13 7.36107e+13
threshold=1.0000000180025095e-35 1.0000000180025095e-35
decision_type=2 2
left_child=1 -1
right_child=-2 -3
leaf_value=450.26500323325217 -9443.0254241917446 -9014.3721964676988
leaf_weight=85366 2061 2105
leaf_count=85366 2061 2105
internal_value=0 222.497
internal_weight=0 87471
internal_count=89532 87471
is_linear=0
shrinkage=0.05


Tree=32
num_leaves=3
num_cat=0
split_feature=47 47
split_gain=8.22794e+13 1.18665e+14
threshold=0.13017708110830392 0.085371417516362527
decision_type=2 2
left_child=1 -1
right_child=-2 -3
leaf_value=1108.2676704389662 1647.511268788028 -3839.0450915391275
leaf_weight=23959 41043 24530
leaf_count=23959 41043 24530
internal_value=0 -1394.52
internal_weight=0 48489
internal_count=89532 48489
is_linear=0
shrinkage=0.05


Tree=33
num_leaves=3
num_cat=0
split_feature=47 47
split_gain=7.42571e+13 1.07674e+14
threshold=0.13017708110830392 0.073275436401483471
decision_type=2 2
left_child=1 -1
right_child=-2 -3
leaf_value=1242.7044572290702 1565.1354385163822 -3487.0027280579329
leaf_weight=22167 41043 26322
leaf_count=22167 41043 26322
internal_value=0 -1324.79
internal_weight=0 48489
internal_count=89532 48489
is_linear=0
shrinkage=0.05


Tree=34
num_leaves=3
num_cat=0
split_feature=13 12
split_gain=9.94178e+13 7.40915e+13
threshold=1.0000000180025095e-35 1.0000000180025095e-35
decision_type=2 2
left_child=1 -1
right_child=-2 -3
leaf_value=505.9276228829894 -9954.2158804662104 -9088.4234028386363
leaf_weight=85031 2440 2061
leaf_count=85031 2440 2061
internal_value=0 278.881
internal_weight=0 87092
internal_count=89532 87092
is_linear=0
shrinkage=0.05


Tree=35
num_leaves=3
num_cat=0
split_feature=11 23
split_gain=7.33839e+13 6.6142e+13
threshold=1.0000000180025095e-35 1.0000000180025095e-35
decision_type=2 2
left_child=1 -1
right_child=-2 -3
leaf_value=-437.40664517958834 9046.4024916269918 8750.02322065929
leaf_weight=85340 2187 2005
leaf_count=85340 2187 2005
internal_value=0 -226.51
internal_weight=0 87345
internal_count=89532 87345
is_linear=0
shrinkage=0.05


Tree=36
num_leaves=3
num_cat=0
split_feature=23 38
split_gain=5.66861e+13 4.84752e+13
threshold=1.0000000180025095e-35 1.0000000180025095e-35
decision_type=2 2
left_child=1 -1
right_child=-2 -3
leaf_value=-383.5450832984605 8312.5223627089508 6978.8010473131844
leaf_weight=85231 2005 2296
leaf_count=85231 2005 2296
internal_value=0 -190.417
internal_weight=0 87527
internal_count=89532 87527
is_linear=0
shrinkage=0.05


Tree=37
num_leaves=3
num_cat=0
split_feature=16 47
split_gain=6.68852e+13 8.55905e+13
threshold=1.0000000180025095e-35 0.13017708110830392
decision_type=2 2
left_child=1 -1
right_child=-2 -3
leaf_value=-1699.82856577961 8377.1057956841832 1438.3556056988657
leaf_weight=46168 2321 41043
leaf_count=46168 2321 41043
internal_value=0 -222.945
internal_weight=0 87211
internal_count=89532 87211
is_linear=0
shrinkage=0.05


Tree=38
num_leaves=3
num_cat=0
split_feature=13 41
split_gain=8.73487e+13 7.05429e+13
threshold=1.0000000180025095e-35 1.0000000180025095e-35
decision_type=2 2
left_child=1 -1
right_child=-2 -3
leaf_value=485.35887367162735 -9330.4659503518178 -8780.452933140843
leaf_weight=84987 2440 2105
leaf_count=84987 2440 2105
internal_value=0 261.406
internal_weight=0 87092
internal_count=89532 87092
is_linear=0
shrinkage=0.05


Tree=39
num_leaves=3
num_cat=0
split_feature=13 11
split_gain=7.88322e+13 6.37031e+13
threshold=1.0000000180025095e-35 1.0000000180025095e-35
decision_type=2 2
left_child=1 -1
right_child=-2 -3
leaf_value=31.305854324506978 -8863.9425663624734 8673.9825426360712
leaf_weight=84905 2440 2187
leaf_count=84905 2440 2187
internal_value=0 248.335
internal_weight=0 87092
internal_count=89532 87092
is_linear=0
shrinkage=0.05


Tree=40
num_leaves=3
num_cat=0
split_feature=41 2
split_gain=6.0019e+13 5.99387e+13
threshold=1.0000000180025095e-35 1.0000000180025095e-35
decision_type=2 2
left_child=1 -1
right_child=-2 -3
leaf_value=415.01132026694944 -8342.9953917036255 -7803.2469650410894
leaf_weight=85149 2105 2278
leaf_count=85149 2105 2278
internal_value=0 200.876
internal_weight=0 87427
internal_count=89532 87427
is_linear=0
shrinkage=0.05


Tree=41
num_leaves=3
num_cat=0
split_feature=13 11
split_gain=7.14971e+13 5.7186e+13
threshold=1.0000000180025095e-35 1.0000000180025095e-35
decision_type=2 2
left_child=1 -1
right_child=-2 -3
leaf_value=30.871434868962709 -8441.4958084717746 8219.5333619894373
leaf_weight=84905 2440 2187
leaf_count=84905 2440 2187
internal_value=0 236.5
internal_weight=0 87092
internal_count=89532 87092
is_linear=0
shrinkage=0.05


Tree=42
num_leaves=3
num_cat=0
split_feature=12 41
split_gain=6.17736e+13 5.70117e+13
threshold=1.0000000180025095e-35 1.0000000180025095e-35
decision_type=2 2
left_child=1 -1
right_child=-2 -3
leaf_value=402.04833399802311 -8556.0905912966609 -7927.3891436216672
leaf_weight=85366 2061 2105
leaf_count=85366 2061 2105
internal_value=0 201.599
internal_weight=0 87471
internal_count=89532 87471
is_linear=0
shrinkage=0.05


Tree=43
num_leaves=3
num_cat=0
split_feature=13 22
split_gain=6.48501e+13 5.65184e+13
threshold=1.0000000180025095e-35 1.0000000180025095e-35
decision_type=2 2
left_child=1 -1
right_child=-2 -3
leaf_value=433.74897025255399 -8039.523731908329 -7555.5305241944607
leaf_weight=84819 2440 2273
leaf_count=84819 2440 2273
internal_value=0 225.238
internal_weight=0 87092
internal_count=89532 87092
is_linear=0
shrinkage=0.05


Tree=44
num_leaves=3
num_cat=0
split_feature=16 11
split_gain=5.90076e+13 5.70857e+13
threshold=1.0000000180025095e-35 1.0000000180025095e-35
decision_type=2 2
left_child=1 -1
right_child=-2 -3
leaf_value=-414.56913126004611 7868.3332858916037 7766.7663030563344
leaf_weight=85024 2321 2187
leaf_count=85024 2321 2187
internal_value=0 -209.405
internal_weight=0 87211
internal_count=89532 87211
is_linear=0
shrinkage=0.05


Tree=45
num_leaves=3
num_cat=0
split_feature=47 47
split_gain=5.84177e+13 1.00952e+14
threshold=0.13198009425797555 0.073275436401483471
decision_type=2 2
left_child=1 -1
right_child=-2 -3
leaf_value=1328.1198057979091 1399.4414936155217 -3237.5079823164338
leaf_weight=22167 40685 26680
leaf_count=22167 40685 26680
internal_value=0 -1165.6
internal_weight=0 48847
internal_count=89532 48847
is_linear=0
shrinkage=0.05


Tree=46
num_leaves=3
num_cat=0
split_feature=47 47
split_gain=5.27381e+13 9.47304e+13
threshold=0.13017708110830392 0.27468375552467444
decision_type=2 2
left_child=-1 -2
right_child=1 -3
leaf_value=-1116.4549760233101 5394.2642264629912 -96.904857091997229
leaf_weight=48489 10583 30460
leaf_count=48489 10583 30460
internal_value=0 1319
internal_weight=0 41043
internal_count=89532 41043
is_linear=0
shrinkage=0.05


Tree=47
num_leaves=3
num_cat=0
split_feature=12 2
split_gain=5.59091e+13 5.45809e+13
threshold=1.0000000180025095e-35 1.0000000180025095e-35
decision_type=2 2
left_child=1 -1
right_child=-2 -3
leaf_value=396.02786731277894 -8139.8281768250963 -7446.2730354609666
leaf_weight=85193 2061 2278
leaf_count=85193 2061 2278
internal_value=0 191.791
internal_weight=0 87471
internal_count=89532 87471
is_linear=0
shrinkage=0.05


Tree=48
num_leaves=3
num_cat=0
split_feature=13 12
split_gain=5.86753e+13 5.33279e+13
threshold=1.0000000180025095e-35 1.0000000180025095e-35
decision_type=2 2
left_child=1 -1
right_child=-2 -3
leaf_value=406.86976898084481 -7647.2035363156683 -7732.8364968323476
leaf_weight=85031 2440 2061
leaf_count=85031 2440 2061
internal_value=0 214.247
internal_weight=0 87092
internal_count=89532 87092
is_linear=0
shrinkage=0.05


Tree=49
num_leaves=3
num_cat=0
split_feature=22 47
split_gain=4.92012e+13 6.49618e+13
threshold=1.0000000180025095e-35 0.1439892017044746
decision_type=2 2
left_child=1 -1
right_child=-2 -3
leaf_value=-971.78485671303088 -7262.2974210981647 1792.3126620138855
leaf_weight=50609 2273 36650
leaf_count=50609 2273 36650
internal_value=0 189.175
internal_weight=0 87259
internal_count=89532 87259
is_linear=0
shrinkage=0.05


Tree=50
num_leaves=3
num_cat=0
split_feature=16 11
split_gain=5.32238e+13 5.149e+13
threshold=1.0000000180025095e-35 1.0000000180025095e-35
decision_type=2 2
left_child=1 -1
right_child=-2 -3
leaf_value=-393.72729760003995 7472.7775322134667 7376.289589004622
leaf_weight=85024 2321 2187
leaf_count=85024 2321 2187
internal_value=0 -198.878
internal_weight=0 87211
internal_count=89532 87211
is_linear=0
shrinkage=0.05


Tree=51
num_leaves=3
num_cat=0
split_feature=13 41
split_gain=5.19638e+13 5.39708e+13
threshold=1.0000000180025095e-35 1.0000000180025095e-35
decision_type=2 2
left_child=1 -1
right_child=-2 -3
leaf_value=397.51067760277766 -7196.5676647874179 -7707.1797633203714
leaf_weight=84987 2440 2105
leaf_count=84987 2440 2105
internal_value=0 201.622
internal_weight=0 87092
internal_count=89532 87092
is_linear=0
shrinkage=0.05


Tree=52
num_leaves=3
num_cat=0
split_feature=37 47
split_gain=4.84497e+13 6.21119e+13
threshold=1.0000000180025095e-35 0.13198009425797555
decision_type=2 2
left_child=1 -1
right_child=-2 -3
leaf_value=-989.16668759200911 -7018.771725538154 1700.4529897289344
leaf_weight=48847 2393 38292
leaf_count=48847 2393 38292
internal_value=0 192.749
internal_weight=0 87139
internal_count=89532 87139
is_linear=0
shrinkage=0.05


Tree=53
num_leaves=3
num_cat=0
split_feature=47 47
split_gain=4.94908e+13 5.69606e+13
threshold=0.9857207911371717 0.1439892017044746
decision_type=2 2
left_child=1 -1
right_child=-2 -3
leaf_value=-895.12922271751017 -7212.3336478255151 1694.0546064476891
leaf_weight=50609 2317 36606
leaf_count=50609 2317 36606
internal_value=0 191.607
internal_weight=0 87215
internal_count=89532 87215
is_linear=0
shrinkage=0.05


Tree=54
num_leaves=3
num_cat=0
split_feature=41 47
split_gain=4.83936e+13 5.11992e+13
threshold=1.0000000180025095e-35 0.13198009425797555
decision_type=2 2
left_child=1 -1
right_child=-2 -3
leaf_value=-894.95196777705485 -7491.5458295860199 1541.8721440801601
leaf_weight=48847 2105 38580
leaf_count=48847 2105 38580
internal_value=0 180.376
internal_weight=0 87427
internal_count=89532 87427
is_linear=0
shrinkage=0.05


Tree=55
num_leaves=3
num_cat=0
split_feature=22 37
split_gain=4.76405e+13 4.8443e+13
threshold=1.0000000180025095e-35 1.0000000180025095e-35
decision_type=2 2
left_child=1 -1
right_child=-2 -3
leaf_value=383.97709568457134 -7146.190346225264 -6829.6294825821115
leaf_weight=84866 2273 2393
leaf_count=84866 2273 2393
internal_value=0 186.15
internal_weight=0 87259
internal_count=89532 87259
is_linear=0
shrinkage=0.05


Tree=56
num_leaves=3
num_cat=0
split_feature=32 47
split_gain=4.62783e+13 4.97307e+13
threshold=1.0000000180025095e-35 0.1439892017044746
decision_type=2 2
left_child=1 -1
right_child=-2 -3
leaf_value=-829.06575189994965 -6940.5692637643533 1590.645737399489
leaf_weight=50609 2339 36584
leaf_count=50609 2339 36584
internal_value=0 186.185
internal_weight=0 87193
internal_count=89532 87193
is_linear=0
shrinkage=0.05


Tree=57
num_leaves=3
num_cat=0
split_feature=17 19
split_gain=4.6734e+13 4.84168e+13
threshold=1.0000000180025095e-35 1.0000000180025095e-35
decision_type=2 2
left_child=1 -1
right_child=-2 -3
leaf_value=-371.64958251082379 7068.3044535644849 7232.6725232026556
leaf_weight=85107 2279 2146
leaf_count=85107 2279 2146
internal_value=0 -184.62
internal_weight=0 87253
internal_count=89532 87253
is_linear=0
shrinkage=0.05


Tree=58
num_leaves=3
num_cat=0
split_feature=11 47
split_gain=4.60651e+13 4.83656e+13
threshold=1.0000000180025095e-35 0.014805756115173182
decision_type=2 2
left_child=1 -1
right_child=-2 -3
leaf_value=6662.159992481048 7167.3988398966649 -381.80093373428315
leaf_weight=2509 2187 84836
leaf_count=2509 2187 84836
internal_value=0 -179.462
internal_weight=0 87345
internal_count=89532 87345
is_linear=0
shrinkage=0.05


Tree=59
num_leaves=3
num_cat=0
split_feature=30 41
split_gain=4.92206e+13 4.67029e+13
threshold=1.0000000180025095e-35 1.0000000180025095e-35
decision_type=2 2
left_child=1 -1
right_child=-2 -3
leaf_value=360.81525972549252 -7660.2919242237076 -7178.0271168412964
leaf_weight=85378 2049 2105
leaf_count=85378 2049 2105
internal_value=0 179.417
internal_weight=0 87483
internal_count=89532 87483
is_linear=0
shrinkage=0.05


Tree=60
num_leaves=3
num_cat=0
split_feature=14 47
split_gain=4.52417e+13 4.70336e+13
threshold=1.0000000180025095e-35 0.13017708110830392
decision_type=2 2
left_child=1 -1
right_child=-2 -3
leaf_value=-1282.6043126024288 6776.6083038520901 1044.6183259244383
leaf_weight=46092 2397 41043
leaf_count=46092 2397 41043
internal_value=0 -186.418
internal_weight=0 87135
internal_count=89532 87135
is_linear=0
shrinkage=0.05


Tree=61
num_leaves=3
num_cat=0
split_feature=16 17
split_gain=4.633e+13 4.54176e+13
threshold=1.0000000180025095e-35 1.0000000180025095e-35
decision_type=2 2
left_child=1 -1
right_child=-2 -3
leaf_value=-372.46143462156107 6972.0438862706505 6780.0691454172229
leaf_weight=84932 2321 2279
leaf_count=84932 2321 2279
internal_value=0 -185.551
internal_weight=0 87211
internal_count=89532 87211
is_linear=0
shrinkage=0.05


Tree=62
num_leaves=3
num_cat=0
split_feature=30 22
split_gain=4.48329e+13 4.64427e+13
threshold=1.0000000180025095e-35 1.0000000180025095e-35
decision_type=2 2
left_child=1 -1
right_child=-2 -3
leaf_value=359.39062460652258 -7310.885355139827 -6882.3895688864186
leaf_weight=85210 2049 2273
leaf_count=85210 2049 2273
internal_value=0 171.233
internal_weight=0 87483
internal_count=89532 87483
is_linear=0
shrinkage=0.05


Tree=63
num_leaves=3
num_cat=0
split_feature=33 13
split_gain=4.61152e+13 4.59968e+13
threshold=1.0000000180025095e-35 1.0000000180025095e-35
decision_type=2 2
left_child=1 -1
right_child=-2 -3
leaf_value=371.75223002711272 -7260.2588128998023 -6591.1070810987139
leaf_weight=84957 2135 2440
leaf_count=84957 2135 2440
internal_value=0 177.359
internal_weight=0 87397
internal_count=89532 87397
is_linear=0
shrinkage=0.05


Tree=64
num_leaves=3
num_cat=0
split_feature=18 47
split_gain=4.36102e+13 4.4571e+13
threshold=1.0000000180025095e-35 0.13017708110830392
decision_type=2 2
left_child=1 -1
right_child=-2 -3
leaf_value=-1227.5300026439052 7281.7491011627171 1033.5026419817814
leaf_weight=46479 2010 41043
leaf_count=46479 2010 41043
internal_value=0 -167.23
internal_weight=0 87522
internal_count=89532 87522
is_linear=0
shrinkage=0.05


Tree=65
num_leaves=3
num_cat=0
split_feature=37 47
split_gain=4.37528e+13 4.56207e+13
threshold=1.0000000180025095e-35 0.1439892017044746
decision_type=2 2
left_child=1 -1
right_child=-2 -3
leaf_value=-788.8086689228868 -6669.8882493144938 1529.7525950081363
leaf_weight=50609 2393 36530
leaf_count=50609 2393 36530
internal_value=0 183.168
internal_weight=0 87139
internal_count=89532 87139
is_linear=0
shrinkage=0.05


Tree=66
num_leaves=3
num_cat=0
split_feature=19 16
split_gain=4.333e+13 4.48832e+13
threshold=1.0000000180025095e-35 1.0000000180025095e-35
decision_type=2 2
left_child=1 -1
right_child=-2 -3
leaf_value=-359.55030200695495 7019.1009833087901 6687.7018778964093
leaf_weight=85065 2146 2321
leaf_count=85065 2146 2321
internal_value=0 -172.373
internal_weight=0 87386
internal_count=89532 87386
is_linear=0
shrinkage=0.05


Tree=67
num_leaves=3
num_cat=0
split_feature=11 14
split_gain=4.33876e+13 4.44244e+13
threshold=1.0000000180025095e-35 1.0000000180025095e-35
decision_type=2 2
left_child=1 -1
right_child=-2 -3
leaf_value=-363.58520989622258 6955.9785618311544 6538.638234834827
leaf_weight=84948 2187 2397
leaf_count=84948 2187 2397
internal_value=0 -174.168
internal_weight=0 87345
internal_count=89532 87345
is_linear=0
shrinkage=0.05


Tree=68
num_leaves=3
num_cat=0
split_feature=32 2
split_gain=4.35914e+13 4.40642e+13
threshold=1.0000000180025095e-35 1.0000000180025095e-35
decision_type=2 2
left_child=1 -1
right_child=-2 -3
leaf_value=364.80029964809336 -6736.0795761512873 -6681.8841850032932
leaf_weight=84915 2339 2278
leaf_count=84915 2339 2278
internal_value=0 180.699
internal_weight=0 87193
internal_count=89532 87193
is_linear=0
shrinkage=0.05


Tree=69
num_leaves=3
num_cat=0
split_feature=41 30
split_gain=4.22458e+13 4.40254e+13
threshold=1.0000000180025095e-35 1.0000000180025095e-35
decision_type=2 2
left_child=1 -1
right_child=-2 -3
leaf_value=342.34826362046977 -6999.5371857153386 -7074.1745701631144
leaf_weight=85378 2105 2049
leaf_count=85378 2105 2049
internal_value=0 168.529
internal_weight=0 87427
internal_count=89532 87427
is_linear=0
shrinkage=0.05


Tree=70
num_leaves=3
num_cat=0
split_feature=12 13
split_gain=4.10741e+13 4.01573e+13
threshold=1.0000000180025095e-35 1.0000000180025095e-35
decision_type=2 2
left_child=1 -1
right_child=-2 -3
leaf_value=345.86769913644258 -6976.8237716005715 -6159.9354810771001
leaf_weight=85031 2061 2440
leaf_count=85031 2061 2440
internal_value=0 164.389
internal_weight=0 87471
internal_count=89532 87471
is_linear=0
shrinkage=0.05


Tree=71
num_leaves=3
num_cat=0
split_feature=33 47
split_gain=4.3383e+13 4.38983e+13
threshold=1.0000000180025095e-35 0.1439892017044746
decision_type=2 2
left_child=1 -1
right_child=-2 -3
leaf_value=-783.37427782249404 -7041.902676855083 1486.3610985638293
leaf_weight=50609 2135 36788
leaf_count=50609 2135 36788
internal_value=0 172.025
internal_weight=0 87397
internal_count=89532 87397
is_linear=0
shrinkage=0.05


Tree=72
num_leaves=3
num_cat=0
split_feature=22 32
split_gain=4.28305e+13 4.29565e+13
threshold=1.0000000180025095e-35 1.0000000180025095e-35
decision_type=2 2
left_child=1 -1
right_child=-2 -3
leaf_value=360.61803562043178 -6775.8322729829861 -6508.0044948726299
leaf_weight=84920 2273 2339
leaf_count=84920 2273 2339
internal_value=0 176.503
internal_weight=0 87259
internal_count=89532 87259
is_linear=0
shrinkage=0.05


Tree=73
num_leaves=3
num_cat=0
split_feature=37 41
split_gain=4.08551e+13 4.15122e+13
threshold=1.0000000180025095e-35 1.0000000180025095e-35
decision_type=2 2
left_child=1 -1
right_child=-2 -3
leaf_value=348.70248282635839 -6445.2372761016604 -6759.2027222535053
leaf_weight=85034 2393 2105
leaf_count=85034 2393 2105
internal_value=0 176.998
internal_weight=0 87139
internal_count=89532 87139
is_linear=0
shrinkage=0.05


Tree=74
num_leaves=3
num_cat=0
split_feature=17 19
split_gain=3.94304e+13 4.07766e+13
threshold=1.0000000180025095e-35 1.0000000180025095e-35
decision_type=2 2
left_child=1 -1
right_child=-2 -3
leaf_value=-341.22102708984562 6492.5336725942188 6637.3769523897909
leaf_weight=85107 2279 2146
leaf_count=85107 2279 2146
internal_value=0 -169.581
internal_weight=0 87253
internal_count=89532 87253
is_linear=0
shrinkage=0.05


Tree=75
num_leaves=3
num_cat=0
split_feature=18 16
split_gain=3.98572e+13 4.0287e+13
threshold=1.0000000180025095e-35 1.0000000180025095e-35
decision_type=2 2
left_child=1 -1
right_child=-2 -3
leaf_value=-336.92785815764051 6961.3714195866378 6339.6086610747225
leaf_weight=85201 2010 2321
leaf_count=85201 2010 2321
internal_value=0 -159.872
internal_weight=0 87522
internal_count=89532 87522
is_linear=0
shrinkage=0.05


Tree=76
num_leaves=3
num_cat=0
split_feature=11 47
split_gain=3.89792e+13 4.24617e+13
threshold=1.0000000180025095e-35 0.13017708110830392
decision_type=2 2
left_child=1 -1
right_child=-2 -3
leaf_value=-1203.0167122161629 6593.1387775241492 1005.8448378232954
leaf_weight=46302 2187 41043
leaf_count=46302 2187 41043
internal_value=0 -165.083
internal_weight=0 87345
internal_count=89532 87345
is_linear=0
shrinkage=0.05


Tree=77
num_leaves=3
num_cat=0
split_feature=30 47
split_gain=3.95186e+13 4.13459e+13
threshold=1.0000000180025095e-35 0.1439892017044746
decision_type=2 2
left_child=1 -1
right_child=-2 -3
leaf_value=-767.07014993653172 -6863.9279523925352 1434.2041976855778
leaf_weight=50609 2049 36874
leaf_count=50609 2049 36874
internal_value=0 160.765
internal_weight=0 87483
internal_count=89532 87483
is_linear=0
shrinkage=0.05


Tree=78
num_leaves=3
num_cat=0
split_feature=22 37
split_gain=3.99323e+13 4.00797e+13
threshold=1.0000000180025095e-35 1.0000000180025095e-35
decision_type=2 2
left_child=1 -1
right_child=-2 -3
leaf_value=350.36832232258399 -6542.5710300638566 -6211.0703264317744
leaf_weight=84866 2273 2393
leaf_count=84866 2273 2393
internal_value=0 170.427
internal_weight=0 87259
internal_count=89532 87259
is_linear=0
shrinkage=0.05


Tree=79
num_leaves=3
num_cat=0
split_feature=33 47
split_gain=4.0822e+13 4.00977e+13
threshold=1.0000000180025095e-35 0.1439892017044746
decision_type=2 2
left_child=1 -1
right_child=-2 -3
leaf_value=-746.23498694891521 -6830.8870287342652 1423.0225250093267
leaf_weight=50609 2135 36788
leaf_count=50609 2135 36788
internal_value=0 166.87
internal_weight=0 87397
internal_count=89532 87397
is_linear=0
shrinkage=0.05


Tree=80
num_leaves=3
num_cat=0
split_feature=32 8
split_gain=3.90655e+13 3.94415e+13
threshold=1.0000000180025095e-35 1.0000000180025095e-35
decision_type=2 2
left_child=1 -1
right_child=-2 -3
leaf_value=341.71246070465219 -6376.8040829987549 -6455.7238576201562
leaf_weight=85004 2339 2189
leaf_count=85004 2339 2189
internal_value=0 171.061
internal_weight=0 87193
internal_count=89532 87193
is_linear=0
shrinkage=0.05


Tree=81
num_leaves=3
num_cat=0
split_feature=22 33
split_gain=3.70694e+13 3.89538e+13
threshold=1.0000000180025095e-35 1.0000000180025095e-35
decision_type=2 2
left_child=1 -1
right_child=-2 -3
leaf_value=331.51033743081348 -6303.6791105599332 -6506.4280332032868
leaf_weight=85124 2273 2135
leaf_count=85124 2273 2135
internal_value=0 164.204
internal_weight=0 87259
internal_count=89532 87259
is_linear=0
shrinkage=0.05


Tree=82
num_leaves=3
num_cat=0
split_feature=14 18
split_gain=3.88699e+13 3.88506e+13
threshold=1.0000000180025095e-35 1.0000000180025095e-35
decision_type=2 2
left_child=1 -1
right_child=-2 -3
leaf_value=-335.02668272923552 6281.3020887241992 6697.9395712933147
leaf_weight=85125 2397 2010
leaf_count=85125 2397 2010
internal_value=0 -172.793
internal_weight=0 87135
internal_count=89532 87135
is_linear=0
shrinkage=0.05


Tree=83
num_leaves=3
num_cat=0
split_feature=11 47
split_gain=3.56435e+13 3.6347e+13
threshold=1.0000000180025095e-35 0.13017708110830392
decision_type=2 2
left_child=1 -1
right_child=-2 -3
leaf_value=-1118.1576323222841 6304.7189370935457 925.48087112238068
leaf_weight=46302 2187 41043
leaf_count=46302 2187 41043
internal_value=0 -157.862
internal_weight=0 87345
internal_count=89532 87345
is_linear=0
shrinkage=0.05


Tree=84
num_leaves=3
num_cat=0
split_feature=19 18
split_gain=3.69258e+13 3.5609e+13
threshold=1.0000000180025095e-35 1.0000000180025095e-35
decision_type=2 2
left_child=1 -1
right_child=-2 -3
leaf_value=-313.99243605475868 6479.6508082913333 6418.9502365601957
leaf_weight=85376 2146 2010
leaf_count=85376 2146 2010
internal_value=0 -159.125
internal_weight=0 87386
internal_count=89532 87386
is_linear=0
shrinkage=0.05


Tree=85
num_leaves=3
num_cat=0
split_feature=41 37
split_gain=3.80802e+13 3.75763e+13
threshold=1.0000000180025095e-35 1.0000000180025095e-35
decision_type=2 2
left_child=1 -1
right_child=-2 -3
leaf_value=333.89695445292 -6645.4910988075098 -6019.1519450037449
leaf_weight=85034 2105 2393
leaf_count=85034 2105 2393
internal_value=0 160.005
internal_weight=0 87427
internal_count=89532 87427
is_linear=0
shrinkage=0.05


Tree=86
num_leaves=3
num_cat=0
split_feature=30 47
split_gain=3.73572e+13 3.80644e+13
threshold=1.0000000180025095e-35 0.1439892017044746
decision_type=2 2
left_child=1 -1
right_child=-2 -3
leaf_value=-733.9474809310808 -6673.5805034676559 1378.1664962064006
leaf_weight=50609 2049 36874
leaf_count=50609 2049 36874
internal_value=0 156.307
internal_weight=0 87483
internal_count=89532 87483
is_linear=0
shrinkage=0.05


Tree=87
num_leaves=3
num_cat=0
split_feature=17 19
split_gain=3.80485e+13 3.53991e+13
threshold=1.0000000180025095e-35 1.0000000180025095e-35
decision_type=2 2
left_child=1 -1
right_child=-2 -3
leaf_value=-326.50522802879414 6377.7514767320808 6175.6705501659499
leaf_weight=85107 2279 2146
leaf_count=85107 2279 2146
internal_value=0 -166.583
internal_weight=0 87253
internal_count=89532 87253
is_linear=0
shrinkage=0.05


Tree=88
num_leaves=3
num_cat=0
split_feature=32 2
split_gain=3.64263e+13 3.7141e+13
threshold=1.0000000180025095e-35 1.0000000180025095e-35
decision_type=2 2
left_child=1 -1
right_child=-2 -3
leaf_value=334.20315656592919 -6157.6402800208743 -6135.2673939424403
leaf_weight=84915 2339 2278
leaf_count=84915 2339 2278
internal_value=0 165.182
internal_weight=0 87193
internal_count=89532 87193
is_linear=0
shrinkage=0.05


Tree=89
num_leaves=3
num_cat=0
split_feature=41 22
split_gain=3.51259e+13 3.63701e+13
threshold=1.0000000180025095e-35 1.0000000180025095e-35
decision_type=2 2
left_child=1 -1
right_child=-2 -3
leaf_value=320.28906227839525 -6382.5095478559851 -6088.3060501316813
leaf_weight=85154 2105 2273
leaf_count=85154 2105 2273
internal_value=0 153.673
internal_weight=0 87427
internal_count=89532 87427
is_linear=0
shrinkage=0.05


Tree=90
num_leaves=3
num_cat=0
split_feature=17 47
split_gain=3.39688e+13 3.52062e+13
threshold=1.0000000180025095e-35 0.13017708110830392
decision_type=2 2
left_child=1 -1
right_child=-2 -3
leaf_value=-1103.9442404998936 6026.1390552579342 908.30840329037517
leaf_weight=46210 2279 41043
leaf_count=46210 2279 41043
internal_value=0 -157.399
internal_weight=0 87253
internal_count=89532 87253
is_linear=0
shrinkage=0.05


Tree=91
num_leaves=3
num_cat=0
split_feature=30 12
split_gain=3.43755e+13 3.57648e+13
threshold=1.0000000180025095e-35 1.0000000180025095e-35
decision_type=2 2
left_child=1 -1
right_child=-2 -3
leaf_value=306.97186131657548 -6401.7163387073315 -6358.5765916331075
leaf_weight=85422 2049 2061
leaf_count=85422 2049 2061
internal_value=0 149.939
internal_weight=0 87483
internal_count=89532 87483
is_linear=0
shrinkage=0.05


Tree=92
num_leaves=3
num_cat=0
split_feature=16 14
split_gain=3.71007e+13 3.84912e+13
threshold=1.0000000180025095e-35 1.0000000180025095e-35
decision_type=2 2
left_child=1 -1
right_child=-2 -3
leaf_value=-342.63399864952379 6239.0754823539246 6082.2965828064443
leaf_weight=84814 2321 2397
leaf_count=84814 2321 2397
internal_value=0 -166.044
internal_weight=0 87211
internal_count=89532 87211
is_linear=0
shrinkage=0.05


Tree=93
num_leaves=3
num_cat=0
split_feature=33 47
split_gain=3.51719e+13 3.58084e+13
threshold=1.0000000180025095e-35 0.1439892017044746
decision_type=2 2
left_child=1 -1
right_child=-2 -3
leaf_value=-707.99369867016503 -6340.5649028447533 1341.9579401080045
leaf_weight=50609 2135 36788
leaf_count=50609 2135 36788
internal_value=0 154.892
internal_weight=0 87397
internal_count=89532 87397
is_linear=0
shrinkage=0.05


Tree=94
num_leaves=3
num_cat=0
split_feature=37 47
split_gain=3.44005e+13 3.59688e+13
threshold=1.0000000180025095e-35 0.9857207911371717
decision_type=2 2
left_child=1 -1
right_child=-2 -3
leaf_value=330.30999329029214 -5914.2320714935813 -5983.9433130335901
leaf_weight=84822 2393 2317
leaf_count=84822 2393 2317
internal_value=0 162.416
internal_weight=0 87139
internal_count=89532 87139
is_linear=0
shrinkage=0.05


Tree=95
num_leaves=3
num_cat=0
split_feature=16 14
split_gain=3.36971e+13 3.49656e+13
threshold=1.0000000180025095e-35 1.0000000180025095e-35
decision_type=2 2
left_child=1 -1
right_child=-2 -3
leaf_value=-326.55277476959094 5946.0056751453376 5797.0655554397836
leaf_weight=84814 2321 2397
leaf_count=84814 2321 2397
internal_value=0 -158.245
internal_weight=0 87211
internal_count=89532 87211
is_linear=0
shrinkage=0.05


Tree=96
num_leaves=3
num_cat=0
split_feature=11 35
split_gain=3.3377e+13 3.32859e+13
threshold=1.0000000180025095e-35 1.0000000180025095e-35
decision_type=2 2
left_child=1 -1
right_child=-2 -3
leaf_value=-313.20526352049956 6100.9781394452666 5785.1750915756429
leaf_weight=85047 2187 2298
leaf_count=85047 2187 2298
internal_value=0 -152.76
internal_weight=0 87345
internal_count=89532 87345
is_linear=0
shrinkage=0.05


Tree=97
num_leaves=3
num_cat=0
split_feature=41 22
split_gain=3.2705e+13 3.39129e+13
threshold=1.0000000180025095e-35 1.0000000180025095e-35
decision_type=2 2
left_child=1 -1
right_child=-2 -3
leaf_value=309.17216931125574 -6158.6422582935329 -5879.1489417548964
leaf_weight=85154 2105 2273
leaf_count=85154 2105 2273
internal_value=0 148.283
internal_weight=0 87427
internal_count=89532 87427
is_linear=0
shrinkage=0.05


Tree=98
num_leaves=3
num_cat=0
split_feature=8 30
split_gain=3.19652e+13 3.31123e+13
threshold=1.0000000180025095e-35 1.0000000180025095e-35
decision_type=2 2
left_child=1 -1
right_child=-2 -3
leaf_value=300.45523842984011 -5967.7514096134164 -6131.5825703391683
leaf_weight=85294 2189 2049
leaf_count=85294 2189 2049
internal_value=0 149.565
internal_weight=0 87343
internal_count=89532 87343
is_linear=0
shrinkage=0.05


Tree=99
num_leaves=3
num_cat=0
split_feature=33 47
split_gain=3.1901e+13 3.59263e+13
threshold=1.0000000180025095e-35 0.1439892017044746
decision_type=2 2
left_child=1 -1
right_child=-2 -3
leaf_value=-716.79116027072962 -6038.5452816435663 1336.5329164257666
leaf_weight=50609 2135 36788
leaf_count=50609 2135 36788
internal_value=0 147.514
internal_weight=0 87397
internal_count=89532 87397
is_linear=0
shrinkage=0.05


Tree=100
num_leaves=3
num_cat=0
split_feature=37 41
split_gain=3.17726e+13 3.1987e+13
threshold=1.0000000180025095e-35 1.0000000180025095e-35
decision_type=2 2
left_child=1 -1
right_child=-2 -3
leaf_value=306.81222305463569 -5683.8408473278259 -5932.5594558592593
leaf_weight=85034 2393 2105
leaf_count=85034 2393 2105
internal_value=0 156.089
internal_weight=0 87139
internal_count=89532 87139
is_linear=0
shrinkage=0.05


Tree=101
num_leaves=3
num_cat=0
split_feature=32 47
split_gain=3.1884e+13 3.49274e+13
threshold=1.0000000180025095e-35 0.1439892017044746
decision_type=2 2
left_child=1 -1
right_child=-2 -3
leaf_value=-696.29206632605451 -5760.9361122470582 1331.5513868525934
leaf_weight=50609 2339 36584
leaf_count=50609 2339 36584
internal_value=0 154.54
internal_weight=0 87193
internal_count=89532 87193
is_linear=0
shrinkage=0.05


Tree=102
num_leaves=3
num_cat=0
split_feature=18 17
split_gain=3.19662e+13 3.30856e+13
threshold=1.0000000180025095e-35 1.0000000180025095e-35
decision_type=2 2
left_child=1 -1
right_child=-2 -3
leaf_value=-302.12927727790236 6234.2902932997849 5802.319998070524
leaf_weight=85243 2010 2279
leaf_count=85243 2010 2279
internal_value=0 -143.175
internal_weight=0 87522
internal_count=89532 87522
is_linear=0
shrinkage=0.05


Tree=103
num_leaves=3
num_cat=0
split_feature=19 16
split_gain=3.14711e+13 3.26526e+13
threshold=1.0000000180025095e-35 1.0000000180025095e-35
decision_type=2 2
left_child=1 -1
right_child=-2 -3
leaf_value=-306.55339029889859 5981.9537102918812 5704.3047294325797
leaf_weight=85065 2146 2321
leaf_count=85065 2146 2321
internal_value=0 -146.903
internal_weight=0 87386
internal_count=89532 87386
is_linear=0
shrinkage=0.05


Tree=104
num_leaves=3
num_cat=0
split_feature=11 14
split_gain=3.07e+13 3.2308e+13
threshold=1.0000000180025095e-35 1.0000000180025095e-35
decision_type=2 2
left_child=1 -1
right_child=-2 -3
leaf_value=-308.03976576858537 5851.1957141989596 5578.1391432016162
leaf_weight=84948 2187 2397
leaf_count=84948 2187 2397
internal_value=0 -146.506
internal_weight=0 87345
internal_count=89532 87345
is_linear=0
shrinkage=0.05


Tree=105
num_leaves=3
num_cat=0
split_feature=22 13
split_gain=3.03426e+13 3.15753e+13
threshold=1.0000000180025095e-35 1.0000000180025095e-35
decision_type=2 2
left_child=1 -1
right_child=-2 -3
leaf_value=309.87941480445306 -5703.1228158872764 -5459.2090817110657
leaf_weight=84819 2273 2440
leaf_count=84819 2273 2440
internal_value=0 148.56
internal_weight=0 87259
internal_count=89532 87259
is_linear=0
shrinkage=0.05


Tree=106
num_leaves=3
num_cat=0
split_feature=2 47
split_gain=3.01808e+13 3.23143e+13
threshold=1.0000000180025095e-35 0.072113721715288875
decision_type=2 2
left_child=1 -1
right_child=-2 -3
leaf_value=1939.9175953593558 -5681.4918537640597 -368.45714921913134
leaf_weight=19534 2278 67720
leaf_count=19534 2278 67720
internal_value=0 148.331
internal_weight=0 87254
internal_count=89532 87254
is_linear=0
shrinkage=0.05


Tree=107
num_leaves=3
num_cat=0
split_feature=23 18
split_gain=3.03627e+13 2.94481e+13
threshold=1.0000000180025095e-35 1.0000000180025095e-35
decision_type=2 2
left_child=1 -1
right_child=-2 -3
leaf_value=-279.96424902076313 6083.6601597903436 5842.7683341744651
leaf_weight=85517 2005 2010
leaf_count=85517 2005 2010
internal_value=0 -139.36
internal_weight=0 87527
internal_count=89532 87527
is_linear=0
shrinkage=0.05


Tree=108
num_leaves=3
num_cat=0
split_feature=12 37
split_gain=3.03824e+13 3.02572e+13
threshold=1.0000000180025095e-35 1.0000000180025095e-35
decision_type=2 2
left_child=1 -1
right_child=-2 -3
leaf_value=297.34422190823483 -6000.4672669434303 -5403.4630300989329
leaf_weight=85078 2061 2393
leaf_count=85078 2061 2393
internal_value=0 141.384
internal_weight=0 87471
internal_count=89532 87471
is_linear=0
shrinkage=0.05


Tree=109
num_leaves=3
num_cat=0
split_feature=47 47
split_gain=2.8047e+13 3.55488e+13
threshold=0.9857207911371717 0.13198009425797555
decision_type=2 2
left_child=1 -1
right_child=-2 -3
leaf_value=-750.40667996643504 -5429.4644544309067 1283.2356665516913
leaf_weight=48847 2317 38368
leaf_count=48847 2317 38368
internal_value=0 144.242
internal_weight=0 87215
internal_count=89532 87215
is_linear=0
shrinkage=0.05


Tree=110
num_leaves=3
num_cat=0
split_feature=41 47
split_gain=2.82001e+13 3.20391e+13
threshold=1.0000000180025095e-35 0.1439892017044746
decision_type=2 2
left_child=1 -1
right_child=-2 -3
leaf_value=-678.70918525651973 -5718.7750098236165 1259.8951161643608
leaf_weight=50609 2105 36818
leaf_count=50609 2105 36818
internal_value=0 137.692
internal_weight=0 87427
internal_count=89532 87427
is_linear=0
shrinkage=0.05


Tree=111
num_leaves=3
num_cat=0
split_feature=22 47
split_gain=2.85033e+13 3.00591e+13
threshold=1.0000000180025095e-35 0.13198009425797555
decision_type=2 2
left_child=1 -1
right_child=-2 -3
leaf_value=-678.95098973133145 -5527.5694565309386 1190.4842855196043
leaf_weight=48847 2273 38412
leaf_count=48847 2273 38412
internal_value=0 143.987
internal_weight=0 87259
internal_count=89532 87259
is_linear=0
shrinkage=0.05


Tree=112
num_leaves=3
num_cat=0
split_feature=30 37
split_gain=3.134e+13 2.93719e+13
threshold=1.0000000180025095e-35 1.0000000180025095e-35
decision_type=2 2
left_child=1 -1
right_child=-2 -3
leaf_value=296.80660046469893 -6112.5334280938159 -5319.9706905496505
leaf_weight=85090 2049 2393
leaf_count=85090 2049 2393
internal_value=0 143.166
internal_weight=0 87483
internal_count=89532 87483
is_linear=0
shrinkage=0.05


Tree=113
num_leaves=3
num_cat=0
split_feature=17 16
split_gain=2.85037e+13 2.94408e+13
threshold=1.0000000180025095e-35 1.0000000180025095e-35
decision_type=2 2
left_child=1 -1
right_child=-2 -3
leaf_value=-296.01251582595256 5520.1371491295358 5411.6956280104714
leaf_weight=84932 2279 2321
leaf_count=84932 2279 2321
internal_value=0 -144.183
internal_weight=0 87253
internal_count=89532 87253
is_linear=0
shrinkage=0.05


Tree=114
num_leaves=3
num_cat=0
split_feature=33 30
split_gain=3.1049e+13 2.95891e+13
threshold=1.0000000180025095e-35 1.0000000180025095e-35
decision_type=2 2
left_child=1 -1
right_child=-2 -3
leaf_value=288.07932341354586 -5957.3607370431091 -5792.1058281695114
leaf_weight=85348 2135 2049
leaf_count=85348 2135 2049
internal_value=0 145.531
internal_weight=0 87397
internal_count=89532 87397
is_linear=0
shrinkage=0.05


Tree=115
num_leaves=3
num_cat=0
split_feature=19 47
split_gain=2.83328e+13 2.84123e+13
threshold=1.0000000180025095e-35 0.13017708110830392
decision_type=2 2
left_child=1 -1
right_child=-2 -3
leaf_value=-987.84354236498791 5675.8589775405417 818.63519668184847
leaf_weight=46343 2146 41043
leaf_count=46343 2146 41043
internal_value=0 -139.386
internal_weight=0 87386
internal_count=89532 87386
is_linear=0
shrinkage=0.05


Tree=116
num_leaves=3
num_cat=0
split_feature=41 13
split_gain=2.65385e+13 2.79117e+13
threshold=1.0000000180025095e-35 1.0000000180025095e-35
decision_type=2 2
left_child=1 -1
right_child=-2 -3
leaf_value=284.95068976850678 -5547.7359443660935 -5138.9844214067307
leaf_weight=84987 2105 2440
leaf_count=84987 2105 2440
internal_value=0 133.574
internal_weight=0 87427
internal_count=89532 87427
is_linear=0
shrinkage=0.05


Tree=117
num_leaves=3
num_cat=0
split_feature=11 14
split_gain=2.7892e+13 2.92998e+13
threshold=1.0000000180025095e-35 1.0000000180025095e-35
decision_type=2 2
left_child=1 -1
right_child=-2 -3
leaf_value=-293.47510550209205 5577.1864234153363 5311.9777839262788
leaf_weight=84948 2187 2397
leaf_count=84948 2187 2397
internal_value=0 -139.645
internal_weight=0 87345
internal_count=89532 87345
is_linear=0
shrinkage=0.05


Tree=118
num_leaves=3
num_cat=0
split_feature=33 47
split_gain=2.84243e+13 2.88803e+13
threshold=1.0000000180025095e-35 0.1439892017044746
decision_type=2 2
left_child=1 -1
right_child=-2 -3
leaf_value=-635.68536103505971 -5699.9982366074555 1205.308889024235
leaf_weight=50609 2135 36788
leaf_count=50609 2135 36788
internal_value=0 139.244
internal_weight=0 87397
internal_count=89532 87397
is_linear=0
shrinkage=0.05


Tree=119
num_leaves=3
num_cat=0
split_feature=47 22
split_gain=2.76995e+13 2.83395e+13
threshold=0.9857207911371717 1.0000000180025095e-35
decision_type=2 2
left_child=1 -1
right_child=-2 -3
leaf_value=290.78351412270757 -5395.7244928050468 -5366.4055341996655
leaf_weight=84942 2317 2273
leaf_count=84942 2317 2273
internal_value=0 143.346
internal_weight=0 87215
internal_count=89532 87215
is_linear=0
shrinkage=0.05


Tree=120
num_leaves=3
num_cat=0
split_feature=30 37
split_gain=2.64722e+13 2.76488e+13
threshold=1.0000000180025095e-35 1.0000000180025095e-35
decision_type=2 2
left_child=1 -1
right_child=-2 -3
leaf_value=280.64447465330193 -5617.8106448745548 -5168.8858604775887
leaf_weight=85090 2049 2393
leaf_count=85090 2049 2393
internal_value=0 131.579
internal_weight=0 87483
internal_count=89532 87483
is_linear=0
shrinkage=0.05


Tree=121
num_leaves=3
num_cat=0
split_feature=8 12
split_gain=2.63989e+13 2.73587e+13
threshold=1.0000000180025095e-35 1.0000000180025095e-35
decision_type=2 2
left_child=1 -1
right_child=-2 -3
leaf_value=273.48670693182845 -5423.3185927557042 -5556.4531491164389
leaf_weight=85282 2189 2061
leaf_count=85282 2189 2061
internal_value=0 135.92
internal_weight=0 87343
internal_count=89532 87343
is_linear=0
shrinkage=0.05


Tree=122
num_leaves=3
num_cat=0
split_feature=17 16
split_gain=2.597e+13 2.68287e+13
threshold=1.0000000180025095e-35 1.0000000180025095e-35
decision_type=2 2
left_child=1 -1
right_child=-2 -3
leaf_value=-282.56343944236932 5269.0830491498255 5166.063738732295
leaf_weight=84932 2279 2321
leaf_count=84932 2279 2321
internal_value=0 -137.626
internal_weight=0 87253
internal_count=89532 87253
is_linear=0
shrinkage=0.05


Tree=123
num_leaves=3
num_cat=0
split_feature=33 2
split_gain=2.592e+13 2.71486e+13
threshold=1.0000000180025095e-35 1.0000000180025095e-35
decision_type=2 2
left_child=1 -1
right_child=-2 -3
leaf_value=277.13317075889694 -5443.1157650783198 -5253.8416351505912
leaf_weight=85119 2135 2278
leaf_count=85119 2135 2278
internal_value=0 132.968
internal_weight=0 87397
internal_count=89532 87397
is_linear=0
shrinkage=0.05


Tree=124
num_leaves=3
num_cat=0
split_feature=22 30
split_gain=2.45077e+13 2.52401e+13
threshold=1.0000000180025095e-35 1.0000000180025095e-35
decision_type=2 2
left_child=1 -1
right_child=-2 -3
leaf_value=265.38100855015796 -5125.5201208246372 -5350.3229951863177
leaf_weight=85210 2273 2049
leaf_count=85210 2273 2049
internal_value=0 133.514
internal_weight=0 87259
internal_count=89532 87259
is_linear=0
shrinkage=0.05


Tree=125
num_leaves=3
num_cat=0
split_feature=18 47
split_gain=2.62838e+13 2.71107e+13
threshold=1.0000000180025095e-35 0.13017708110830392
decision_type=2 2
left_child=1 -1
right_child=-2 -3
leaf_value=-956.7652297864721 5653.0818569597086 806.63684167637689
leaf_weight=46479 2010 41043
leaf_count=46479 2010 41043
internal_value=0 -129.827
internal_weight=0 87522
internal_count=89532 87522
is_linear=0
shrinkage=0.05


Tree=126
num_leaves=3
num_cat=0
split_feature=32 47
split_gain=2.60606e+13 2.75898e+13
threshold=1.0000000180025095e-35 0.1439892017044746
decision_type=2 2
left_child=1 -1
right_child=-2 -3
leaf_value=-616.48044553742272 -5208.3345559387571 1185.8123127477218
leaf_weight=50609 2339 36584
leaf_count=50609 2339 36584
internal_value=0 139.716
internal_weight=0 87193
internal_count=89532 87193
is_linear=0
shrinkage=0.05


Tree=127
num_leaves=3
num_cat=0
split_feature=11 14
split_gain=2.56998e+13 2.7024e+13
threshold=1.0000000180025095e-35 1.0000000180025095e-35
decision_type=2 2
left_child=1 -1
right_child=-2 -3
leaf_value=-281.78014198040489 5353.5303404519809 5101.5819428699733
leaf_weight=84948 2187 2397
leaf_count=84948 2187 2397
internal_value=0 -134.045
internal_weight=0 87345
internal_count=89532 87345
is_linear=0
shrinkage=0.05


Tree=128
num_leaves=3
num_cat=0
split_feature=19 11
split_gain=2.62359e+13 2.44486e+13
threshold=1.0000000180025095e-35 1.0000000180025095e-35
decision_type=2 2
left_child=1 -1
right_child=-2 -3
leaf_value=-268.12223131894228 5461.784142446385 5085.8539916266582
leaf_weight=85199 2146 2187
leaf_count=85199 2146 2187
internal_value=0 -134.129
internal_weight=0 87386
internal_count=89532 87386
is_linear=0
shrinkage=0.05


Tree=129
num_leaves=3
num_cat=0
split_feature=5 33
split_gain=2.45055e+13 2.53892e+13
threshold=1.0000000180025095e-35 1.0000000180025095e-35
decision_type=2 2
left_child=1 -1
right_child=-2 -3
leaf_value=263.98179742188773 -5298.8774324092956 -5256.3563739015462
leaf_weight=85267 2130 2135
leaf_count=85267 2130 2135
internal_value=0 129.135
internal_weight=0 87402
internal_count=89532 87402
is_linear=0
shrinkage=0.05


Tree=130
num_leaves=3
num_cat=0
split_feature=17 16
split_gain=2.40585e+13 2.48665e+13
threshold=1.0000000180025095e-35 1.0000000180025095e-35
decision_type=2 2
left_child=1 -1
right_child=-2 -3
leaf_value=-272.00073205373263 5071.4619755218091 4973.5929690866005
leaf_weight=84932 2279 2321
leaf_count=84932 2279 2321
internal_value=0 -132.464
internal_weight=0 87253
internal_count=89532 87253
is_linear=0
shrinkage=0.05


Tree=131
num_leaves=3
num_cat=0
split_feature=41 37
split_gain=2.55451e+13 2.59994e+13
threshold=1.0000000180025095e-35 1.0000000180025095e-35
decision_type=2 2
left_child=1 -1
right_child=-2 -3
leaf_value=275.69544306200959 -5442.9102854401144 -5008.8395464369905
leaf_weight=85034 2105 2393
leaf_count=85034 2105 2393
internal_value=0 131.05
internal_weight=0 87427
internal_count=89532 87427
is_linear=0
shrinkage=0.05


Tree=132
num_leaves=3
num_cat=0
split_feature=19 47
split_gain=2.35559e+13 2.59475e+13
threshold=1.0000000180025095e-35 0.13017708110830392
decision_type=2 2
left_child=1 -1
right_child=-2 -3
leaf_value=-937.91281967494615 5175.3113098400509 788.42853197185968
leaf_weight=46343 2146 41043
leaf_count=46343 2146 41043
internal_value=0 -127.094
internal_weight=0 87386
internal_count=89532 87386
is_linear=0
shrinkage=0.05


Tree=133
num_leaves=3
num_cat=0
split_feature=18 14
split_gain=2.45393e+13 2.48313e+13
threshold=1.0000000180025095e-35 1.0000000180025095e-35
decision_type=2 2
left_child=1 -1
right_child=-2 -3
leaf_value=-266.76846141047395 5462.2581176751173 4893.4207772682657
leaf_weight=85125 2010 2397
leaf_count=85125 2010 2397
internal_value=0 -125.444
internal_weight=0 87522
internal_count=89532 87522
is_linear=0
shrinkage=0.05


Tree=134
num_leaves=3
num_cat=0
split_feature=32 22
split_gain=2.36337e+13 2.44137e+13
threshold=1.0000000180025095e-35 1.0000000180025095e-35
decision_type=2 2
left_child=1 -1
right_child=-2 -3
leaf_value=269.93206772963867 -4959.8894473452201 -4980.838482523699
leaf_weight=84920 2339 2273
leaf_count=84920 2339 2273
internal_value=0 133.052
internal_weight=0 87193
internal_count=89532 87193
is_linear=0
shrinkage=0.05


Tree=135
num_leaves=3
num_cat=0
split_feature=20 13
split_gain=2.27229e+13 2.38089e+13
threshold=1.0000000180025095e-35 1.0000000180025095e-35
decision_type=2 2
left_child=1 -1
right_child=-2 -3
leaf_value=258.02078427725149 -5355.1674564725727 -4751.3094259693589
leaf_weight=85154 1938 2440
leaf_count=85154 1938 2440
internal_value=0 118.482
internal_weight=0 87594
internal_count=89532 87594
is_linear=0
shrinkage=0.05


Tree=136
num_leaves=3
num_cat=0
split_feature=8 12
split_gain=2.2806e+13 2.36397e+13
threshold=1.0000000180025095e-35 1.0000000180025095e-35
decision_type=2 2
left_child=1 -1
right_child=-2 -3
leaf_value=254.20782714061116 -5040.7722528150061 -5165.0180367497087
leaf_weight=85282 2189 2061
leaf_count=85282 2189 2061
internal_value=0 126.332
internal_weight=0 87343
internal_count=89532 87343
is_linear=0
shrinkage=0.05


Tree=137
num_leaves=3
num_cat=0
split_feature=37 47
split_gain=2.28828e+13 2.63535e+13
threshold=1.0000000180025095e-35 0.1439892017044746
decision_type=2 2
left_child=1 -1
right_child=-2 -3
leaf_value=-606.27868691207925 -4823.5889071537467 1155.9269604598919
leaf_weight=50609 2393 36530
leaf_count=50609 2393 36530
internal_value=0 132.465
internal_weight=0 87139
internal_count=89532 87139
is_linear=0
shrinkage=0.05


Tree=138
num_leaves=3
num_cat=0
split_feature=30 47
split_gain=2.34845e+13 2.35266e+13
threshold=1.0000000180025095e-35 0.1439892017044746
decision_type=2 2
left_child=1 -1
right_child=-2 -3
leaf_value=-575.96486785603508 -5291.3055577063342 1084.5279903444543
leaf_weight=50609 2049 36874
leaf_count=50609 2049 36874
internal_value=0 123.931
internal_weight=0 87483
internal_count=89532 87483
is_linear=0
shrinkage=0.05


Tree=139
num_leaves=3
num_cat=0
split_feature=47 37
split_gain=2.23629e+13 2.23507e+13
threshold=0.9857207911371717 1.0000000180025095e-35
decision_type=2 2
left_child=1 -1
right_child=-2 -3
leaf_value=263.24152643631834 -4848.1692097422629 -4636.6358423793163
leaf_weight=84822 2317 2393
leaf_count=84822 2317 2393
internal_value=0 128.799
internal_weight=0 87215
internal_count=89532 87215
is_linear=0
shrinkage=0.05


Tree=140
num_leaves=3
num_cat=0
split_feature=41 2
split_gain=2.47833e+13 2.31436e+13
threshold=1.0000000180025095e-35 1.0000000180025095e-35
decision_type=2 2
left_child=1 -1
right_child=-2 -3
leaf_value=262.14194952718975 -5361.1407005726869 -4844.5688256555541
leaf_weight=85149 2105 2278
leaf_count=85149 2105 2278
internal_value=0 129.081
internal_weight=0 87427
internal_count=89532 87427
is_linear=0
shrinkage=0.05


Tree=141
num_leaves=3
num_cat=0
split_feature=17 16
split_gain=2.20765e+13 2.28252e+13
threshold=1.0000000180025095e-35 1.0000000180025095e-35
decision_type=2 2
left_child=1 -1
right_child=-2 -3
leaf_value=-260.57709229493355 4858.0731828395819 4765.0973801533555
leaf_weight=84932 2279 2321
leaf_count=84932 2279 2321
internal_value=0 -126.89
internal_weight=0 87253
internal_count=89532 87253
is_linear=0
shrinkage=0.05


Tree=142
num_leaves=3
num_cat=0
split_feature=33 47
split_gain=2.35125e+13 2.34716e+13
threshold=1.0000000180025095e-35 0.1439892017044746
decision_type=2 2
left_child=1 -1
right_child=-2 -3
leaf_value=-571.96298219817731 -5184.1776548148882 1087.7104780146801
leaf_weight=50609 2135 36788
leaf_count=50609 2135 36788
internal_value=0 126.643
internal_weight=0 87397
internal_count=89532 87397
is_linear=0
shrinkage=0.05


Tree=143
num_leaves=3
num_cat=0
split_feature=41 5
split_gain=2.27316e+13 2.2378e+13
threshold=1.0000000180025095e-35 1.0000000180025095e-35
decision_type=2 2
left_child=1 -1
right_child=-2 -3
leaf_value=250.03269438451446 -5134.4399984690472 -4938.5220568446493
leaf_weight=85297 2105 2130
leaf_count=85297 2105 2130
internal_value=0 123.623
internal_weight=0 87427
internal_count=89532 87427
is_linear=0
shrinkage=0.05


Tree=144
num_leaves=3
num_cat=0
split_feature=22 33
split_gain=2.28539e+13 2.24706e+13
threshold=1.0000000180025095e-35 1.0000000180025095e-35
decision_type=2 2
left_child=1 -1
right_child=-2 -3
leaf_value=256.00113154204456 -4949.5583277785618 -4937.4702138502316
leaf_weight=85124 2273 2135
leaf_count=85124 2273 2135
internal_value=0 128.93
internal_weight=0 87259
internal_count=89532 87259
is_linear=0
shrinkage=0.05


Tree=145
num_leaves=3
num_cat=0
split_feature=30 32
split_gain=2.19857e+13 2.22334e+13
threshold=1.0000000180025095e-35 1.0000000180025095e-35
decision_type=2 2
left_child=1 -1
right_child=-2 -3
leaf_value=252.02535533226043 -5119.6678742912818 -4689.2900614331757
leaf_weight=85144 2049 2339
leaf_count=85144 2049 2339
internal_value=0 119.911
internal_weight=0 87483
internal_count=89532 87483
is_linear=0
shrinkage=0.05


Tree=146
num_leaves=3
num_cat=0
split_feature=19 35
split_gain=2.13527e+13 2.13911e+13
threshold=1.0000000180025095e-35 1.0000000180025095e-35
decision_type=2 2
left_child=1 -1
right_child=-2 -3
leaf_value=-249.56453622586096 4927.3434698611472 4639.1931941660723
leaf_weight=85088 2146 2298
leaf_count=85088 2146 2298
internal_value=0 -121.004
internal_weight=0 87386
internal_count=89532 87386
is_linear=0
shrinkage=0.05


Tree=147
num_leaves=3
num_cat=0
split_feature=18 11
split_gain=2.22316e+13 2.25001e+13
threshold=1.0000000180025095e-35 1.0000000180025095e-35
decision_type=2 2
left_child=1 -1
right_child=-2 -3
leaf_value=-247.74091995621245 5199.082860118011 4888.3485158103103
leaf_weight=85335 2010 2187
leaf_count=85335 2010 2187
internal_value=0 -119.4
internal_weight=0 87522
internal_count=89532 87522
is_linear=0
shrinkage=0.05


Tree=148
num_leaves=3
num_cat=0
split_feature=14 47
split_gain=2.14955e+13 2.24299e+13
threshold=1.0000000180025095e-35 0.13017708110830392
decision_type=2 2
left_child=1 -1
right_child=-2 -3
leaf_value=-885.4939301086365 4671.0738242953439 721.62416557086112
leaf_weight=46092 2397 41043
leaf_count=46092 2397 41043
internal_value=0 -128.497
internal_weight=0 87135
internal_count=89532 87135
is_linear=0
shrinkage=0.05


Tree=149
num_leaves=3
num_cat=0
split_feature=22 41
split_gain=2.08351e+13 2.18946e+13
threshold=1.0000000180025095e-35 1.0000000180025095e-35
decision_type=2 2
left_child=1 -1
right_child=-2 -3
leaf_value=247.62951945669738 -4725.8975418938762 -4914.3353021051762
leaf_weight=85154 2273 2105
leaf_count=85154 2273 2105
internal_value=0 123.104
internal_weight=0 87259
internal_count=89532 87259
is_linear=0
shrinkage=0.05


Tree=150
num_leaves=3
num_cat=0
split_feature=23 17
split_gain=2.06376e+13 2.13632e+13
threshold=1.0000000180025095e-35 1.0000000180025095e-35
decision_type=2 2
left_child=1 -1
right_child=-2 -3
leaf_value=-242.61492335531753 5015.6199914718209 4662.6231869237681
leaf_weight=85248 2005 2279
leaf_count=85248 2005 2279
internal_value=0 -114.894
internal_weight=0 87527
internal_count=89532 87527
is_linear=0
shrinkage=0.05


Tree=151
num_leaves=3
num_cat=0
split_feature=37 9
split_gain=1.99921e+13 2.1005e+13
threshold=1.0000000180025095e-35 1.0000000180025095e-35
decision_type=2 2
left_child=1 -1
right_child=-2 -3
leaf_value=247.43324567267734 -4508.6374241943295 -4751.1341013812362
leaf_weight=84984 2393 2155
leaf_count=84984 2393 2155
internal_value=0 123.816
internal_weight=0 87139
internal_count=89532 87139
is_linear=0
shrinkage=0.05


Tree=152
num_leaves=3
num_cat=0
split_feature=18 16
split_gain=2.0322e+13 2.09615e+13
threshold=1.0000000180025095e-35 1.0000000180025095e-35
decision_type=2 2
left_child=1 -1
right_child=-2 -3
leaf_value=-241.87094292609959 4970.7809203509432 4574.0554744669507
leaf_weight=85201 2010 2321
leaf_count=85201 2010 2321
internal_value=0 -114.157
internal_weight=0 87522
internal_count=89532 87522
is_linear=0
shrinkage=0.05


Tree=153
num_leaves=3
num_cat=0
split_feature=20 8
split_gain=1.97687e+13 2.06486e+13
threshold=1.0000000180025095e-35 1.0000000180025095e-35
decision_type=2 2
left_child=1 -1
right_child=-2 -3
leaf_value=233.41432898080572 -4994.9411693283655 -4684.5835705788077
leaf_weight=85405 1938 2189
leaf_count=85405 1938 2189
internal_value=0 110.512
internal_weight=0 87594
internal_count=89532 87594
is_linear=0
shrinkage=0.05


Tree=154
num_leaves=3
num_cat=0
split_feature=30 13
split_gain=2.00336e+13 2.07617e+13
threshold=1.0000000180025095e-35 1.0000000180025095e-35
decision_type=2 2
left_child=1 -1
right_child=-2 -3
leaf_value=244.93556977514478 -4887.0997023910595 -4432.9469283194621
leaf_weight=85043 2049 2440
leaf_count=85043 2049 2440
internal_value=0 114.464
internal_weight=0 87483
internal_count=89532 87483
is_linear=0
shrinkage=0.05


Tree=155
num_leaves=3
num_cat=0
split_feature=33 2
split_gain=1.96466e+13 2.04014e+13
threshold=1.0000000180025095e-35 1.0000000180025095e-35
decision_type=2 2
left_child=1 -1
right_child=-2 -3
leaf_value=240.73706666200457 -4738.8604494418923 -4553.9228283728917
leaf_weight=85119 2135 2278
leaf_count=85119 2135 2278
internal_value=0 115.764
internal_weight=0 87397
internal_count=89532 87397
is_linear=0
shrinkage=0.05


Tree=156
num_leaves=3
num_cat=0
split_feature=19 47
split_gain=1.94373e+13 2.07378e+13
threshold=1.0000000180025095e-35 0.13017708110830392
decision_type=2 2
left_child=1 -1
right_child=-2 -3
leaf_value=-840.31538105435038 4701.1542347135664 703.02024306168641
leaf_weight=46343 2146 41043
leaf_count=46343 2146 41043
internal_value=0 -115.45
internal_weight=0 87386
internal_count=89532 87386
is_linear=0
shrinkage=0.05


Tree=157
num_leaves=3
num_cat=0
split_feature=32 5
split_gain=1.97813e+13 1.98214e+13
threshold=1.0000000180025095e-35 1.0000000180025095e-35
decision_type=2 2
left_child=1 -1
right_child=-2 -3
leaf_value=241.01877702451429 -4537.6757789295016 -4642.3250777352923
leaf_weight=85063 2339 2130
leaf_count=85063 2339 2130
internal_value=0 121.726
internal_weight=0 87193
internal_count=89532 87193
is_linear=0
shrinkage=0.05


Tree=158
num_leaves=3
num_cat=0
split_feature=11 17
split_gain=1.96541e+13 1.92967e+13
threshold=1.0000000180025095e-35 1.0000000180025095e-35
decision_type=2 2
left_child=1 -1
right_child=-2 -3
leaf_value=-238.86607376422214 4681.6873587232885 4423.2243731938524
leaf_weight=85066 2187 2279
leaf_count=85066 2187 2279
internal_value=0 -117.223
internal_weight=0 87345
internal_count=89532 87345
is_linear=0
shrinkage=0.05


Tree=159
num_leaves=3
num_cat=0
split_feature=12 41
split_gain=1.94064e+13 2.02189e+13
threshold=1.0000000180025095e-35 1.0000000180025095e-35
decision_type=2 2
left_child=1 -1
right_child=-2 -3
leaf_value=232.36644688640718 -4795.6352262760702 -4727.9789932200238
leaf_weight=85366 2061 2105
leaf_count=85366 2061 2105
internal_value=0 112.995
internal_weight=0 87471
internal_count=89532 87471
is_linear=0
shrinkage=0.05


Tree=160
num_leaves=3
num_cat=0
split_feature=30 33
split_gain=1.85421e+13 1.90002e+13
threshold=1.0000000180025095e-35 1.0000000180025095e-35
decision_type=2 2
left_child=1 -1
right_child=-2 -3
leaf_value=226.6646091965261 -4701.6587118860916 -4548.7944926350347
leaf_weight=85348 2049 2135
leaf_count=85348 2049 2135
internal_value=0 110.121
internal_weight=0 87483
internal_count=89532 87483
is_linear=0
shrinkage=0.05


Tree=161
num_leaves=3
num_cat=0
split_feature=18 11
split_gain=1.82088e+13 1.84338e+13
threshold=1.0000000180025095e-35 1.0000000180025095e-35
decision_type=2 2
left_child=1 -1
right_child=-2 -3
leaf_value=-224.22519561449383 4705.2443682468474 4424.6517172786816
leaf_weight=85335 2010 2187
leaf_count=85335 2010 2187
internal_value=0 -108.059
internal_weight=0 87522
internal_count=89532 87522
is_linear=0
shrinkage=0.05


Tree=162
num_leaves=3
num_cat=0
split_feature=14 16
split_gain=1.93445e+13 1.89852e+13
threshold=1.0000000180025095e-35 1.0000000180025095e-35
decision_type=2 2
left_child=1 -1
right_child=-2 -3
leaf_value=-243.9895488254019 4431.20492823111 4339.5661052291325
leaf_weight=84814 2397 2321
leaf_count=84814 2397 2321
internal_value=0 -121.898
internal_weight=0 87135
internal_count=89532 87135
is_linear=0
shrinkage=0.05


Tree=163
num_leaves=3
num_cat=0
split_feature=22 37
split_gain=1.93003e+13 1.95802e+13
threshold=1.0000000180025095e-35 1.0000000180025095e-35
decision_type=2 2
left_child=1 -1
right_child=-2 -3
leaf_value=244.25371739044635 -4548.503881877391 -4341.8657488855224
leaf_weight=84866 2273 2393
leaf_count=84866 2273 2393
internal_value=0 118.483
internal_weight=0 87259
internal_count=89532 87259
is_linear=0
shrinkage=0.05


Tree=164
num_leaves=3
num_cat=0
split_feature=23 34
split_gain=1.79804e+13 1.84066e+13
threshold=1.0000000180025095e-35 1.0000000180025095e-35
decision_type=2 2
left_child=1 -1
right_child=-2 -3
leaf_value=-224.61608948964806 4681.5944656547108 4371.969572570596
leaf_weight=85292 2005 2235
leaf_count=85292 2005 2235
internal_value=0 -107.242
internal_weight=0 87527
internal_count=89532 87527
is_linear=0
shrinkage=0.05


Tree=165
num_leaves=3
num_cat=0
split_feature=32 13
split_gain=1.77581e+13 1.85423e+13
threshold=1.0000000180025095e-35 1.0000000180025095e-35
decision_type=2 2
left_child=1 -1
right_child=-2 -3
leaf_value=239.04979299945123 -4299.3712770914617 -4181.9509236920467
leaf_weight=84753 2339 2440
leaf_count=84753 2339 2440
internal_value=0 115.333
internal_weight=0 87193
internal_count=89532 87193
is_linear=0
shrinkage=0.05


Tree=166
num_leaves=3
num_cat=0
split_feature=9 8
split_gain=1.79497e+13 1.86532e+13
threshold=1.0000000180025095e-35 1.0000000180025095e-35
decision_type=2 2
left_child=1 -1
right_child=-2 -3
leaf_value=228.28877634950948 -4508.005186957339 -4446.1918537556394
leaf_weight=85188 2155 2189
leaf_count=85188 2155 2189
internal_value=0 111.182
internal_weight=0 87377
internal_count=89532 87377
is_linear=0
shrinkage=0.05


Tree=167
num_leaves=3
num_cat=0
split_feature=12 41
split_gain=1.76087e+13 1.83473e+13
threshold=1.0000000180025095e-35 1.0000000180025095e-35
decision_type=2 2
left_child=1 -1
right_child=-2 -3
leaf_value=221.34710645842179 -4568.1243929282264 -4503.8516401639745
leaf_weight=85366 2061 2105
leaf_count=85366 2061 2105
internal_value=0 107.635
internal_weight=0 87471
internal_count=89532 87471
is_linear=0
shrinkage=0.05


Tree=168
num_leaves=3
num_cat=0
split_feature=20 33
split_gain=1.79718e+13 1.72461e+13
threshold=1.0000000180025095e-35 1.0000000180025095e-35
decision_type=2 2
left_child=1 -1
right_child=-2 -3
leaf_value=216.26161365768905 -4762.52671656456 -4333.36017982474
leaf_weight=85459 1938 2135
leaf_count=85459 1938 2135
internal_value=0 105.37
internal_weight=0 87594
internal_count=89532 87594
is_linear=0
shrinkage=0.05


Tree=169
num_leaves=3
num_cat=0
split_feature=22 47
split_gain=1.76939e+13 2.29716e+13
threshold=1.0000000180025095e-35 0.1439892017044746
decision_type=2 2
left_child=1 -1
right_child=-2 -3
leaf_value=-576.92762539487705 -4355.0950000542243 1066.7630730778526
leaf_weight=50609 2273 36650
leaf_count=50609 2273 36650
internal_value=0 113.445
internal_weight=0 87259
internal_count=89532 87259
is_linear=0
shrinkage=0.05


Tree=170
num_leaves=3
num_cat=0
split_feature=19 35
split_gain=1.74086e+13 1.76337e+13
threshold=1.0000000180025095e-35 1.0000000180025095e-35
decision_type=2 2
left_child=1 -1
right_child=-2 -3
leaf_value=-225.9831823816553 4449.0653860129487 4212.6892223600516
leaf_weight=85088 2146 2298
leaf_count=85088 2146 2298
internal_value=0 -109.259
internal_weight=0 87386
internal_count=89532 87386
is_linear=0
shrinkage=0.05


Tree=171
num_leaves=3
num_cat=0
split_feature=14 47
split_gain=1.7408e+13 1.95004e+13
threshold=1.0000000180025095e-35 0.13017708110830392
decision_type=2 2
left_child=1 -1
right_child=-2 -3
leaf_value=-821.4701612290645 4203.5611611173308 677.02814663131926
leaf_weight=46092 2397 41043
leaf_count=46092 2397 41043
internal_value=0 -115.636
internal_weight=0 87135
internal_count=89532 87135
is_linear=0
shrinkage=0.05


Tree=172
num_leaves=3
num_cat=0
split_feature=32 2
split_gain=1.6895e+13 1.77974e+13
threshold=1.0000000180025095e-35 1.0000000180025095e-35
decision_type=2 2
left_child=1 -1
right_child=-2 -3
leaf_value=229.49683219150893 -4193.588174323253 -4248.8694205380407
leaf_weight=84915 2339 2278
leaf_count=84915 2339 2278
internal_value=0 112.495
internal_weight=0 87193
internal_count=89532 87193
is_linear=0
shrinkage=0.05


Tree=173
num_leaves=3
num_cat=0
split_feature=30 41
split_gain=1.757e+13 1.73471e+13
threshold=1.0000000180025095e-35 1.0000000180025095e-35
decision_type=2 2
left_child=1 -1
right_child=-2 -3
leaf_value=217.74952759250209 -4576.7592986485279 -4376.8375250548588
leaf_weight=85378 2049 2105
leaf_count=85378 2049 2105
internal_value=0 107.195
internal_weight=0 87483
internal_count=89532 87483
is_linear=0
shrinkage=0.05


Tree=174
num_leaves=3
num_cat=0
split_feature=5 9
split_gain=1.67831e+13 1.67427e+13
threshold=1.0000000180025095e-35 1.0000000180025095e-35
decision_type=2 2
left_child=1 -1
right_child=-2 -3
leaf_value=216.89626762317712 -4385.1789012740583 -4245.628624119593
leaf_weight=85247 2130 2155
leaf_count=85247 2130 2155
internal_value=0 106.867
internal_weight=0 87402
internal_count=89532 87402
is_linear=0
shrinkage=0.05


Tree=175
num_leaves=3
num_cat=0
split_feature=18 14
split_gain=1.65364e+13 1.62748e+13
threshold=1.0000000180025095e-35 1.0000000180025095e-35
decision_type=2 2
left_child=1 -1
right_child=-2 -3
leaf_value=-217.3898445735814 4483.9641247965692 3960.1757979130816
leaf_weight=85125 2010 2397
leaf_count=85125 2010 2397
internal_value=0 -102.977
internal_weight=0 87522
internal_count=89532 87522
is_linear=0
shrinkage=0.05


Tree=176
num_leaves=3
num_cat=0
split_feature=37 47
split_gain=1.78229e+13 2.03939e+13
threshold=1.0000000180025095e-35 0.1439892017044746
decision_type=2 2
left_child=1 -1
right_child=-2 -3
leaf_value=-532.96153153820478 -4257.0171087956069 1017.2377404463261
leaf_weight=50609 2393 36530
leaf_count=50609 2393 36530
internal_value=0 116.906
internal_weight=0 87139
internal_count=89532 87139
is_linear=0
shrinkage=0.05


Tree=177
num_leaves=3
num_cat=0
split_feature=22 47
split_gain=1.67164e+13 1.83233e+13
threshold=1.0000000180025095e-35 0.1439892017044746
decision_type=2 2
left_child=1 -1
right_child=-2 -3
leaf_value=-506.3134507039274 -4233.0920570613953 961.6871316707801
leaf_weight=50609 2273 36650
leaf_count=50609 2273 36650
internal_value=0 110.267
internal_weight=0 87259
internal_count=89532 87259
is_linear=0
shrinkage=0.05


Tree=178
num_leaves=3
num_cat=0
split_feature=17 16
split_gain=1.70324e+13 1.76242e+13
threshold=1.0000000180025095e-35 1.0000000180025095e-35
decision_type=2 2
left_child=1 -1
right_child=-2 -3
leaf_value=-228.92800435925298 4267.1381519915185 4187.2036380950258
leaf_weight=84932 2279 2321
leaf_count=84932 2279 2321
internal_value=0 -111.455
internal_weight=0 87253
internal_count=89532 87253
is_linear=0
shrinkage=0.05


Tree=179
num_leaves=3
num_cat=0
split_feature=11 18
split_gain=1.6516e+13 1.61547e+13
threshold=1.0000000180025095e-35 1.0000000180025095e-35
decision_type=2 2
left_child=1 -1
right_child=-2 -3
leaf_value=-211.81799030212625 4291.6807436454228 4323.1764380383856
leaf_weight=85335 2187 2010
leaf_count=85335 2187 2010
internal_value=0 -107.458
internal_weight=0 87345
internal_count=89532 87345
is_linear=0
shrinkage=0.05


Tree=180
num_leaves=3
num_cat=0
split_feature=32 41
split_gain=1.5927e+13 1.62827e+13
threshold=1.0000000180025095e-35 1.0000000180025095e-35
decision_type=2 2
left_child=1 -1
right_child=-2 -3
leaf_value=216.69422272334089 -4071.6804562265775 -4234.8797658105705
leaf_weight=85088 2339 2105
leaf_count=85088 2339 2105
internal_value=0 109.225
internal_weight=0 87193
internal_count=89532 87193
is_linear=0
shrinkage=0.05


Tree=181
num_leaves=3
num_cat=0
split_feature=37 47
split_gain=1.63799e+13 1.86136e+13
threshold=1.0000000180025095e-35 0.1439892017044746
decision_type=2 2
left_child=1 -1
right_child=-2 -3
leaf_value=-508.78119384647891 -4081.0477133109689 972.21072364493853
leaf_weight=50609 2393 36530
leaf_count=50609 2393 36530
internal_value=0 112.073
internal_weight=0 87139
internal_count=89532 87139
is_linear=0
shrinkage=0.05


Tree=182
num_leaves=3
num_cat=0
split_feature=30 33
split_gain=1.68669e+13 1.73835e+13
threshold=1.0000000180025095e-35 1.0000000180025095e-35
decision_type=2 2
left_child=1 -1
right_child=-2 -3
leaf_value=216.50429315763196 -4484.2510363151068 -4351.2743664548098
leaf_weight=85348 2049 2135
leaf_count=85348 2049 2135
internal_value=0 105.029
internal_weight=0 87483
internal_count=89532 87483
is_linear=0
shrinkage=0.05


Tree=183
num_leaves=3
num_cat=0
split_feature=20 47
split_gain=1.52545e+13 1.60011e+13
threshold=1.0000000180025095e-35 0.067168325776288354
decision_type=2 2
left_child=1 -1
right_child=-2 -3
leaf_value=1438.8313543141278 -4387.7389468052315 -243.2860945377675
leaf_weight=17724 1938 69870
leaf_count=17724 1938 69870
internal_value=0 97.078
internal_weight=0 87594
internal_count=89532 87594
is_linear=0
shrinkage=0.05


Tree=184
num_leaves=3
num_cat=0
split_feature=12 2
split_gain=1.54995e+13 1.60541e+13
threshold=1.0000000180025095e-35 1.0000000180025095e-35
decision_type=2 2
left_child=1 -1
right_child=-2 -3
leaf_value=211.74834633260272 -4285.8111891330536 -4041.4501714344715
leaf_weight=85193 2061 2278
leaf_count=85193 2061 2278
internal_value=0 100.983
internal_weight=0 87471
internal_count=89532 87471
is_linear=0
shrinkage=0.05


Tree=185
num_leaves=3
num_cat=0
split_feature=19 38
split_gain=1.58154e+13 1.58278e+13
threshold=1.0000000180025095e-35 1.0000000180025095e-35
decision_type=2 2
left_child=1 -1
right_child=-2 -3
leaf_value=-214.67620676832232 4240.5989723290895 3992.3635565724526
leaf_weight=85090 2146 2296
leaf_count=85090 2146 2296
internal_value=0 -104.139
internal_weight=0 87386
internal_count=89532 87386
is_linear=0
shrinkage=0.05


Tree=186
num_leaves=3
num_cat=0
split_feature=22 47
split_gain=1.53573e+13 1.73385e+13
threshold=1.0000000180025095e-35 0.1439892017044746
decision_type=2 2
left_child=1 -1
right_child=-2 -3
leaf_value=-494.09235558398177 -4057.3601336652473 933.91265486059729
leaf_weight=50609 2273 36650
leaf_count=50609 2273 36650
internal_value=0 105.69
internal_weight=0 87259
internal_count=89532 87259
is_linear=0
shrinkage=0.05


Tree=187
num_leaves=3
num_cat=0
split_feature=33 32
split_gain=1.5199e+13 1.58753e+13
threshold=1.0000000180025095e-35 1.0000000180025095e-35
decision_type=2 2
left_child=1 -1
right_child=-2 -3
leaf_value=213.56965109602399 -4168.0953305896828 -3961.9169147486568
leaf_weight=85058 2135 2339
leaf_count=85058 2135 2339
internal_value=0 101.821
internal_weight=0 87397
internal_count=89532 87397
is_linear=0
shrinkage=0.05


Tree=188
num_leaves=3
num_cat=0
split_feature=30 47
split_gain=1.55462e+13 1.62066e+13
threshold=1.0000000180025095e-35 0.1439892017044746
decision_type=2 2
left_child=1 -1
right_child=-2 -3
leaf_value=-480.06607688551787 -4305.1020542813139 898.10760694073588
leaf_weight=50609 2049 36874
leaf_count=50609 2049 36874
internal_value=0 100.833
internal_weight=0 87483
internal_count=89532 87483
is_linear=0
shrinkage=0.05


Tree=189
num_leaves=3
num_cat=0
split_feature=37 41
split_gain=1.55615e+13 1.5819e+13
threshold=1.0000000180025095e-35 1.0000000180025095e-35
decision_type=2 2
left_child=1 -1
right_child=-2 -3
leaf_value=215.23210512951573 -3977.7894622371532 -4172.5399797496666
leaf_weight=85034 2393 2105
leaf_count=85034 2393 2105
internal_value=0 109.238
internal_weight=0 87139
internal_count=89532 87139
is_linear=0
shrinkage=0.05


Tree=190
num_leaves=3
num_cat=0
split_feature=17 16
split_gain=1.51439e+13 1.56657e+13
threshold=1.0000000180025095e-35 1.0000000180025095e-35
decision_type=2 2
left_child=1 -1
right_child=-2 -3
leaf_value=-215.84811386231095 4023.6237654026063 3947.6862350338956
leaf_weight=84932 2279 2321
leaf_count=84932 2279 2321
internal_value=0 -105.095
internal_weight=0 87253
internal_count=89532 87253
is_linear=0
shrinkage=0.05


Tree=191
num_leaves=3
num_cat=0
split_feature=11 19
split_gain=1.49029e+13 1.52931e+13
threshold=1.0000000180025095e-35 1.0000000180025095e-35
decision_type=2 2
left_child=1 -1
right_child=-2 -3
leaf_value=-207.07713550235758 4076.7143841583438 4066.6292451629215
leaf_weight=85199 2187 2146
leaf_count=85199 2187 2146
internal_value=0 -102.075
internal_weight=0 87345
internal_count=89532 87345
is_linear=0
shrinkage=0.05


Tree=192
num_leaves=3
num_cat=0
split_feature=8 5
split_gain=1.47171e+13 1.48095e+13
threshold=1.0000000180025095e-35 1.0000000180025095e-35
decision_type=2 2
left_child=1 -1
right_child=-2 -3
leaf_value=204.41992903985465 -4049.3346186220074 -4016.5453953774327
leaf_weight=85213 2189 2130
leaf_count=85213 2189 2130
internal_value=0 101.485
internal_weight=0 87343
internal_count=89532 87343
is_linear=0
shrinkage=0.05


Tree=193
num_leaves=3
num_cat=0
split_feature=22 33
split_gain=1.42614e+13 1.47609e+13
threshold=1.0000000180025095e-35 1.0000000180025095e-35
decision_type=2 2
left_child=1 -1
right_child=-2 -3
leaf_value=204.83881303853201 -3909.9121185100712 -4004.432430474239
leaf_weight=85124 2273 2135
leaf_count=85124 2273 2135
internal_value=0 101.849
internal_weight=0 87259
internal_count=89532 87259
is_linear=0
shrinkage=0.05


Tree=194
num_leaves=3
num_cat=0
split_feature=13 30
split_gain=1.51085e+13 1.48671e+13
threshold=1.0000000180025095e-35 1.0000000180025095e-35
decision_type=2 2
left_child=1 -1
right_child=-2 -3
leaf_value=210.11863275162065 -3880.4809515681031 -4099.9249122401807
leaf_weight=85043 2440 2049
leaf_count=85043 2440 2049
internal_value=0 108.717
internal_weight=0 87092
internal_count=89532 87092
is_linear=0
shrinkage=0.05


Tree=195
num_leaves=3
num_cat=0
split_feature=14 18
split_gain=1.41183e+13 1.44397e+13
threshold=1.0000000180025095e-35 1.0000000180025095e-35
decision_type=2 2
left_child=1 -1
right_child=-2 -3
leaf_value=-203.04419104828719 3785.5975798707532 4084.6072554653797
leaf_weight=85125 2397 2010
leaf_count=85125 2397 2010
internal_value=0 -104.138
internal_weight=0 87135
internal_count=89532 87135
is_linear=0
shrinkage=0.05


Tree=196
num_leaves=3
num_cat=0
split_feature=32 12
split_gain=1.40127e+13 1.44415e+13
threshold=1.0000000180025095e-35 1.0000000180025095e-35
decision_type=2 2
left_child=1 -1
right_child=-2 -3
leaf_value=202.57272228345957 -3819.1585994532907 -4033.1893107866331
leaf_weight=85132 2339 2061
leaf_count=85132 2339 2061
internal_value=0 102.451
internal_weight=0 87193
internal_count=89532 87193
is_linear=0
shrinkage=0.05


Tree=197
num_leaves=3
num_cat=0
split_feature=37 13
split_gain=1.41172e+13 1.44269e+13
threshold=1.0000000180025095e-35 1.0000000180025095e-35
decision_type=2 2
left_child=1 -1
right_child=-2 -3
leaf_value=213.24039593391979 -3788.6989688299418 -3686.4332962986682
leaf_weight=84699 2393 2440
leaf_count=84699 2393 2440
internal_value=0 104.045
internal_weight=0 87139
internal_count=89532 87139
is_linear=0
shrinkage=0.05


Tree=198
num_leaves=3
num_cat=0
split_feature=2 47
split_gain=1.36569e+13 1.42433e+13
threshold=1.0000000180025095e-35 0.067168325776288354
decision_type=2 2
left_child=1 -1
right_child=-2 -3
leaf_value=1380.4967780438208 -3821.8370884732053 -218.86954185132936
leaf_weight=17384 2278 69870
leaf_count=17384 2278 69870
internal_value=0 99.7793
internal_weight=0 87254
internal_count=89532 87254
is_linear=0
shrinkage=0.05


Tree=199
num_leaves=3
num_cat=0
split_feature=41 9
split_gain=1.36137e+13 1.42135e+13
threshold=1.0000000180025095e-35 1.0000000180025095e-35
decision_type=2 2
left_child=1 -1
right_child=-2 -3
leaf_value=197.01787762815593 -3973.4305569769708 -3914.6370639682427
leaf_weight=85272 2105 2155
leaf_count=85272 2105 2155
internal_value=0 95.6691
internal_weight=0 87427
internal_count=89532 87427
is_linear=0
shrinkage=0.05


Tree=200
num_leaves=3
num_cat=0
split_feature=8 22
split_gain=1.34922e+13 1.3705e+13
threshold=1.0000000180025095e-35 1.0000000180025095e-35
decision_type=2 2
left_child=1 -1
right_child=-2 -3
leaf_value=199.54815333721376 -3877.1619393228016 -3734.4682852746942
leaf_weight=85070 2189 2273
leaf_count=85070 2189 2273
internal_value=0 97.17
internal_weight=0 87343
internal_count=89532 87343
is_linear=0
shrinkage=0.05


Tree=201
num_leaves=3
num_cat=0
split_feature=23 34
split_gain=1.33023e+13 1.34217e+13
threshold=1.0000000180025095e-35 1.0000000180025095e-35
decision_type=2 2
left_child=1 -1
right_child=-2 -3
leaf_value=-192.47006654061011 4026.7833426200123 3732.6403738116578
leaf_weight=85292 2005 2235
leaf_count=85292 2005 2235
internal_value=0 -92.2425
internal_weight=0 87527
internal_count=89532 87527
is_linear=0
shrinkage=0.05


Tree=202
num_leaves=3
num_cat=0
split_feature=17 47
split_gain=1.28887e+13 1.58935e+13
threshold=1.0000000180025095e-35 0.13017708110830392
decision_type=2 2
left_child=1 -1
right_child=-2 -3
leaf_value=-732.93063479245427 3711.959750713032 619.08665974417693
leaf_weight=46210 2279 41043
leaf_count=46210 2279 41043
internal_value=0 -96.9543
internal_weight=0 87253
internal_count=89532 87253
is_linear=0
shrinkage=0.05


Tree=203
num_leaves=3
num_cat=0
split_feature=20 33
split_gain=1.40036e+13 1.36476e+13
threshold=1.0000000180025095e-35 1.0000000180025095e-35
decision_type=2 2
left_child=1 -1
right_child=-2 -3
leaf_value=191.65862834359956 -4203.9816980606511 -3855.5709997226259
leaf_weight=85459 1938 2135
leaf_count=85459 1938 2135
internal_value=0 93.0122
internal_weight=0 87594
internal_count=89532 87594
is_linear=0
shrinkage=0.05


Tree=204
num_leaves=3
num_cat=0
split_feature=30 47
split_gain=1.30566e+13 1.54679e+13
threshold=1.0000000180025095e-35 0.1439892017044746
decision_type=2 2
left_child=1 -1
right_child=-2 -3
leaf_value=-475.09772568114789 -3945.3656759939531 871.29900249400816
leaf_weight=50609 2049 36874
leaf_count=50609 2049 36874
internal_value=0 92.4072
internal_weight=0 87483
internal_count=89532 87483
is_linear=0
shrinkage=0.05


Tree=205
num_leaves=3
num_cat=0
split_feature=37 32
split_gain=1.33378e+13 1.40539e+13
threshold=1.0000000180025095e-35 1.0000000180025095e-35
decision_type=2 2
left_child=1 -1
right_child=-2 -3
leaf_value=206.58976809063708 -3682.6278367697323 -3722.2261573533006
leaf_weight=84800 2393 2339
leaf_count=84800 2393 2339
internal_value=0 101.132
internal_weight=0 87139
internal_count=89532 87139
is_linear=0
shrinkage=0.05


Tree=206
num_leaves=3
num_cat=0
split_feature=11 16
split_gain=1.30895e+13 1.35984e+13
threshold=1.0000000180025095e-35 1.0000000180025095e-35
decision_type=2 2
left_child=1 -1
right_child=-2 -3
leaf_value=-198.74103700402713 3820.649752331783 3680.3081485325902
leaf_weight=85024 2187 2321
leaf_count=85024 2187 2321
internal_value=0 -95.6639
internal_weight=0 87345
internal_count=89532 87345
is_linear=0
shrinkage=0.05


Tree=207
num_leaves=3
num_cat=0
split_feature=41 5
split_gain=1.28449e+13 1.32068e+13
threshold=1.0000000180025095e-35 1.0000000180025095e-35
decision_type=2 2
left_child=1 -1
right_child=-2 -3
leaf_value=190.03979623415236 -3859.6078917391455 -3795.9398429476601
leaf_weight=85297 2105 2130
leaf_count=85297 2105 2130
internal_value=0 92.9286
internal_weight=0 87427
internal_count=89532 87427
is_linear=0
shrinkage=0.05


Tree=208
num_leaves=3
num_cat=0
split_feature=40 12
split_gain=1.29117e+13 1.3351e+13
threshold=1.0000000180025095e-35 1.0000000180025095e-35
decision_type=2 2
left_child=1 -1
right_child=-2 -3
leaf_value=192.1336611927411 -3756.0592375765141 -3880.4978048014559
leaf_weight=85240 2231 2061
leaf_count=85240 2231 2061
internal_value=0 95.9871
internal_weight=0 87301
internal_count=89532 87301
is_linear=0
shrinkage=0.05


Tree=209
num_leaves=3
num_cat=0
split_feature=14 47
split_gain=1.22596e+13 1.39933e+13
threshold=1.0000000180025095e-35 0.13017708110830392
decision_type=2 2
left_child=1 -1
right_child=-2 -3
leaf_value=-694.95670491453893 3527.6144894252584 574.4282835918267
leaf_weight=46092 2397 41043
leaf_count=46092 2397 41043
internal_value=0 -97.0412
internal_weight=0 87135
internal_count=89532 87135
is_linear=0
shrinkage=0.05


Tree=210
num_leaves=3
num_cat=0
split_feature=19 11
split_gain=1.27567e+13 1.25423e+13
threshold=1.0000000180025095e-35 1.0000000180025095e-35
decision_type=2 2
left_child=1 -1
right_child=-2 -3
leaf_value=-189.50077479680306 3808.5260154702792 3645.256521602259
leaf_weight=85199 2146 2187
leaf_count=85199 2146 2187
internal_value=0 -93.5287
internal_weight=0 87386
internal_count=89532 87386
is_linear=0
shrinkage=0.05


Tree=211
num_leaves=3
num_cat=0
split_feature=18 47
split_gain=1.23988e+13 1.28352e+13
threshold=1.0000000180025095e-35 0.13017708110830392
decision_type=2 2
left_child=1 -1
right_child=-2 -3
leaf_value=-658.15738785647238 3882.6725027697357 555.18168873561319
leaf_weight=46479 2010 41043
leaf_count=46479 2010 41043
internal_value=0 -89.1682
internal_weight=0 87522
internal_count=89532 87522
is_linear=0
shrinkage=0.05


Tree=212
num_leaves=3
num_cat=0
split_feature=22 47
split_gain=1.26935e+13 1.31822e+13
threshold=1.0000000180025095e-35 0.1439892017044746
decision_type=2 2
left_child=1 -1
right_child=-2 -3
leaf_value=-426.88895847324176 -3688.7302679509153 818.2514130242015
leaf_weight=50609 2273 36650
leaf_count=50609 2273 36650
internal_value=0 96.0874
internal_weight=0 87259
internal_count=89532 87259
is_linear=0
shrinkage=0.05


Tree=213
num_leaves=3
num_cat=0
split_feature=33 37
split_gain=1.27248e+13 1.33912e+13
threshold=1.0000000180025095e-35 1.0000000180025095e-35
decision_type=2 2
left_child=1 -1
right_child=-2 -3
leaf_value=197.01020205718009 -3813.7763321448156 -3595.5860104295834
leaf_weight=85004 2135 2393
leaf_count=85004 2135 2393
internal_value=0 93.1659
internal_weight=0 87397
internal_count=89532 87397
is_linear=0
shrinkage=0.05


Tree=214
num_leaves=3
num_cat=0
split_feature=47 30
split_gain=1.26011e+13 1.31755e+13
threshold=0.9857207911371717 1.0000000180025095e-35
decision_type=2 2
left_child=1 -1
right_child=-2 -3
leaf_value=192.00596191839975 -3639.29114622829 -3865.3670976768185
leaf_weight=85166 2317 2049
leaf_count=85166 2317 2049
internal_value=0 96.6834
internal_weight=0 87215
internal_count=89532 87215
is_linear=0
shrinkage=0.05


Tree=215
num_leaves=3
num_cat=0
split_feature=17 16
split_gain=1.21233e+13 1.27083e+13
threshold=1.0000000180025095e-35 1.0000000180025095e-35
decision_type=2 2
left_child=1 -1
right_child=-2 -3
leaf_value=-193.78426648638009 3600.05689341071 3556.2081765335529
leaf_weight=84932 2279 2321
leaf_count=84932 2279 2321
internal_value=0 -94.0315
internal_weight=0 87253
internal_count=89532 87253
is_linear=0
shrinkage=0.05


Tree=216
num_leaves=3
num_cat=0
split_feature=41 47
split_gain=1.22809e+13 1.31642e+13
threshold=1.0000000180025095e-35 0.1439892017044746
decision_type=2 2
left_child=1 -1
right_child=-2 -3
leaf_value=-432.44724061859625 -3773.913417368547 810.196279743574
leaf_weight=50609 2105 36818
leaf_count=50609 2105 36818
internal_value=0 90.8653
internal_weight=0 87427
internal_count=89532 87427
is_linear=0
shrinkage=0.05


Tree=217
num_leaves=3
num_cat=0
split_feature=22 33
split_gain=1.17869e+13 1.23507e+13
threshold=1.0000000180025095e-35 1.0000000180025095e-35
decision_type=2 2
left_child=1 -1
right_child=-2 -3
leaf_value=186.79944820783848 -3554.5650902093798 -3663.5085859364817
leaf_weight=85124 2273 2135
leaf_count=85124 2273 2135
internal_value=0 92.5925
internal_weight=0 87259
internal_count=89532 87259
is_linear=0
shrinkage=0.05


Tree=218
num_leaves=3
num_cat=0
split_feature=19 35
split_gain=1.18771e+13 1.16792e+13
threshold=1.0000000180025095e-35 1.0000000180025095e-35
decision_type=2 2
left_child=1 -1
right_child=-2 -3
leaf_value=-185.24066164505135 3674.8729955440353 3427.100729259229
leaf_weight=85088 2146 2298
leaf_count=85088 2146 2298
internal_value=0 -90.2465
internal_weight=0 87386
internal_count=89532 87386
is_linear=0
shrinkage=0.05


Tree=219
num_leaves=3
num_cat=0
split_feature=37 47
split_gain=1.17488e+13 1.2758e+13
threshold=1.0000000180025095e-35 0.1439892017044746
decision_type=2 2
left_child=1 -1
right_child=-2 -3
leaf_value=-419.08694503775661 -3456.3053733655115 807.02188421246524
leaf_weight=50609 2393 36530
leaf_count=50609 2393 36530
internal_value=0 94.9166
internal_weight=0 87139
internal_count=89532 87139
is_linear=0
shrinkage=0.05


Tree=220
num_leaves=3
num_cat=0
split_feature=32 40
split_gain=1.19993e+13 1.14241e+13
threshold=1.0000000180025095e-35 1.0000000180025095e-35
decision_type=2 2
left_child=1 -1
right_child=-2 -3
leaf_value=187.54744625727196 -3534.1418757138163 -3437.0436971879021
leaf_weight=84962 2339 2231
leaf_count=84962 2339 2231
internal_value=0 94.8053
internal_weight=0 87193
internal_count=89532 87193
is_linear=0
shrinkage=0.05


Tree=221
num_leaves=3
num_cat=0
split_feature=20 2
split_gain=1.18528e+13 1.19458e+13
threshold=1.0000000180025095e-35 1.0000000180025095e-35
decision_type=2 2
left_child=1 -1
right_child=-2 -3
leaf_value=180.98361611568873 -3867.6939424156526 -3487.7975385182044
leaf_weight=85316 1938 2278
leaf_count=85316 1938 2278
internal_value=0 85.572
internal_weight=0 87594
internal_count=89532 87594
is_linear=0
shrinkage=0.05


Tree=222
num_leaves=3
num_cat=0
split_feature=30 41
split_gain=1.18698e+13 1.20175e+13
threshold=1.0000000180025095e-35 1.0000000180025095e-35
decision_type=2 2
left_child=1 -1
right_child=-2 -3
leaf_value=180.1242814173319 -3761.7749322849349 -3644.0735185941212
leaf_weight=85378 2049 2105
leaf_count=85378 2049 2105
internal_value=0 88.1071
internal_weight=0 87483
internal_count=89532 87483
is_linear=0
shrinkage=0.05


Tree=223
num_leaves=3
num_cat=0
split_feature=14 18
split_gain=1.15248e+13 1.1942e+13
threshold=1.0000000180025095e-35 1.0000000180025095e-35
decision_type=2 2
left_child=1 -1
right_child=-2 -3
