tree
version=v4
num_class=1
num_tree_per_iteration=1
label_index=0
max_feature_idx=46
objective=regression
feature_names=Column_0 Column_1 Column_2 Column_3 Column_4 Column_5 Column_6 Column_7 Column_8 Column_9 Column_10 Column_11 Column_12 Column_13 Column_14 Column_15 Column_16 Column_17 Column_18 Column_19 Column_20 Column_21 Column_22 Column_23 Column_24 Column_25 Column_26 Column_27 Column_28 Column_29 Column_30 Column_31 Column_32 Column_33 Column_34 Column_35 Column_36 Column_37 Column_38 Column_39 Column_40 Column_41 Column_42 Column_43 Column_44 Column_45 Column_46
feature_infos=[0:1] [0:1] [0:1] [0:1] [0:1] [0:1] [0:1] [0:1] [0:1] [0:1] [0:1] [0:1] [0:1] [0:1] [0:1] [0:1] [0:1] [0:1] [0:1] [0:1] [0:1] [0:1] [0:1] [0:1] [0:1] [0:1] [0:1] [0:1] [0:1] [0:1] [0:1] [0:1] [0:1] [0:1] [0:1] [0:1] [0:1] [0:1] [0:1] [0:1] [0:1] [0:1] [0:1] [0:1] [0:1] [0:1] [0:1]
tree_sizes=420 423 420 421 423 421 422 422 423 422 424 422 423 424 422 421 421 422 423 422 423 423 423 422 421 420 423 423 424 424 421 424 423 423 422 424 422 423 423 423 422 424 423 424 424 422 424 423 422 424 424 423 424 422 423 422 423 423 424 423 424 423 422 422 422 421 422 422 422 423 422 423 423 424 423 423 424 423 422 421 424 424 422 422 423 422 424 422 423 421 424 421 423 422 424 423 424 424 422 424 425 422 425 425 424 424 423 424 424 424 424 423 424 424 423 424 423 423 424 423 425 424 425 424 424 425 424 425 425 423 425 423 423 423 424 425 424 422 424 421 424 423 423 425 425 425 423 424 424 425 424 425 425 425 425 422 423 424 423 421 424 423 425 423 425 423 425 420 424 425 423 425 425 424 424 425 424 423 425 425 424 424 424 422 424 423 422 425 423 425 424 423 424 425 422 424 425 423 424 424 424 425 423 422 422 421 424 423 423 424 425 424 424 424 424 424 424 424 422 425 423 424 424 419 422 423 425 425 423 425 425 424 423 423 425 423 425 424 424 425 424 425 424 422 425 424 423 424 424 424 423 424 424 424 424 424 422 424 424 424 425 425 425 424 423 424 425 424 424 425 424 423 424 424 424 425 425 424 425 424 425 425 421 424 424 425 424 425 423 424 423 424 422 425 423 424 424 421 424 424 422 421 425 424 425 424 423 423 425 424 424 421 425 424 424 424 425 424 423 425 425 424 425 423 423 424 423 425 422 424 425 424 423 423 423 425 423 425 425 423 423 423 424 423 425 424 422 424 424 424 422 425 424 424 425 424 424 424 425 424 424 425 425 424 423 424 425 422 423 423 425 425 424 424 424 425 425 424 424 422 423 424 425 423 423 423 424 424 424 425 423 424 424 424 423 423 423 423 424 425 425 425 423 424 425 422 424 424 424 424 424 423 422 422 424 425 424 424 423 422 424 424 424 425 424 424 424 423 424 423 424 425 423 422 423 424 425 424 424 424 425 424 425 420 424 423 425 424 423 423 424 424 425 425 425 425 425 425 424 421 420 423 425 423 424 424 424 423 424 422 424 423 425 424 424 424 424 419 423 423 424 425 425 423 424 423 424 423 425 424 425 422 424 423 422 424 423 422 425 420 425 423 421 422 424 424 424 424 422 414 424 424 424 424 422 424 424 423 421 423 423 425 422 422 424 424 423 424 421 423 423 425 422 424 425 424 422 423 419 420 420 424 425 425 425 425 420 421 425 421 421 425 423 414 425 419 421 425 423 425 425 424 424 418 423 425 421 424 421 423 423 424 424 422 424 424 425 424 417 422 424 424 419 424 424 425 420 424 418 424 424 420 425 420 422 424 421 423 421 423 425 424 424 423 425 424 425 424 425 424 417 417 423 423 422 421 425 423 419 423 424 421 415 423 425 420 418 424 424 423 425 422 423 423 423 424 425 423 421 418 424 425 419 422 423 424 423 424 420 423 424 424 425 418 424 425 424 424 423 425 423 415 424 424 418 425 425 424 423 421 425 423 422 423 425 424 424 421 425 424 421 424 423 424 424 423 416 418 424 423 423 423 425 424 424 418 418 425 425 423 423 424 424 423 423 423 422 420 424 424 424 425 421 424 422 423 417 416 423 424 423 422 416 424 423 425 425 420 422 422 423 420 424 422 424 423 423 425 420 424 424 424 424 424 417 423 425 423 425 421 423 421 413 424 418 419 416 422 424 423 424 424 412 424 424 422 423 425 422 423 421 423 423 423 423 416 421 423 421 424 421 424 424 422 422 423 416 424 424 424 423 424 423 418 424 422 424 423 423 424 423 423 425 422 415 418 418 424 419 425 424 423 417 422 424 424 424 412 422 418 424 423 416 424 419 423 421 414 423 419 421 424 416 424 425 424 417 414 422 424 423 424 417 423 423 422 421 419 424 424 420 421 422 422 424 424 422 423 412 419 424 425 422 417 423 425 419 419 424 422 422 411 418 423 420 424 423 424 425 418 418 422 424 419 421 424 417 418 418 425 424 421 422 423 423 416 419 419 423 423 423 423 422 423 422 424 421 419 419 424 424 419 417 422 415 425 424 424 419 422 417 408 417 424 424 416 423 423 424 417 420 423 417 423 421 423 422 421 409 420 421 416 419 424 418 422 425 421 423 423 423 423 425 424 421 415 420 425 423 423 417 418 424 417 424 423 423 418 418 411 422 423 420 422 416 417 418 423 419 424 424 423 418 419 425 421 423 420 422

Tree=0
num_leaves=3
num_cat=0
split_feature=46 46
split_gain=3.3136e+14 5.80175e+14
threshold=0.13260882135837221 0.072140833785499098
decision_type=2 2
left_child=1 -1
right_child=-2 -3
leaf_value=451268.09413829644 451333.37586956949 440246.01439787471
leaf_weight=21829 41546 26352
leaf_count=21829 41546 26352
internal_value=448061 445240
internal_weight=0 48181
internal_count=89727 48181
is_linear=0
shrinkage=1


Tree=1
num_leaves=3
num_cat=0
split_feature=22 7
split_gain=1.97612e+14 1.43141e+14
threshold=1.0000000180025095e-35 1.0000000180025095e-35
decision_type=2 2
left_child=1 -1
right_child=-2 -3
leaf_value=-43.945182621263974 14574.527870371398 -12634.287384051628
leaf_weight=85141 2267 2319
leaf_count=85141 2267 2319
internal_value=0 -377.778
internal_weight=0 87460
internal_count=89727 87460
is_linear=0
shrinkage=0.05


Tree=2
num_leaves=3
num_cat=0
split_feature=4 10
split_gain=1.48101e+14 1.2436e+14
threshold=1.0000000180025095e-35 1.0000000180025095e-35
decision_type=2 2
left_child=1 -1
right_child=-2 -3
leaf_value=5.9316264291400786 -13215.620238243999 11891.549036718525
leaf_weight=85397 2071 2259
leaf_count=85397 2071 2259
internal_value=0 312.238
internal_weight=0 87656
internal_count=89727 87656
is_linear=0
shrinkage=0.05


Tree=3
num_leaves=3
num_cat=0
split_feature=46 46
split_gain=2.91789e+14 5.06896e+14
threshold=0.13260882135837221 0.072140833785499098
decision_type=2 2
left_child=1 -1
right_child=-2 -3
leaf_value=2987.1325286936099 3070.5485111564149 -7315.3893202218578
leaf_weight=21829 41546 26352
leaf_count=21829 41546 26352
internal_value=0 -2647.7
internal_weight=0 48181
internal_count=89727 48181
is_linear=0
shrinkage=0.05


Tree=4
num_leaves=3
num_cat=0
split_feature=15 22
split_gain=1.82482e+14 1.83458e+14
threshold=1.0000000180025095e-35 1.0000000180025095e-35
decision_type=2 2
left_child=1 -1
right_child=-2 -3
leaf_value=-719.30212491661052 14669.613439303721 13691.977550084232
leaf_weight=85389 2071 2267
leaf_count=85389 2071 2267
internal_value=0 -346.591
internal_weight=0 87656
internal_count=89727 87656
is_linear=0
shrinkage=0.05


Tree=5
num_leaves=3
num_cat=0
split_feature=22 10
split_gain=1.574e+14 1.23151e+14
threshold=1.0000000180025095e-35 1.0000000180025095e-35
decision_type=2 2
left_child=1 -1
right_child=-2 -3
leaf_value=-642.66321158356288 13007.378353505919 11185.404356392721
leaf_weight=85201 2267 2259
leaf_count=85201 2267 2259
internal_value=0 -337.157
internal_weight=0 87460
internal_count=89727 87460
is_linear=0
shrinkage=0.05


Tree=6
num_leaves=3
num_cat=0
split_feature=40 7
split_gain=1.28844e+14 1.34156e+14
threshold=1.0000000180025095e-35 1.0000000180025095e-35
decision_type=2 2
left_child=1 -1
right_child=-2 -3
leaf_value=619.54129743933265 -12095.371715124245 -11569.002592041885
leaf_weight=85259 2149 2319
leaf_count=85259 2149 2319
internal_value=0 296.798
internal_weight=0 87578
internal_count=89727 87578
is_linear=0
shrinkage=0.05


Tree=7
num_leaves=3
num_cat=0
split_feature=15 4
split_gain=1.64717e+14 1.18592e+14
threshold=1.0000000180025095e-35 1.0000000180025095e-35
decision_type=2 2
left_child=1 -1
right_child=-2 -3
leaf_value=-43.202089037946251 13937.288787865744 -12151.94841278533
leaf_weight=85585 2071 2071
leaf_count=85585 2071 2071
internal_value=0 -329.289
internal_weight=0 87656
internal_count=89727 87656
is_linear=0
shrinkage=0.05


Tree=8
num_leaves=3
num_cat=0
split_feature=15 22
split_gain=1.48657e+14 1.48749e+14
threshold=1.0000000180025095e-35 1.0000000180025095e-35
decision_type=2 2
left_child=1 -1
right_child=-2 -3
leaf_value=-648.43174860208592 13240.424155836414 12328.192765117692
leaf_weight=85389 2071 2267
leaf_count=85389 2071 2267
internal_value=0 -312.824
internal_weight=0 87656
internal_count=89727 87656
is_linear=0
shrinkage=0.05


Tree=9
num_leaves=3
num_cat=0
split_feature=46 46
split_gain=2.62526e+14 4.30079e+14
threshold=0.13040722670177837 0.072140833785499098
decision_type=2 2
left_child=1 -1
right_child=-2 -3
leaf_value=2643.2900026654602 2889.7012950583003 -6875.5120601225644
leaf_weight=21829 41897 26001
leaf_count=21829 41897 26001
internal_value=0 -2531.25
internal_weight=0 47830
internal_count=89727 47830
is_linear=0
shrinkage=0.05


Tree=10
num_leaves=3
num_cat=0
split_feature=22 4
split_gain=1.24477e+14 1.00224e+14
threshold=1.0000000180025095e-35 1.0000000180025095e-35
decision_type=2 2
left_child=1 -1
right_child=-2 -3
leaf_value=-36.231992067711367 11567.297625307876 -11168.154380071503
leaf_weight=85389 2267 2071
leaf_count=85389 2267 2071
internal_value=0 -299.829
internal_weight=0 87460
internal_count=89727 87460
is_linear=0
shrinkage=0.05


Tree=11
num_leaves=3
num_cat=0
split_feature=46 46
split_gain=2.31851e+14 3.8435e+14
threshold=0.13040722670177837 0.072140833785499098
decision_type=2 2
left_child=1 -1
right_child=-2 -3
leaf_value=2512.9369288274006 2715.6353310665127 -6485.5915892694848
leaf_weight=21829 41897 26001
leaf_count=21829 41897 26001
internal_value=0 -2378.78
internal_weight=0 47830
internal_count=89727 47830
is_linear=0
shrinkage=0.05


Tree=12
num_leaves=3
num_cat=0
split_feature=46 46
split_gain=2.09245e+14 3.46876e+14
threshold=0.13040722670177837 0.072140833785499098
decision_type=2 2
left_child=1 -1
right_child=-2 -3
leaf_value=2387.2901290855589 2579.8532940907044 -6161.3119466323624
leaf_weight=21829 41897 26001
leaf_count=21829 41897 26001
internal_value=0 -2259.84
internal_weight=0 47830
internal_count=89727 47830
is_linear=0
shrinkage=0.05


Tree=13
num_leaves=3
num_cat=0
split_feature=15 40
split_gain=1.26275e+14 1.18067e+14
threshold=1.0000000180025095e-35 1.0000000180025095e-35
decision_type=2 2
left_child=1 -1
right_child=-2 -3
leaf_value=2.5975231960439715 12203.038922604037 -11863.469886707495
leaf_weight=85507 2071 2149
leaf_count=85507 2071 2149
internal_value=0 -288.314
internal_weight=0 87656
internal_count=89727 87656
is_linear=0
shrinkage=0.05


Tree=14
num_leaves=3
num_cat=0
split_feature=11 40
split_gain=1.20049e+14 1.1786e+14
threshold=1.0000000180025095e-35 1.0000000180025095e-35
decision_type=2 2
left_child=1 -1
right_child=-2 -3
leaf_value=585.69479886868362 -11362.281459455142 -11270.29643174101
leaf_weight=85312 2266 2149
leaf_count=85312 2266 2149
internal_value=0 294.382
internal_weight=0 87461
internal_count=89727 87461
is_linear=0
shrinkage=0.05


Tree=15
num_leaves=3
num_cat=0
split_feature=46 46
split_gain=1.9381e+14 3.10017e+14
threshold=0.13260882135837221 0.081630707614446116
decision_type=2 2
left_child=1 -1
right_child=-2 -3
leaf_value=1995.5171895442611 2502.476573736265 -6030.8704912848734
leaf_weight=23249 41546 24932
leaf_count=23249 41546 24932
internal_value=0 -2157.86
internal_weight=0 48181
internal_count=89727 48181
is_linear=0
shrinkage=0.05


Tree=16
num_leaves=3
num_cat=0
split_feature=46 46
split_gain=1.7521e+14 2.84905e+14
threshold=0.13040722670177837 0.086896529464351432
decision_type=2 2
left_child=1 -1
right_child=-2 -3
leaf_value=1782.9960873090113 2360.7347454344181 -5934.9341425181692
leaf_weight=23965 41897 23865
leaf_count=23965 41897 23865
internal_value=0 -2067.9
internal_weight=0 47830
internal_count=89727 47830
is_linear=0
shrinkage=0.05


Tree=17
num_leaves=3
num_cat=0
split_feature=11 15
split_gain=1.1217e+14 1.04357e+14
threshold=1.0000000180025095e-35 1.0000000180025095e-35
decision_type=2 2
left_child=1 -1
right_child=-2 -3
leaf_value=15.584140824208788 -10983.093654108006 11374.676490958309
leaf_weight=85390 2266 2071
leaf_count=85390 2266 2071
internal_value=0 284.558
internal_weight=0 87461
internal_count=89727 87461
is_linear=0
shrinkage=0.05


Tree=18
num_leaves=3
num_cat=0
split_feature=46 46
split_gain=1.58018e+14 2.59567e+14
threshold=0.13040722670177837 0.072140833785499098
decision_type=2 2
left_child=1 -1
right_child=-2 -3
leaf_value=2056.1478565256421 2241.9189603886325 -5338.7688045641898
leaf_weight=21829 41897 26001
leaf_count=21829 41897 26001
internal_value=0 -1963.82
internal_weight=0 47830
internal_count=89727 47830
is_linear=0
shrinkage=0.05


Tree=19
num_leaves=3
num_cat=0
split_feature=40 22
split_gain=1.07784e+14 9.43459e+13
threshold=1.0000000180025095e-35 1.0000000180025095e-35
decision_type=2 2
left_child=1 -1
right_child=-2 -3
leaf_value=3.9402229903662658 -11062.816932394362 10338.70848025733
leaf_weight=85311 2149 2267
leaf_count=85311 2149 2267
internal_value=0 271.461
internal_weight=0 87578
internal_count=89727 87578
is_linear=0
shrinkage=0.05


Tree=20
num_leaves=3
num_cat=0
split_feature=11 40
split_gain=1.03242e+14 1.0246e+14
threshold=1.0000000180025095e-35 1.0000000180025095e-35
decision_type=2 2
left_child=1 -1
right_child=-2 -3
leaf_value=544.61288363076255 -10536.942556016591 -10509.676238141743
leaf_weight=85312 2266 2149
leaf_count=85312 2266 2149
internal_value=0 272.998
internal_weight=0 87461
internal_count=89727 87461
is_linear=0
shrinkage=0.05


Tree=21
num_leaves=3
num_cat=0
split_feature=46 46
split_gain=1.42796e+14 2.34874e+14
threshold=0.13260882135837221 0.072140833785499098
decision_type=2 2
left_child=1 -1
right_child=-2 -3
leaf_value=1983.4302530028342 2148.0281994191205 -5029.5337353524474
leaf_weight=21829 41546 26352
leaf_count=21829 41546 26352
internal_value=0 -1852.22
internal_weight=0 48181
internal_count=89727 48181
is_linear=0
shrinkage=0.05


Tree=22
num_leaves=3
num_cat=0
split_feature=46 46
split_gain=1.29144e+14 2.16709e+14
threshold=0.13040722670177837 0.086896529464351432
decision_type=2 2
left_child=1 -1
right_child=-2 -3
leaf_value=1583.1772664273522 2026.7725580479473 -5147.9793372025861
leaf_weight=23965 41897 23865
leaf_count=23965 41897 23865
internal_value=0 -1775.36
internal_weight=0 47830
internal_count=89727 47830
is_linear=0
shrinkage=0.05


Tree=23
num_leaves=3
num_cat=0
split_feature=46 46
split_gain=1.16553e+14 1.95829e+14
threshold=0.13040722670177837 0.072140833785499098
decision_type=2 2
left_child=1 -1
right_child=-2 -3
leaf_value=1805.0998924542448 1925.4340828143297 -4618.0309858945238
leaf_weight=21829 41897 26001
leaf_count=21829 41897 26001
internal_value=0 -1686.6
internal_weight=0 47830
internal_count=89727 47830
is_linear=0
shrinkage=0.05


Tree=24
num_leaves=3
num_cat=0
split_feature=46 46
split_gain=1.05189e+14 1.78095e+14
threshold=0.13040722670177837 0.086896529464351432
decision_type=2 2
left_child=1 -1
right_child=-2 -3
leaf_value=1442.38782775098 1829.1621776143127 -4659.6789596409417
leaf_weight=23965 41897 23865
leaf_count=23965 41897 23865
internal_value=0 -1602.27
internal_weight=0 47830
internal_count=89727 47830
is_linear=0
shrinkage=0.05


Tree=25
num_leaves=3
num_cat=0
split_feature=11 40
split_gain=9.96269e+13 9.99321e+13
threshold=1.0000000180025095e-35 1.0000000180025095e-35
decision_type=2 2
left_child=1 -1
right_child=-2 -3
leaf_value=536.41872195170527 -10350.80030821424 -10380.662209012
leaf_weight=85312 2266 2149
leaf_count=85312 2266 2149
internal_value=0 268.176
internal_weight=0 87461
internal_count=89727 87461
is_linear=0
shrinkage=0.05


Tree=26
num_leaves=3
num_cat=0
split_feature=11 40
split_gain=8.99133e+13 9.01888e+13
threshold=1.0000000180025095e-35 1.0000000180025095e-35
decision_type=2 2
left_child=1 -1
right_child=-2 -3
leaf_value=509.59785966289559 -9833.2608340570714 -9861.629284484512
leaf_weight=85312 2266 2149
leaf_count=85312 2266 2149
internal_value=0 254.767
internal_weight=0 87461
internal_count=89727 87461
is_linear=0
shrinkage=0.05


Tree=27
num_leaves=3
num_cat=0
split_feature=46 46
split_gain=9.52471e+13 1.64843e+14
threshold=0.13260882135837221 0.072140833785499098
decision_type=2 2
left_child=1 -1
right_child=-2 -3
leaf_value=1700.6157818366323 1754.3152418873169 -4174.5419906956377
leaf_weight=21829 41546 26352
leaf_count=21829 41546 26352
internal_value=0 -1512.73
internal_weight=0 48181
internal_count=89727 48181
is_linear=0
shrinkage=0.05


Tree=28
num_leaves=3
num_cat=0
split_feature=15 22
split_gain=8.81827e+13 8.39936e+13
threshold=1.0000000180025095e-35 1.0000000180025095e-35
decision_type=2 2
left_child=1 -1
right_child=-2 -3
leaf_value=-493.12425800455179 10197.671132035466 9258.0558737604642
leaf_weight=85389 2071 2267
leaf_count=85389 2071 2267
internal_value=0 -240.935
internal_weight=0 87656
internal_count=89727 87656
is_linear=0
shrinkage=0.05


Tree=29
num_leaves=3
num_cat=0
split_feature=12 11
split_gain=1.02263e+14 8.67886e+13
threshold=1.0000000180025095e-35 1.0000000180025095e-35
decision_type=2 2
left_child=1 -1
right_child=-2 -3
leaf_value=512.17489553930841 -11128.289134587571 -9401.9720163012862
leaf_weight=85443 2018 2266
leaf_count=85443 2018 2266
internal_value=0 256.039
internal_weight=0 87709
internal_count=89727 87709
is_linear=0
shrinkage=0.05


Tree=30
num_leaves=3
num_cat=0
split_feature=46 46
split_gain=8.32669e+13 1.5428e+14
threshold=0.13040722670177837 0.086896529464351432
decision_type=2 2
left_child=1 -1
right_child=-2 -3
leaf_value=1408.2248138546383 1627.433751535259 -4271.2211698304645
leaf_weight=23965 41897 23865
leaf_count=23965 41897 23865
internal_value=0 -1425.56
internal_weight=0 47830
internal_count=89727 47830
is_linear=0
shrinkage=0.05


Tree=31
num_leaves=3
num_cat=0
split_feature=40 11
split_gain=8.01295e+13 7.93789e+13
threshold=1.0000000180025095e-35 1.0000000180025095e-35
decision_type=2 2
left_child=1 -1
right_child=-2 -3
leaf_value=479.38855161898437 -9538.5874153992809 -9002.2845829333237
leaf_weight=85312 2149 2266
leaf_count=85312 2149 2266
internal_value=0 234.059
internal_weight=0 87578
internal_count=89727 87578
is_linear=0
shrinkage=0.05


Tree=32
num_leaves=3
num_cat=0
split_feature=10 46
split_gain=8.08822e+13 1.02954e+14
threshold=1.0000000180025095e-35 0.13040722670177837
decision_type=2 2
left_child=1 -1
right_child=-2 -3
leaf_value=-1886.0514283282184 9341.1712155383048 1547.7847231190965
leaf_weight=45571 2259 41897
leaf_count=45571 2259 41897
internal_value=0 -241.251
internal_weight=0 87468
internal_count=89727 87468
is_linear=0
shrinkage=0.05


Tree=33
num_leaves=3
num_cat=0
split_feature=15 46
split_gain=7.91635e+13 9.26338e+13
threshold=1.0000000180025095e-35 0.13040722670177837
decision_type=2 2
left_child=1 -1
right_child=-2 -3
leaf_value=-1783.5918445905988 9662.1009846641955 1470.3958139393953
leaf_weight=45759 2071 41897
leaf_count=45759 2071 41897
internal_value=0 -228.281
internal_weight=0 87656
internal_count=89727 87656
is_linear=0
shrinkage=0.05


Tree=34
num_leaves=3
num_cat=0
split_feature=12 46
split_gain=9.07429e+13 7.41211e+13
threshold=1.0000000180025095e-35 0.072140833785499098
decision_type=2 2
left_child=1 -1
right_child=-2 -3
leaf_value=2931.100644774524 -10482.773356971704 -544.2283943537517
leaf_weight=19822 2018 67887
leaf_count=19822 2018 67887
internal_value=0 241.187
internal_weight=0 87709
internal_count=89727 87709
is_linear=0
shrinkage=0.05


Tree=35
num_leaves=3
num_cat=0
split_feature=40 11
split_gain=7.43047e+13 7.10871e+13
threshold=1.0000000180025095e-35 1.0000000180025095e-35
decision_type=2 2
left_child=1 -1
right_child=-2 -3
leaf_value=457.55416114035006 -9185.3559300949437 -8515.2435095515175
leaf_weight=85312 2149 2266
leaf_count=85312 2149 2266
internal_value=0 225.391
internal_weight=0 87578
internal_count=89727 87578
is_linear=0
shrinkage=0.05


Tree=36
num_leaves=3
num_cat=0
split_feature=22 13
split_gain=6.74936e+13 5.52297e+13
threshold=1.0000000180025095e-35 1.0000000180025095e-35
decision_type=2 2
left_child=1 -1
right_child=-2 -3
leaf_value=-419.53288521661119 8517.6278729776077 7722.333115969006
leaf_weight=85325 2267 2135
leaf_count=85325 2267 2135
internal_value=0 -220.78
internal_weight=0 87460
internal_count=89727 87460
is_linear=0
shrinkage=0.05


Tree=37
num_leaves=3
num_cat=0
split_feature=10 46
split_gain=7.20343e+13 8.76168e+13
threshold=1.0000000180025095e-35 0.13040722670177837
decision_type=2 2
left_child=1 -1
right_child=-2 -3
leaf_value=-1745.0251056559855 8815.4517053051095 1422.7377855752475
leaf_weight=45571 2259 41897
leaf_count=45571 2259 41897
internal_value=0 -227.673
internal_weight=0 87468
internal_count=89727 87468
is_linear=0
shrinkage=0.05


Tree=38
num_leaves=3
num_cat=0
split_feature=12 1
split_gain=8.04977e+13 7.39742e+13
threshold=1.0000000180025095e-35 1.0000000180025095e-35
decision_type=2 2
left_child=1 -1
right_child=-2 -3
leaf_value=454.97648825753618 -9873.2843565640287 -9028.2909904445587
leaf_weight=85602 2018 2107
leaf_count=85602 2018 2107
internal_value=0 227.164
internal_weight=0 87709
internal_count=89727 87709
is_linear=0
shrinkage=0.05


Tree=39
num_leaves=3
num_cat=0
split_feature=16 15
split_gain=7.37504e+13 7.38532e+13
threshold=1.0000000180025095e-35 1.0000000180025095e-35
decision_type=2 2
left_child=1 -1
right_child=-2 -3
leaf_value=-460.87674805203744 8765.8135666713788 9095.042213558565
leaf_weight=85319 2337 2071
leaf_count=85319 2337 2071
internal_value=0 -234.417
internal_weight=0 87390
internal_count=89727 87390
is_linear=0
shrinkage=0.05


Tree=40
num_leaves=3
num_cat=0
split_feature=40 1
split_gain=6.78286e+13 6.64077e+13
threshold=1.0000000180025095e-35 1.0000000180025095e-35
decision_type=2 2
left_child=1 -1
right_child=-2 -3
leaf_value=431.51996402802837 -8775.9531063979812 -8553.832814598356
leaf_weight=85471 2149 2107
leaf_count=85471 2149 2107
internal_value=0 215.345
internal_weight=0 87578
internal_count=89727 87578
is_linear=0
shrinkage=0.05


Tree=41
num_leaves=3
num_cat=0
split_feature=12 16
split_gain=7.26264e+13 6.28584e+13
threshold=1.0000000180025095e-35 1.0000000180025095e-35
decision_type=2 2
left_child=1 -1
right_child=-2 -3
leaf_value=-5.6914619070116697 -9378.1528348987013 8305.9471256202232
leaf_weight=85372 2018 2337
leaf_count=85372 2018 2337
internal_value=0 215.772
internal_weight=0 87709
internal_count=89727 87709
is_linear=0
shrinkage=0.05


Tree=42
num_leaves=3
num_cat=0
split_feature=10 46
split_gain=6.46854e+13 7.92836e+13
threshold=1.0000000180025095e-35 0.13040722670177837
decision_type=2 2
left_child=1 -1
right_child=-2 -3
leaf_value=-1659.1393454639897 8353.6827383537002 1354.2176635941951
leaf_weight=45571 2259 41897
leaf_count=45571 2259 41897
internal_value=0 -215.747
internal_weight=0 87468
internal_count=89727 87468
is_linear=0
shrinkage=0.05


Tree=43
num_leaves=3
num_cat=0
split_feature=12 46
split_gain=6.43304e+13 6.73577e+13
threshold=1.0000000180025095e-35 0.072140833785499098
decision_type=2 2
left_child=1 -1
right_child=-2 -3
leaf_value=2767.3294401523253 -8826.2876102337887 -545.65030376713446
leaf_weight=19822 2018 67887
leaf_count=19822 2018 67887
internal_value=0 203.074
internal_weight=0 87709
internal_count=89727 87709
is_linear=0
shrinkage=0.05


Tree=44
num_leaves=3
num_cat=0
split_feature=15 16
split_gain=6.21861e+13 6.20446e+13
threshold=1.0000000180025095e-35 1.0000000180025095e-35
decision_type=2 2
left_child=1 -1
right_child=-2 -3
leaf_value=-422.48688189747986 8563.5891259687542 7835.2404297965377
leaf_weight=85319 2071 2337
leaf_count=85319 2071 2337
internal_value=0 -202.327
internal_weight=0 87656
internal_count=89727 87656
is_linear=0
shrinkage=0.05


Tree=45
num_leaves=3
num_cat=0
split_feature=40 46
split_gain=6.1495e+13 8.14456e+13
threshold=1.0000000180025095e-35 0.14492540649496666
decision_type=2 2
left_child=1 -1
right_child=-2 -3
leaf_value=-1117.6548036949405 -8356.1748206123975 1962.7706102261902
leaf_weight=49973 2149 37605
leaf_count=49973 2149 37605
internal_value=0 205.045
internal_weight=0 87578
internal_count=89727 87578
is_linear=0
shrinkage=0.05


Tree=46
num_leaves=3
num_cat=0
split_feature=22 10
split_gain=5.77985e+13 6.05499e+13
threshold=1.0000000180025095e-35 1.0000000180025095e-35
decision_type=2 2
left_child=1 -1
right_child=-2 -3
leaf_value=-418.52811467765127 7882.1708053275888 7875.2258078417672
leaf_weight=85201 2267 2259
leaf_count=85201 2267 2259
internal_value=0 -204.309
internal_weight=0 87460
internal_count=89727 87460
is_linear=0
shrinkage=0.05


Tree=47
num_leaves=3
num_cat=0
split_feature=11 1
split_gain=5.89149e+13 5.93442e+13
threshold=1.0000000180025095e-35 1.0000000180025095e-35
decision_type=2 2
left_child=1 -1
right_child=-2 -3
leaf_value=410.85742730299728 -7959.7255959735548 -8083.3326625221089
leaf_weight=85354 2266 2107
leaf_count=85354 2266 2107
internal_value=0 206.226
internal_weight=0 87461
internal_count=89727 87461
is_linear=0
shrinkage=0.05


Tree=48
num_leaves=3
num_cat=0
split_feature=12 46
split_gain=5.69914e+13 6.22689e+13
threshold=1.0000000180025095e-35 0.072140833785499098
decision_type=2 2
left_child=1 -1
right_child=-2 -3
leaf_value=2656.6291731505553 -8307.582765226487 -528.74628990044584
leaf_weight=19822 2018 67887
leaf_count=19822 2018 67887
internal_value=0 191.14
internal_weight=0 87709
internal_count=89727 87709
is_linear=0
shrinkage=0.05


Tree=49
num_leaves=3
num_cat=0
split_feature=22 10
split_gain=5.22453e+13 5.24942e+13
threshold=1.0000000180025095e-35 1.0000000180025095e-35
decision_type=2 2
left_child=1 -1
right_child=-2 -3
leaf_value=-393.70692570259638 7493.9564529733616 7328.6545918917654
leaf_weight=85201 2267 2259
leaf_count=85201 2267 2259
internal_value=0 -194.246
internal_weight=0 87460
internal_count=89727 87460
is_linear=0
shrinkage=0.05


Tree=50
num_leaves=3
num_cat=0
split_feature=15 16
split_gain=5.53409e+13 5.51445e+13
threshold=1.0000000180025095e-35 1.0000000180025095e-35
decision_type=2 2
left_child=1 -1
right_child=-2 -3
leaf_value=-398.42370102594737 8078.5298388251358 7386.5981652876435
leaf_weight=85319 2071 2337
leaf_count=85319 2071 2337
internal_value=0 -190.867
internal_weight=0 87656
internal_count=89727 87656
is_linear=0
shrinkage=0.05


Tree=51
num_leaves=3
num_cat=0
split_feature=40 46
split_gain=5.45743e+13 7.52102e+13
threshold=1.0000000180025095e-35 0.14492540649496666
decision_type=2 2
left_child=1 -1
right_child=-2 -3
leaf_value=-1077.8969320970389 -7871.9387968124593 1882.2640816598177
leaf_weight=49973 2149 37605
leaf_count=49973 2149 37605
internal_value=0 193.163
internal_weight=0 87578
internal_count=89727 87578
is_linear=0
shrinkage=0.05


Tree=52
num_leaves=3
num_cat=0
split_feature=11 46
split_gain=5.37252e+13 5.82464e+13
threshold=1.0000000180025095e-35 0.070556445015483304
decision_type=2 2
left_child=1 -1
right_child=-2 -3
leaf_value=2658.4868198956256 -7601.0694228088978 -479.43818019693117
leaf_weight=18852 2266 68609
leaf_count=18852 2266 68609
internal_value=0 196.934
internal_weight=0 87461
internal_count=89727 87461
is_linear=0
shrinkage=0.05


Tree=53
num_leaves=3
num_cat=0
split_feature=1 7
split_gain=5.32036e+13 5.26685e+13
threshold=1.0000000180025095e-35 1.0000000180025095e-35
decision_type=2 2
left_child=1 -1
right_child=-2 -3
leaf_value=390.92683933936723 -7851.4203443008519 -7246.0163793849251
leaf_weight=85301 2107 2319
leaf_count=85301 2107 2319
internal_value=0 188.803
internal_weight=0 87620
internal_count=89727 87620
is_linear=0
shrinkage=0.05


Tree=54
num_leaves=3
num_cat=0
split_feature=12 46
split_gain=5.19483e+13 5.20664e+13
threshold=1.0000000180025095e-35 0.072140833785499098
decision_type=2 2
left_child=1 -1
right_child=-2 -3
leaf_value=2436.9657368597595 -7931.5029056499934 -475.7870556410985
leaf_weight=19822 2018 67887
leaf_count=19822 2018 67887
internal_value=0 182.487
internal_weight=0 87709
internal_count=89727 87709
is_linear=0
shrinkage=0.05


Tree=55
num_leaves=3
num_cat=0
split_feature=11 1
split_gain=5.04044e+13 5.21578e+13
threshold=1.0000000180025095e-35 1.0000000180025095e-35
decision_type=2 2
left_child=1 -1
right_child=-2 -3
leaf_value=382.59198381263849 -7362.4109357546004 -7580.6973986491248
leaf_weight=85354 2266 2107
leaf_count=85354 2266 2107
internal_value=0 190.75
internal_weight=0 87461
internal_count=89727 87461
is_linear=0
shrinkage=0.05


Tree=56
num_leaves=3
num_cat=0
split_feature=40 46
split_gain=4.91337e+13 6.87425e+13
threshold=1.0000000180025095e-35 0.14059494486312846
decision_type=2 2
left_child=1 -1
right_child=-2 -3
leaf_value=-1052.4663828906537 -7469.2564282260646 1771.2436118459268
leaf_weight=49251 2149 38327
leaf_count=49251 2149 38327
internal_value=0 183.282
internal_weight=0 87578
internal_count=89727 87578
is_linear=0
shrinkage=0.05


Tree=57
num_leaves=3
num_cat=0
split_feature=12 4
split_gain=4.64674e+13 4.62124e+13
threshold=1.0000000180025095e-35 1.0000000180025095e-35
decision_type=2 2
left_child=1 -1
right_child=-2 -3
leaf_value=351.06992857081269 -7501.4341305009675 -7207.6426020992039
leaf_weight=85638 2018 2071
leaf_count=85638 2018 2071
internal_value=0 172.592
internal_weight=0 87709
internal_count=89727 87709
is_linear=0
shrinkage=0.05


Tree=58
num_leaves=3
num_cat=0
split_feature=22 13
split_gain=4.49107e+13 4.67359e+13
threshold=1.0000000180025095e-35 1.0000000180025095e-35
decision_type=2 2
left_child=1 -1
right_child=-2 -3
leaf_value=-362.92763191246854 6948.0364713287699 7126.7433927991633
leaf_weight=85325 2267 2135
leaf_count=85325 2267 2135
internal_value=0 -180.096
internal_weight=0 87460
internal_count=89727 87460
is_linear=0
shrinkage=0.05


Tree=59
num_leaves=3
num_cat=0
split_feature=15 18
split_gain=4.75493e+13 4.8564e+13
threshold=1.0000000180025095e-35 1.0000000180025095e-35
decision_type=2 2
left_child=1 -1
right_child=-2 -3
leaf_value=-363.45168536411188 7488.2657056822063 7248.5276761103833
leaf_weight=85508 2071 2148
leaf_count=85508 2071 2148
internal_value=0 -176.921
internal_weight=0 87656
internal_count=89727 87656
is_linear=0
shrinkage=0.05


Tree=60
num_leaves=3
num_cat=0
split_feature=11 46
split_gain=4.45661e+13 5.12199e+13
threshold=1.0000000180025095e-35 0.072140833785499098
decision_type=2 2
left_child=1 -1
right_child=-2 -3
leaf_value=2433.5645569846033 -6922.9015798125984 -470.12484848698415
leaf_weight=19563 2266 67898
leaf_count=19563 2266 67898
internal_value=0 179.363
internal_weight=0 87461
internal_count=89727 87461
is_linear=0
shrinkage=0.05


Tree=61
num_leaves=3
num_cat=0
split_feature=46 46
split_gain=4.55533e+13 9.82363e+13
threshold=0.13040722670177837 0.086896529464351432
decision_type=2 2
left_child=1 -1
right_child=-2 -3
leaf_value=1206.8364960640426 1203.7237652102751 -3325.1312784042275
leaf_weight=23965 41897 23865
leaf_count=23965 41897 23865
internal_value=0 -1054.41
internal_weight=0 47830
internal_count=89727 47830
is_linear=0
shrinkage=0.05


Tree=62
num_leaves=3
num_cat=0
split_feature=46 46
split_gain=4.11118e+13 8.86583e+13
threshold=0.13040722670177837 0.086896529464351432
decision_type=2 2
left_child=1 -1
right_child=-2 -3
leaf_value=1146.494664688598 1143.5378713216367 -3158.8745544361905
leaf_weight=23965 41897 23865
leaf_count=23965 41897 23865
internal_value=0 -1001.69
internal_weight=0 47830
internal_count=89727 47830
is_linear=0
shrinkage=0.05


Tree=63
num_leaves=3
num_cat=0
split_feature=1 40
split_gain=4.68743e+13 4.75808e+13
threshold=1.0000000180025095e-35 1.0000000180025095e-35
decision_type=2 2
left_child=1 -1
right_child=-2 -3
leaf_value=361.97104207762209 -7369.6187669175579 -7170.885260432995
leaf_weight=85471 2107 2149
leaf_count=85471 2107 2149
internal_value=0 177.217
internal_weight=0 87620
internal_count=89727 87620
is_linear=0
shrinkage=0.05


Tree=64
num_leaves=3
num_cat=0
split_feature=12 1
split_gain=4.45702e+13 4.4396e+13
threshold=1.0000000180025095e-35 1.0000000180025095e-35
decision_type=2 2
left_child=1 -1
right_child=-2 -3
leaf_value=345.51810958676691 -7346.6948049290095 -7001.1378047284106
leaf_weight=85602 2018 2107
leaf_count=85602 2018 2107
internal_value=0 169.032
internal_weight=0 87709
internal_count=89727 87709
is_linear=0
shrinkage=0.05


Tree=65
num_leaves=3
num_cat=0
split_feature=11 46
split_gain=4.21146e+13 4.467e+13
threshold=1.0000000180025095e-35 0.072140833785499098
decision_type=2 2
left_child=1 -1
right_child=-2 -3
leaf_value=2279.5020733740239 -6729.7970758288284 -432.18034177571536
leaf_weight=19563 2266 67898
leaf_count=19563 2266 67898
internal_value=0 174.36
internal_weight=0 87461
internal_count=89727 87461
is_linear=0
shrinkage=0.05


Tree=66
num_leaves=3
num_cat=0
split_feature=12 1
split_gain=4.15404e+13 4.14506e+13
threshold=1.0000000180025095e-35 1.0000000180025095e-35
decision_type=2 2
left_child=1 -1
right_child=-2 -3
leaf_value=333.71687146417213 -7092.596314645546 -6765.0560604767152
leaf_weight=85602 2018 2107
leaf_count=85602 2018 2107
internal_value=0 163.186
internal_weight=0 87709
internal_count=89727 87709
is_linear=0
shrinkage=0.05


Tree=67
num_leaves=3
num_cat=0
split_feature=7 8
split_gain=4.01123e+13 4.08715e+13
threshold=1.0000000180025095e-35 1.0000000180025095e-35
decision_type=2 2
left_child=1 -1
right_child=-2 -3
leaf_value=339.83498889500856 -6490.4114790521235 -6801.0165966621389
leaf_weight=85356 2319 2052
leaf_count=85356 2319 2052
internal_value=0 172.196
internal_weight=0 87408
internal_count=89727 87408
is_linear=0
shrinkage=0.05


Tree=68
num_leaves=3
num_cat=0
split_feature=22 10
split_gain=3.90338e+13 4.00944e+13
threshold=1.0000000180025095e-35 1.0000000180025095e-35
decision_type=2 2
left_child=1 -1
right_child=-2 -3
leaf_value=-342.21783825410375 6477.5071407854903 6406.7288246968728
leaf_weight=85201 2267 2259
leaf_count=85201 2267 2259
internal_value=0 -167.9
internal_weight=0 87460
internal_count=89727 87460
is_linear=0
shrinkage=0.05


Tree=69
num_leaves=3
num_cat=0
split_feature=40 46
split_gain=4.10181e+13 5.11669e+13
threshold=1.0000000180025095e-35 0.14492540649496666
decision_type=2 2
left_child=1 -1
right_child=-2 -3
leaf_value=-880.92585130986527 -6824.5746948902524 1560.6573794081287
leaf_weight=49973 2149 37605
leaf_count=49973 2149 37605
internal_value=0 167.462
internal_weight=0 87578
internal_count=89727 87578
is_linear=0
shrinkage=0.05


Tree=70
num_leaves=3
num_cat=0
split_feature=16 15
split_gain=4.04005e+13 4.07041e+13
threshold=1.0000000180025095e-35 1.0000000180025095e-35
decision_type=2 2
left_child=1 -1
right_child=-2 -3
leaf_value=-341.62283541737702 6487.8886106570262 6752.6375601141772
leaf_weight=85319 2337 2071
leaf_count=85319 2337 2071
internal_value=0 -173.5
internal_weight=0 87390
internal_count=89727 87390
is_linear=0
shrinkage=0.05


Tree=71
num_leaves=3
num_cat=0
split_feature=18 46
split_gain=3.76734e+13 4.50514e+13
threshold=1.0000000180025095e-35 0.13040722670177837
decision_type=2 2
left_child=1 -1
right_child=-2 -3
leaf_value=-1246.4840111525098 6541.9680022198845 1023.6945614403433
leaf_weight=45682 2148 41897
leaf_count=45682 2148 41897
internal_value=0 -160.451
internal_weight=0 87579
internal_count=89727 87579
is_linear=0
shrinkage=0.05


Tree=72
num_leaves=3
num_cat=0
split_feature=16 46
split_gain=3.72026e+13 4.17647e+13
threshold=1.0000000180025095e-35 0.13040722670177837
decision_type=2 2
left_child=1 -1
right_child=-2 -3
leaf_value=-1215.4614776462608 6225.8187513884295 972.51003584804062
leaf_weight=45493 2337 41897
leaf_count=45493 2337 41897
internal_value=0 -166.492
internal_weight=0 87390
internal_count=89727 87390
is_linear=0
shrinkage=0.05


Tree=73
num_leaves=3
num_cat=0
split_feature=40 29
split_gain=3.79696e+13 3.82397e+13
threshold=1.0000000180025095e-35 1.0000000180025095e-35
decision_type=2 2
left_child=1 -1
right_child=-2 -3
leaf_value=328.71538196640057 -6566.0747855568552 -6352.0981060239046
leaf_weight=85381 2149 2197
leaf_count=85381 2149 2197
internal_value=0 161.119
internal_weight=0 87578
internal_count=89727 87578
is_linear=0
shrinkage=0.05


Tree=74
num_leaves=3
num_cat=0
split_feature=13 10
split_gain=3.75445e+13 3.8156e+13
threshold=1.0000000180025095e-35 1.0000000180025095e-35
decision_type=2 2
left_child=1 -1
right_child=-2 -3
leaf_value=-329.47169942711361 6551.1068803797953 6254.1814519712498
leaf_weight=85333 2135 2259
leaf_count=85333 2135 2259
internal_value=0 -159.679
internal_weight=0 87592
internal_count=89727 87592
is_linear=0
shrinkage=0.05


Tree=75
num_leaves=3
num_cat=0
split_feature=15 18
split_gain=3.62485e+13 3.64176e+13
threshold=1.0000000180025095e-35 1.0000000180025095e-35
decision_type=2 2
left_child=1 -1
right_child=-2 -3
leaf_value=-316.00134574952028 6538.1407639691824 6275.680499565935
leaf_weight=85508 2071 2148
leaf_count=85508 2071 2148
internal_value=0 -154.473
internal_weight=0 87656
internal_count=89727 87656
is_linear=0
shrinkage=0.05


Tree=76
num_leaves=3
num_cat=0
split_feature=12 40
split_gain=3.52957e+13 3.55981e+13
threshold=1.0000000180025095e-35 1.0000000180025095e-35
decision_type=2 2
left_child=1 -1
right_child=-2 -3
leaf_value=310.06158176647688 -6537.7850039101213 -6205.4976397855608
leaf_weight=85560 2018 2149
leaf_count=85560 2018 2149
internal_value=0 150.421
internal_weight=0 87709
internal_count=89727 87709
is_linear=0
shrinkage=0.05


Tree=77
num_leaves=3
num_cat=0
split_feature=11 46
split_gain=3.60372e+13 3.76012e+13
threshold=1.0000000180025095e-35 0.072140833785499098
decision_type=2 2
left_child=1 -1
right_child=-2 -3
leaf_value=2092.7006906654942 -6225.3148027898987 -395.19485004790937
leaf_weight=19563 2266 67898
leaf_count=19563 2266 67898
internal_value=0 161.29
internal_weight=0 87461
internal_count=89727 87461
is_linear=0
shrinkage=0.05


Tree=78
num_leaves=3
num_cat=0
split_feature=1 4
split_gain=3.47655e+13 3.52089e+13
threshold=1.0000000180025095e-35 1.0000000180025095e-35
decision_type=2 2
left_child=1 -1
right_child=-2 -3
leaf_value=308.56763560468255 -6346.7595784479263 -6289.2481556478415
leaf_weight=85549 2107 2071
leaf_count=85549 2107 2071
internal_value=0 152.621
internal_weight=0 87620
internal_count=89727 87620
is_linear=0
shrinkage=0.05


Tree=79
num_leaves=3
num_cat=0
split_feature=7 12
split_gain=3.38228e+13 3.47857e+13
threshold=1.0000000180025095e-35 1.0000000180025095e-35
decision_type=2 2
left_child=1 -1
right_child=-2 -3
leaf_value=311.45902424030038 -5959.8894667467102 -6330.280853678285
leaf_weight=85390 2319 2018
leaf_count=85390 2319 2018
internal_value=0 158.12
internal_weight=0 87408
internal_count=89727 87408
is_linear=0
shrinkage=0.05


Tree=80
num_leaves=3
num_cat=0
split_feature=22 30
split_gain=3.32899e+13 3.39336e+13
threshold=1.0000000180025095e-35 1.0000000180025095e-35
decision_type=2 2
left_child=1 -1
right_child=-2 -3
leaf_value=-330.12729226942258 5981.9630121406926 5385.3712763342055
leaf_weight=84781 2267 2679
leaf_count=84781 2267 2679
internal_value=0 -155.055
internal_weight=0 87460
internal_count=89727 87460
is_linear=0
shrinkage=0.05


Tree=81
num_leaves=3
num_cat=0
split_feature=16 15
split_gain=3.22401e+13 3.29499e+13
threshold=1.0000000180025095e-35 1.0000000180025095e-35
decision_type=2 2
left_child=1 -1
right_child=-2 -3
leaf_value=-306.25378512853473 5795.7323397635191 6076.6009051372212
leaf_weight=85319 2337 2071
leaf_count=85319 2337 2071
internal_value=0 -154.991
internal_weight=0 87390
internal_count=89727 87390
is_linear=0
shrinkage=0.05


Tree=82
num_leaves=3
num_cat=0
split_feature=13 46
split_gain=3.2766e+13 3.96184e+13
threshold=1.0000000180025095e-35 0.13040722670177837
decision_type=2 2
left_child=1 -1
right_child=-2 -3
leaf_value=-1167.3963869342456 6120.0309605245129 961.35542729239558
leaf_weight=45695 2135 41897
leaf_count=45695 2135 41897
internal_value=0 -149.172
internal_weight=0 87592
internal_count=89727 87592
is_linear=0
shrinkage=0.05


Tree=83
num_leaves=3
num_cat=0
split_feature=10 46
split_gain=3.22313e+13 3.65238e+13
threshold=1.0000000180025095e-35 0.13040722670177837
decision_type=2 2
left_child=1 -1
right_child=-2 -3
leaf_value=-1131.9655488186161 5896.7625812209671 913.2876817754485
leaf_weight=45571 2259 41897
leaf_count=45571 2259 41897
internal_value=0 -152.293
internal_weight=0 87468
internal_count=89727 87468
is_linear=0
shrinkage=0.05


Tree=84
num_leaves=3
num_cat=0
split_feature=31 36
split_gain=3.28789e+13 3.13903e+13
threshold=1.0000000180025095e-35 1.0000000180025095e-35
decision_type=2 2
left_child=1 -1
right_child=-2 -3
leaf_value=302.09704747416021 -6152.7378221015215 -5697.9055712682839
leaf_weight=85370 2120 2237
leaf_count=85370 2120 2237
internal_value=0 148.89
internal_weight=0 87607
internal_count=89727 87607
is_linear=0
shrinkage=0.05


Tree=85
num_leaves=3
num_cat=0
split_feature=17 46
split_gain=3.24332e+13 3.45668e+13
threshold=1.0000000180025095e-35 0.1352835374829339
decision_type=2 2
left_child=1 -1
right_child=-2 -3
leaf_value=-1088.6801394825504 5964.1317121676484 902.27872177509641
leaf_weight=46315 2223 41189
leaf_count=46315 2223 41189
internal_value=0 -151.516
internal_weight=0 87504
internal_count=89727 87504
is_linear=0
shrinkage=0.05


Tree=86
num_leaves=3
num_cat=0
split_feature=29 32
split_gain=3.40848e+13 3.49162e+13
threshold=1.0000000180025095e-35 1.0000000180025095e-35
decision_type=2 2
left_child=1 -1
right_child=-2 -3
leaf_value=308.73303759397481 -6151.0956788927306 -6307.0538896056278
leaf_weight=85488 2197 2042
leaf_count=85488 2197 2042
internal_value=0 154.392
internal_weight=0 87530
internal_count=89727 87530
is_linear=0
shrinkage=0.05


Tree=87
num_leaves=3
num_cat=0
split_feature=40 46
split_gain=3.2172e+13 3.52344e+13
threshold=1.0000000180025095e-35 0.14492540649496666
decision_type=2 2
left_child=1 -1
right_child=-2 -3
leaf_value=-721.67457198677846 -6044.0325938186188 1304.4240696997365
leaf_weight=49973 2149 37605
leaf_count=49973 2149 37605
internal_value=0 148.309
internal_weight=0 87578
internal_count=89727 87578
is_linear=0
shrinkage=0.05


Tree=88
num_leaves=3
num_cat=0
split_feature=31 8
split_gain=3.09639e+13 3.23945e+13
threshold=1.0000000180025095e-35 1.0000000180025095e-35
decision_type=2 2
left_child=1 -1
right_child=-2 -3
leaf_value=293.39156054502047 -5970.8730940311361 -6063.7739189043841
leaf_weight=85555 2120 2052
leaf_count=85555 2120 2052
internal_value=0 144.489
internal_weight=0 87607
internal_count=89727 87607
is_linear=0
shrinkage=0.05


Tree=89
num_leaves=3
num_cat=0
split_feature=21 29
split_gain=3.4057e+13 3.331e+13
threshold=1.0000000180025095e-35 1.0000000180025095e-35
decision_type=2 2
left_child=1 -1
right_child=-2 -3
leaf_value=311.96791788770179 -6105.9832526437785 -5923.4317052746992
leaf_weight=85303 2227 2197
leaf_count=85303 2227 2197
internal_value=0 155.406
internal_weight=0 87500
internal_count=89727 87500
is_linear=0
shrinkage=0.05


Tree=90
num_leaves=3
num_cat=0
split_feature=18 16
split_gain=3.15553e+13 3.22806e+13
threshold=1.0000000180025095e-35 1.0000000180025095e-35
decision_type=2 2
left_child=1 -1
right_child=-2 -3
leaf_value=-305.78966777924103 5987.2523013429272 5650.6221044786071
leaf_weight=85242 2148 2337
leaf_count=85242 2148 2337
internal_value=0 -146.846
internal_weight=0 87579
internal_count=89727 87579
is_linear=0
shrinkage=0.05


Tree=91
num_leaves=3
num_cat=0
split_feature=11 21
split_gain=3.07792e+13 3.21917e+13
threshold=1.0000000180025095e-35 1.0000000180025095e-35
decision_type=2 2
left_child=1 -1
right_child=-2 -3
leaf_value=304.115374197618 -5753.2656389739805 -5785.3943196578039
leaf_weight=85234 2266 2227
leaf_count=85234 2266 2227
internal_value=0 149.06
internal_weight=0 87461
internal_count=89727 87461
is_linear=0
shrinkage=0.05


Tree=92
num_leaves=3
num_cat=0
split_feature=32 1
split_gain=3.09696e+13 3.11933e+13
threshold=1.0000000180025095e-35 1.0000000180025095e-35
decision_type=2 2
left_child=1 -1
right_child=-2 -3
leaf_value=289.73124869159886 -6087.1067380739823 -5868.4154336705724
leaf_weight=85578 2042 2107
leaf_count=85578 2042 2107
internal_value=0 141.756
internal_weight=0 87685
internal_count=89727 87685
is_linear=0
shrinkage=0.05


Tree=93
num_leaves=3
num_cat=0
split_feature=40 46
split_gain=2.94888e+13 3.44253e+13
threshold=1.0000000180025095e-35 0.14492540649496666
decision_type=2 2
left_child=1 -1
right_child=-2 -3
leaf_value=-717.94641707608821 -5786.5019155879527 1284.7529017093045
leaf_weight=49973 2149 37605
leaf_count=49973 2149 37605
internal_value=0 141.99
internal_weight=0 87578
internal_count=89727 87578
is_linear=0
shrinkage=0.05


Tree=94
num_leaves=3
num_cat=0
split_feature=13 15
split_gain=3.06781e+13 3.13984e+13
threshold=1.0000000180025095e-35 1.0000000180025095e-35
decision_type=2 2
left_child=1 -1
right_child=-2 -3
leaf_value=-291.65528029918266 5921.8307385797079 5938.9418519525243
leaf_weight=85521 2135 2071
leaf_count=85521 2135 2071
internal_value=0 -144.341
internal_weight=0 87592
internal_count=89727 87592
is_linear=0
shrinkage=0.05


Tree=95
num_leaves=3
num_cat=0
split_feature=17 46
split_gain=2.95449e+13 3.04031e+13
threshold=1.0000000180025095e-35 0.13040722670177837
decision_type=2 2
left_child=1 -1
right_child=-2 -3
leaf_value=-1037.8981150404206 5692.3809906376518 827.77412531016296
leaf_weight=45607 2223 41897
leaf_count=45607 2223 41897
internal_value=0 -144.612
internal_weight=0 87504
internal_count=89727 87504
is_linear=0
shrinkage=0.05


Tree=96
num_leaves=3
num_cat=0
split_feature=10 16
split_gain=3.03237e+13 2.99964e+13
threshold=1.0000000180025095e-35 1.0000000180025095e-35
decision_type=2 2
left_child=1 -1
right_child=-2 -3
leaf_value=-301.13207950137388 5719.6044799433184 5440.7739713160363
leaf_weight=85131 2259 2337
leaf_count=85131 2259 2337
internal_value=0 -147.718
internal_weight=0 87468
internal_count=89727 87468
is_linear=0
shrinkage=0.05


Tree=97
num_leaves=3
num_cat=0
split_feature=36 31
split_gain=2.93926e+13 3.04885e+13
threshold=1.0000000180025095e-35 1.0000000180025095e-35
decision_type=2 2
left_child=1 -1
right_child=-2 -3
leaf_value=291.79115894453622 -5659.4399286736534 -5778.3173743834595
leaf_weight=85370 2237 2120
leaf_count=85370 2237 2120
internal_value=0 144.704
internal_weight=0 87490
internal_count=89727 87490
is_linear=0
shrinkage=0.05


Tree=98
num_leaves=3
num_cat=0
split_feature=29 46
split_gain=2.96009e+13 3.21842e+13
threshold=1.0000000180025095e-35 0.14492540649496666
decision_type=2 2
left_child=1 -1
right_child=-2 -3
leaf_value=-687.2919578617549 -5732.2395145605524 1249.8273845440151
leaf_weight=49973 2197 37557
leaf_count=49973 2197 37557
internal_value=0 143.879
internal_weight=0 87530
internal_count=89727 87530
is_linear=0
shrinkage=0.05


Tree=99
num_leaves=3
num_cat=0
split_feature=18 10
split_gain=2.95655e+13 2.90409e+13
threshold=1.0000000180025095e-35 1.0000000180025095e-35
decision_type=2 2
left_child=1 -1
right_child=-2 -3
leaf_value=-290.29246784457581 5795.4036887966286 5453.3996557363216
leaf_weight=85320 2148 2259
leaf_count=85320 2148 2259
internal_value=0 -142.141
internal_weight=0 87579
internal_count=89727 87579
is_linear=0
shrinkage=0.05


Tree=100
num_leaves=3
num_cat=0
split_feature=21 40
split_gain=2.91517e+13 2.87852e+13
threshold=1.0000000180025095e-35 1.0000000180025095e-35
decision_type=2 2
left_child=1 -1
right_child=-2 -3
leaf_value=287.68063228055934 -5649.1645254874265 -5571.4926106385046
leaf_weight=85351 2227 2149
leaf_count=85351 2227 2149
internal_value=0 143.779
internal_weight=0 87500
internal_count=89727 87500
is_linear=0
shrinkage=0.05


Tree=101
num_leaves=3
num_cat=0
split_feature=32 46
split_gain=2.9448e+13 3.10298e+13
threshold=1.0000000180025095e-35 0.14492540649496666
decision_type=2 2
left_child=1 -1
right_child=-2 -3
leaf_value=-678.85802925262215 -5935.6890269825908 1220.9705801180355
leaf_weight=49973 2042 37712
leaf_count=49973 2042 37712
internal_value=0 138.23
internal_weight=0 87685
internal_count=89727 87685
is_linear=0
shrinkage=0.05


Tree=102
num_leaves=3
num_cat=0
split_feature=13 17
split_gain=2.88888e+13 2.87827e+13
threshold=1.0000000180025095e-35 1.0000000180025095e-35
decision_type=2 2
left_child=1 -1
right_child=-2 -3
leaf_value=-286.32758792937426 5746.5391114892009 5476.6673526767354
leaf_weight=85369 2135 2223
leaf_count=85369 2135 2223
internal_value=0 -140.068
internal_weight=0 87592
internal_count=89727 87592
is_linear=0
shrinkage=0.05


Tree=103
num_leaves=3
num_cat=0
split_feature=15 18
split_gain=2.83011e+13 2.83762e+13
threshold=1.0000000180025095e-35 1.0000000180025095e-35
decision_type=2 2
left_child=1 -1
right_child=-2 -3
leaf_value=-279.07642863277817 5777.1110267716531 5539.5088927760917
leaf_weight=85508 2071 2148
leaf_count=85508 2071 2148
internal_value=0 -136.493
internal_weight=0 87656
internal_count=89727 87656
is_linear=0
shrinkage=0.05


Tree=104
num_leaves=3
num_cat=0
split_feature=29 4
split_gain=2.70361e+13 2.82112e+13
threshold=1.0000000180025095e-35 1.0000000180025095e-35
decision_type=2 2
left_child=1 -1
right_child=-2 -3
leaf_value=277.24223870590583 -5478.2753060235409 -5628.7155265299734
leaf_weight=85459 2197 2071
leaf_count=85459 2197 2071
internal_value=0 137.505
internal_weight=0 87530
internal_count=89727 87530
is_linear=0
shrinkage=0.05


Tree=105
num_leaves=3
num_cat=0
split_feature=21 12
split_gain=2.67687e+13 2.78313e+13
threshold=1.0000000180025095e-35 1.0000000180025095e-35
decision_type=2 2
left_child=1 -1
right_child=-2 -3
leaf_value=274.7885917614073 -5413.3469905255461 -5665.9862361427813
leaf_weight=85482 2227 2018
leaf_count=85482 2227 2018
internal_value=0 137.777
internal_weight=0 87500
internal_count=89727 87500
is_linear=0
shrinkage=0.05


Tree=106
num_leaves=3
num_cat=0
split_feature=31 46
split_gain=2.7355e+13 3.02726e+13
threshold=1.0000000180025095e-35 0.14492540649496666
decision_type=2 2
left_child=1 -1
right_child=-2 -3
leaf_value=-670.77294061197153 -5612.1422091559652 1206.8414560086662
leaf_weight=49973 2120 37634
leaf_count=49973 2120 37634
internal_value=0 135.808
internal_weight=0 87607
internal_count=89727 87607
is_linear=0
shrinkage=0.05


Tree=107
num_leaves=3
num_cat=0
split_feature=32 46
split_gain=2.71423e+13 2.75523e+13
threshold=1.0000000180025095e-35 0.14492540649496666
decision_type=2 2
left_child=1 -1
right_child=-2 -3
leaf_value=-637.23428943012357 -5698.5779925418301 1152.9752937300798
leaf_weight=49973 2042 37712
leaf_count=49973 2042 37712
internal_value=0 132.708
internal_weight=0 87685
internal_count=89727 87685
is_linear=0
shrinkage=0.05


Tree=108
num_leaves=3
num_cat=0
split_feature=36 7
split_gain=2.89555e+13 2.78479e+13
threshold=1.0000000180025095e-35 1.0000000180025095e-35
decision_type=2 2
left_child=1 -1
right_child=-2 -3
leaf_value=290.81847650518233 -5617.1994078172766 -5262.4534129324948
leaf_weight=85171 2237 2319
leaf_count=85171 2237 2319
internal_value=0 143.624
internal_weight=0 87490
internal_count=89727 87490
is_linear=0
shrinkage=0.05


Tree=109
num_leaves=3
num_cat=0
split_feature=16 13
split_gain=2.6698e+13 2.78207e+13
threshold=1.0000000180025095e-35 1.0000000180025095e-35
decision_type=2 2
left_child=1 -1
right_child=-2 -3
leaf_value=-282.21759080490523 5274.1116318561908 5496.4236959059854
leaf_weight=85255 2337 2135
leaf_count=85255 2337 2135
internal_value=0 -141.041
internal_weight=0 87390
internal_count=89727 87390
is_linear=0
shrinkage=0.05


Tree=110
num_leaves=3
num_cat=0
split_feature=40 36
split_gain=2.63677e+13 2.73395e+13
threshold=1.0000000180025095e-35 1.0000000180025095e-35
decision_type=2 2
left_child=1 -1
right_child=-2 -3
leaf_value=277.29401471292084 -5471.718466588407 -5322.2286572380908
leaf_weight=85341 2149 2237
leaf_count=85341 2149 2237
internal_value=0 134.266
internal_weight=0 87578
internal_count=89727 87578
is_linear=0
shrinkage=0.05


Tree=111
num_leaves=3
num_cat=0
split_feature=19 46
split_gain=2.59053e+13 2.7504e+13
threshold=1.0000000180025095e-35 0.072140833785499098
decision_type=2 2
left_child=1 -1
right_child=-2 -3
leaf_value=1791.5758507312873 -5235.6182312269411 -337.73771497841858
leaf_weight=19527 2302 67898
leaf_count=19527 2302 67898
internal_value=0 137.86
internal_weight=0 87425
internal_count=89727 87425
is_linear=0
shrinkage=0.05


Tree=112
num_leaves=3
num_cat=0
split_feature=11 8
split_gain=2.65819e+13 2.72048e+13
threshold=1.0000000180025095e-35 1.0000000180025095e-35
decision_type=2 2
left_child=1 -1
right_child=-2 -3
leaf_value=275.20928099803388 -5346.6132860569232 -5550.6449330201622
leaf_weight=85409 2266 2052
leaf_count=85409 2266 2052
internal_value=0 138.524
internal_weight=0 87461
internal_count=89727 87461
is_linear=0
shrinkage=0.05


Tree=113
num_leaves=3
num_cat=0
split_feature=29 46
split_gain=2.57584e+13 2.75367e+13
threshold=1.0000000180025095e-35 0.14492540649496666
decision_type=2 2
left_child=1 -1
right_child=-2 -3
leaf_value=-634.60568871254225 -5347.2605080394023 1157.2030446276667
leaf_weight=49973 2197 37557
leaf_count=49973 2197 37557
internal_value=0 134.216
internal_weight=0 87530
internal_count=89727 87530
is_linear=0
shrinkage=0.05


Tree=114
num_leaves=3
num_cat=0
split_feature=31 1
split_gain=2.5875e+13 2.66541e+13
threshold=1.0000000180025095e-35 1.0000000180025095e-35
decision_type=2 2
left_child=1 -1
right_child=-2 -3
leaf_value=268.99223535865724 -5458.2124487160736 -5423.5490156520418
leaf_weight=85500 2120 2107
leaf_count=85500 2120 2107
internal_value=0 132.083
internal_weight=0 87607
internal_count=89727 87607
is_linear=0
shrinkage=0.05


Tree=115
num_leaves=3
num_cat=0
split_feature=40 12
split_gain=2.44252e+13 2.5407e+13
threshold=1.0000000180025095e-35 1.0000000180025095e-35
decision_type=2 2
left_child=1 -1
right_child=-2 -3
leaf_value=260.01538899434036 -5266.3161070101651 -5416.0594231022369
leaf_weight=85560 2149 2018
leaf_count=85560 2149 2018
internal_value=0 129.225
internal_weight=0 87578
internal_count=89727 87578
is_linear=0
shrinkage=0.05


Tree=116
num_leaves=3
num_cat=0
split_feature=21 36
split_gain=2.6206e+13 2.55383e+13
threshold=1.0000000180025095e-35 1.0000000180025095e-35
decision_type=2 2
left_child=1 -1
right_child=-2 -3
leaf_value=274.6830395731368 -5356.1490151359512 -5137.3015985609973
leaf_weight=85263 2227 2237
leaf_count=85263 2227 2237
internal_value=0 136.322
internal_weight=0 87500
internal_count=89727 87500
is_linear=0
shrinkage=0.05


Tree=117
num_leaves=3
num_cat=0
split_feature=10 46
split_gain=2.44955e+13 2.46837e+13
threshold=1.0000000180025095e-35 0.13040722670177837
decision_type=2 2
left_child=1 -1
right_child=-2 -3
leaf_value=-938.13877140969817 5140.645971555402 743.23237907134387
leaf_weight=45571 2259 41897
leaf_count=45571 2259 41897
internal_value=0 -132.765
internal_weight=0 87468
internal_count=89727 87468
is_linear=0
shrinkage=0.05


Tree=118
num_leaves=3
num_cat=0
split_feature=32 29
split_gain=2.58385e+13 2.51932e+13
threshold=1.0000000180025095e-35 1.0000000180025095e-35
decision_type=2 2
left_child=1 -1
right_child=-2 -3
leaf_value=265.3474270409651 -5560.0235981902933 -5157.2435526053041
leaf_weight=85488 2042 2197
leaf_count=85488 2042 2197
internal_value=0 129.481
internal_weight=0 87685
internal_count=89727 87685
is_linear=0
shrinkage=0.05


Tree=119
num_leaves=3
num_cat=0
split_feature=17 46
split_gain=2.43052e+13 2.38563e+13
threshold=1.0000000180025095e-35 0.014430856327248815
decision_type=2 2
left_child=1 -1
right_child=-2 -3
leaf_value=5058.2333716668027 5163.0001077996039 -262.50386219996057
leaf_weight=2160 2223 85344
leaf_count=2160 2223 85344
internal_value=0 -131.164
internal_weight=0 87504
internal_count=89727 87504
is_linear=0
shrinkage=0.05


Tree=120
num_leaves=3
num_cat=0
split_feature=18 10
split_gain=2.39953e+13 2.32951e+13
threshold=1.0000000180025095e-35 1.0000000180025095e-35
decision_type=2 2
left_child=1 -1
right_child=-2 -3
leaf_value=-260.74183414230561 5221.0088336852241 4883.4714571834184
leaf_weight=85320 2148 2259
leaf_count=85320 2148 2259
internal_value=0 -128.053
internal_weight=0 87579
internal_count=89727 87579
is_linear=0
shrinkage=0.05


Tree=121
num_leaves=3
num_cat=0
split_feature=31 46
split_gain=2.38139e+13 2.62323e+13
threshold=1.0000000180025095e-35 0.14492540649496666
decision_type=2 2
left_child=1 -1
right_child=-2 -3
leaf_value=-624.11604133499509 -5236.3032973069967 1123.7158217280744
leaf_weight=49973 2120 37634
leaf_count=49973 2120 37634
internal_value=0 126.713
internal_weight=0 87607
internal_count=89727 87607
is_linear=0
shrinkage=0.05


Tree=122
num_leaves=3
num_cat=0
split_feature=21 11
split_gain=2.44047e+13 2.45454e+13
threshold=1.0000000180025095e-35 1.0000000180025095e-35
decision_type=2 2
left_child=1 -1
right_child=-2 -3
leaf_value=268.09778742430893 -5168.7941976842731 -5004.4776400210058
leaf_weight=85234 2227 2266
leaf_count=85234 2227 2266
internal_value=0 131.553
internal_weight=0 87500
internal_count=89727 87500
is_linear=0
shrinkage=0.05


Tree=123
num_leaves=3
num_cat=0
split_feature=32 4
split_gain=2.37043e+13 2.43904e+13
threshold=1.0000000180025095e-35 1.0000000180025095e-35
decision_type=2 2
left_child=1 -1
right_child=-2 -3
leaf_value=253.71696217192758 -5325.4505426257419 -5237.6388593112833
leaf_weight=85614 2042 2071
leaf_count=85614 2042 2071
internal_value=0 124.019
internal_weight=0 87685
internal_count=89727 87685
is_linear=0
shrinkage=0.05


Tree=124
num_leaves=3
num_cat=0
split_feature=19 8
split_gain=2.29949e+13 2.40269e+13
threshold=1.0000000180025095e-35 1.0000000180025095e-35
decision_type=2 2
left_child=1 -1
right_child=-2 -3
leaf_value=258.39274848505232 -4932.7526695737834 -5216.6498088554108
leaf_weight=85373 2302 2052
leaf_count=85373 2302 2052
internal_value=0 129.885
internal_weight=0 87425
internal_count=89727 87425
is_linear=0
shrinkage=0.05


Tree=125
num_leaves=3
num_cat=0
split_feature=16 15
split_gain=2.33917e+13 2.39963e+13
threshold=1.0000000180025095e-35 1.0000000180025095e-35
decision_type=2 2
left_child=1 -1
right_child=-2 -3
leaf_value=-261.10499538212241 4936.7449304426445 5185.9265272596385
leaf_weight=85319 2337 2071
leaf_count=85319 2337 2071
internal_value=0 -132.019
internal_weight=0 87390
internal_count=89727 87390
is_linear=0
shrinkage=0.05


Tree=126
num_leaves=3
num_cat=0
split_feature=7 40
split_gain=2.32313e+13 2.43287e+13
threshold=1.0000000180025095e-35 1.0000000180025095e-35
decision_type=2 2
left_child=1 -1
right_child=-2 -3
leaf_value=263.47950475338416 -4939.3597692363792 -5123.1419020974508
leaf_weight=85259 2319 2149
leaf_count=85259 2319 2149
internal_value=0 131.045
internal_weight=0 87408
internal_count=89727 87408
is_linear=0
shrinkage=0.05


Tree=127
num_leaves=3
num_cat=0
split_feature=13 22
split_gain=2.31726e+13 2.31259e+13
threshold=1.0000000180025095e-35 1.0000000180025095e-35
decision_type=2 2
left_child=1 -1
right_child=-2 -3
leaf_value=-257.87386319356705 5146.7019559568989 4858.7954664286726
leaf_weight=85325 2135 2267
leaf_count=85325 2135 2267
internal_value=0 -125.448
internal_weight=0 87592
internal_count=89727 87592
is_linear=0
shrinkage=0.05


Tree=128
num_leaves=3
num_cat=0
split_feature=21 29
split_gain=2.21405e+13 2.32714e+13
threshold=1.0000000180025095e-35 1.0000000180025095e-35
decision_type=2 2
left_child=1 -1
right_child=-2 -3
leaf_value=256.16315419530287 -4923.1849434820488 -4955.6403050201943
leaf_weight=85303 2227 2197
leaf_count=85303 2227 2197
internal_value=0 125.302
internal_weight=0 87500
internal_count=89727 87500
is_linear=0
shrinkage=0.05


Tree=129
num_leaves=3
num_cat=0
split_feature=1 31
split_gain=2.26879e+13 2.2931e+13
threshold=1.0000000180025095e-35 1.0000000180025095e-35
decision_type=2 2
left_child=1 -1
right_child=-2 -3
leaf_value=250.66159548132225 -5127.1425435330102 -5013.5316565917346
leaf_weight=85500 2107 2120
leaf_count=85500 2107 2120
internal_value=0 123.292
internal_weight=0 87620
internal_count=89727 87620
is_linear=0
shrinkage=0.05


Tree=130
num_leaves=3
num_cat=0
split_feature=32 11
split_gain=2.16092e+13 2.24389e+13
threshold=1.0000000180025095e-35 1.0000000180025095e-35
decision_type=2 2
left_child=1 -1
right_child=-2 -3
leaf_value=248.68622919929271 -5084.6641918952046 -4792.4253164501815
leaf_weight=85419 2042 2266
leaf_count=85419 2042 2266
internal_value=0 118.411
internal_weight=0 87685
internal_count=89727 87685
is_linear=0
shrinkage=0.05


Tree=131
num_leaves=3
num_cat=0
split_feature=36 40
split_gain=2.3171e+13 2.22108e+13
threshold=1.0000000180025095e-35 1.0000000180025095e-35
decision_type=2 2
left_child=1 -1
right_child=-2 -3
leaf_value=254.89888758609524 -5024.8999871340511 -4891.8668925317734
leaf_weight=85341 2237 2149
leaf_count=85341 2237 2149
internal_value=0 128.48
internal_weight=0 87490
internal_count=89727 87490
is_linear=0
shrinkage=0.05


Tree=132
num_leaves=3
num_cat=0
split_feature=18 46
split_gain=2.12598e+13 2.40169e+13
threshold=1.0000000180025095e-35 0.13040722670177837
decision_type=2 2
left_child=1 -1
right_child=-2 -3
leaf_value=-913.48597886792004 4914.408492553257 744.05585121261311
leaf_weight=45682 2148 41897
leaf_count=45682 2148 41897
internal_value=0 -120.533
internal_weight=0 87579
internal_count=89727 87579
is_linear=0
shrinkage=0.05


Tree=133
num_leaves=3
num_cat=0
split_feature=17 46
split_gain=2.20533e+13 2.22469e+13
threshold=1.0000000180025095e-35 0.13040722670177837
decision_type=2 2
left_child=1 -1
right_child=-2 -3
leaf_value=-889.06907509342682 4918.0109393121102 706.85332795303611
leaf_weight=45607 2223 41897
leaf_count=45607 2223 41897
internal_value=0 -124.94
internal_weight=0 87504
internal_count=89727 87504
is_linear=0
shrinkage=0.05


Tree=134
num_leaves=3
num_cat=0
split_feature=36 21
split_gain=2.15523e+13 2.20471e+13
threshold=1.0000000180025095e-35 1.0000000180025095e-35
decision_type=2 2
left_child=1 -1
right_child=-2 -3
leaf_value=252.18714297504181 -4846.2003403402305 -4787.283402599237
leaf_weight=85263 2237 2227
leaf_count=85263 2237 2227
internal_value=0 123.911
internal_weight=0 87490
internal_count=89727 87490
is_linear=0
shrinkage=0.05


Tree=135
num_leaves=3
num_cat=0
split_feature=16 13
split_gain=2.13522e+13 2.22583e+13
threshold=1.0000000180025095e-35 1.0000000180025095e-35
decision_type=2 2
left_child=1 -1
right_child=-2 -3
leaf_value=-252.40973138207002 4716.6252335100135 4916.3645841433245
leaf_weight=85255 2337 2135
leaf_count=85255 2337 2135
internal_value=0 -126.133
internal_weight=0 87390
internal_count=89727 87390
is_linear=0
shrinkage=0.05


Tree=136
num_leaves=3
num_cat=0
split_feature=12 4
split_gain=2.10976e+13 2.16593e+13
threshold=1.0000000180025095e-35 1.0000000180025095e-35
decision_type=2 2
left_child=1 -1
right_child=-2 -3
leaf_value=238.48309987220028 -5054.6000481264327 -4936.2833048365073
leaf_weight=85638 2018 2071
leaf_count=85638 2018 2071
internal_value=0 116.296
internal_weight=0 87709
internal_count=89727 87709
is_linear=0
shrinkage=0.05


Tree=137
num_leaves=3
num_cat=0
split_feature=19 46
split_gain=2.0396e+13 2.237e+13
threshold=1.0000000180025095e-35 0.072140833785499098
decision_type=2 2
left_child=1 -1
right_child=-2 -3
leaf_value=1613.7325225083091 -4645.6460493616387 -306.59354937047141
leaf_weight=19527 2302 67898
leaf_count=19527 2302 67898
internal_value=0 122.325
internal_weight=0 87425
internal_count=89727 87425
is_linear=0
shrinkage=0.05


Tree=138
num_leaves=3
num_cat=0
split_feature=29 46
split_gain=2.08831e+13 2.36022e+13
threshold=1.0000000180025095e-35 0.14492540649496666
decision_type=2 2
left_child=1 -1
right_child=-2 -3
leaf_value=-590.93101455455712 -4814.6995231410074 1067.9363365882439
leaf_weight=49973 2197 37557
leaf_count=49973 2197 37557
internal_value=0 120.849
internal_weight=0 87530
internal_count=89727 87530
is_linear=0
shrinkage=0.05


Tree=139
num_leaves=3
num_cat=0
split_feature=7 8
split_gain=2.02095e+13 2.0952e+13
threshold=1.0000000180025095e-35 1.0000000180025095e-35
decision_type=2 2
left_child=1 -1
right_child=-2 -3
leaf_value=242.25214730142889 -4606.9276393921637 -4870.471737486484
leaf_weight=85356 2319 2052
leaf_count=85356 2319 2052
internal_value=0 122.225
internal_weight=0 87408
internal_count=89727 87408
is_linear=0
shrinkage=0.05


Tree=140
num_leaves=3
num_cat=0
split_feature=31 1
split_gain=2.10466e+13 2.15903e+13
threshold=1.0000000180025095e-35 1.0000000180025095e-35
decision_type=2 2
left_child=1 -1
right_child=-2 -3
leaf_value=242.34318116108298 -4922.6729397644194 -4881.0025205685624
leaf_weight=85500 2120 2107
leaf_count=85500 2120 2107
internal_value=0 119.124
internal_weight=0 87607
internal_count=89727 87607
is_linear=0
shrinkage=0.05


Tree=141
num_leaves=3
num_cat=0
split_feature=15 33
split_gain=2.0183e+13 1.98933e+13
threshold=1.0000000180025095e-35 1.0000000180025095e-35
decision_type=2 2
left_child=1 -1
right_child=-2 -3
leaf_value=-237.49672483316186 4878.673974557063 4526.5196208813077
leaf_weight=85407 2071 2249
leaf_count=85407 2071 2249
internal_value=0 -115.266
internal_weight=0 87656
internal_count=89727 87656
is_linear=0
shrinkage=0.05


Tree=142
num_leaves=3
num_cat=0
split_feature=32 40
split_gain=2.07125e+13 2.1141e+13
threshold=1.0000000180025095e-35 1.0000000180025095e-35
decision_type=2 2
left_child=1 -1
right_child=-2 -3
leaf_value=238.9875161128553 -4978.0565025141841 -4782.1536763102031
leaf_weight=85536 2042 2149
leaf_count=85536 2042 2149
internal_value=0 115.928
internal_weight=0 87685
internal_count=89727 87685
is_linear=0
shrinkage=0.05


Tree=143
num_leaves=3
num_cat=0
split_feature=36 39
split_gain=1.99756e+13 2.08949e+13
threshold=1.0000000180025095e-35 1.0000000180025095e-35
decision_type=2 2
left_child=1 -1
right_child=-2 -3
leaf_value=242.57998473053203 -4665.5650960977664 -4723.5581283695128
leaf_weight=85318 2237 2172
leaf_count=85318 2237 2172
internal_value=0 119.292
internal_weight=0 87490
internal_count=89727 87490
is_linear=0
shrinkage=0.05


Tree=144
num_leaves=3
num_cat=0
split_feature=21 11
split_gain=1.95121e+13 2.04895e+13
threshold=1.0000000180025095e-35 1.0000000180025095e-35
decision_type=2 2
left_child=1 -1
right_child=-2 -3
leaf_value=242.38354536406996 -4621.7237376438752 -4574.9080487701603
leaf_weight=85234 2227 2266
leaf_count=85234 2227 2266
internal_value=0 117.629
internal_weight=0 87500
internal_count=89727 87500
is_linear=0
shrinkage=0.05


Tree=145
num_leaves=3
num_cat=0
split_feature=12 29
split_gain=1.98352e+13 2.02115e+13
threshold=1.0000000180025095e-35 1.0000000180025095e-35
decision_type=2 2
left_child=1 -1
right_child=-2 -3
leaf_value=234.42274198185038 -4901.0391696049037 -4622.5169144524079
leaf_weight=85512 2018 2197
leaf_count=85512 2018 2197
internal_value=0 112.763
internal_weight=0 87709
internal_count=89727 87709
is_linear=0
shrinkage=0.05


Tree=146
num_leaves=3
num_cat=0
split_feature=31 1
split_gain=1.92885e+13 1.97893e+13
threshold=1.0000000180025095e-35 1.0000000180025095e-35
decision_type=2 2
left_child=1 -1
right_child=-2 -3
leaf_value=232.00791960691214 -4712.5828458922761 -4672.9962773209454
leaf_weight=85500 2120 2107
leaf_count=85500 2120 2107
internal_value=0 114.04
internal_weight=0 87607
internal_count=89727 87607
is_linear=0
shrinkage=0.05


Tree=147
num_leaves=3
num_cat=0
split_feature=10 46
split_gain=1.91839e+13 2.02307e+13
threshold=1.0000000180025095e-35 0.14059494486312846
decision_type=2 2
left_child=1 -1
right_child=-2 -3
leaf_value=-823.22135231961738 4549.2886520324955 701.84747608917394
leaf_weight=46992 2259 40476
leaf_count=46992 2259 40476
internal_value=0 -117.493
internal_weight=0 87468
internal_count=89727 87468
is_linear=0
shrinkage=0.05


Tree=148
num_leaves=3
num_cat=0
split_feature=32 46
split_gain=1.93523e+13 1.98201e+13
threshold=1.0000000180025095e-35 0.14492540649496666
decision_type=2 2
left_child=1 -1
right_child=-2 -3
leaf_value=-540.97091091127311 -4811.8157557376335 977.39905946280362
leaf_weight=49973 2042 37712
leaf_count=49973 2042 37712
internal_value=0 112.057
internal_weight=0 87685
internal_count=89727 87685
is_linear=0
shrinkage=0.05


Tree=149
num_leaves=3
num_cat=0
split_feature=40 21
split_gain=1.92446e+13 1.94475e+13
threshold=1.0000000180025095e-35 1.0000000180025095e-35
decision_type=2 2
left_child=1 -1
right_child=-2 -3
leaf_value=235.05919317206136 -4674.5785603860086 -4497.9210636579146
leaf_weight=85351 2149 2227
leaf_count=85351 2149 2227
internal_value=0 114.705
internal_weight=0 87578
internal_count=89727 87578
is_linear=0
shrinkage=0.05


Tree=150
num_leaves=3
num_cat=0
split_feature=36 19
split_gain=1.91107e+13 1.92858e+13
threshold=1.0000000180025095e-35 1.0000000180025095e-35
decision_type=2 2
left_child=1 -1
right_child=-2 -3
leaf_value=238.71271155362021 -4563.442920375478 -4399.2346772490537
leaf_weight=85188 2237 2302
leaf_count=85188 2237 2302
internal_value=0 116.681
internal_weight=0 87490
internal_count=89727 87490
is_linear=0
shrinkage=0.05


Tree=151
num_leaves=3
num_cat=0
split_feature=16 30
split_gain=1.85005e+13 1.83102e+13
threshold=1.0000000180025095e-35 1.0000000180025095e-35
decision_type=2 2
left_child=1 -1
right_child=-2 -3
leaf_value=-246.11529694977494 4390.3770712150999 3952.3555661143455
leaf_weight=84711 2337 2679
leaf_count=84711 2337 2679
internal_value=0 -117.408
internal_weight=0 87390
internal_count=89727 87390
is_linear=0
shrinkage=0.05


Tree=152
num_leaves=3
num_cat=0
split_feature=17 18
split_gain=1.92498e+13 1.98884e+13
threshold=1.0000000180025095e-35 1.0000000180025095e-35
decision_type=2 2
left_child=1 -1
right_child=-2 -3
leaf_value=-236.30761648698399 4594.7879616344399 4635.0410416873028
leaf_weight=85356 2223 2148
leaf_count=85356 2223 2148
internal_value=0 -116.728
internal_weight=0 87504
internal_count=89727 87504
is_linear=0
shrinkage=0.05


Tree=153
num_leaves=3
num_cat=0
split_feature=13 15
split_gain=1.85453e+13 1.91925e+13
threshold=1.0000000180025095e-35 1.0000000180025095e-35
decision_type=2 2
left_child=1 -1
right_child=-2 -3
leaf_value=-227.40037896624227 4604.2500935388789 4643.8637094686483
leaf_weight=85521 2135 2071
leaf_count=85521 2135 2071
internal_value=0 -112.226
internal_weight=0 87592
internal_count=89727 87592
is_linear=0
shrinkage=0.05


Tree=154
num_leaves=3
num_cat=0
split_feature=29 39
split_gain=1.80415e+13 1.84857e+13
threshold=1.0000000180025095e-35 1.0000000180025095e-35
decision_type=2 2
left_child=1 -1
right_child=-2 -3
leaf_value=228.23498466450485 -4475.1512400845486 -4442.8088786102353
leaf_weight=85358 2197 2172
leaf_count=85358 2197 2172
internal_value=0 112.326
internal_weight=0 87530
internal_count=89727 87530
is_linear=0
shrinkage=0.05


Tree=155
num_leaves=3
num_cat=0
split_feature=4 7
split_gain=1.83185e+13 1.91023e+13
threshold=1.0000000180025095e-35 1.0000000180025095e-35
decision_type=2 2
left_child=1 -1
right_child=-2 -3
leaf_value=231.48835991389728 -4647.8662166077875 -4367.741944477958
leaf_weight=85337 2071 2319
leaf_count=85337 2071 2319
internal_value=0 109.813
internal_weight=0 87656
internal_count=89727 87656
is_linear=0
shrinkage=0.05


Tree=156
num_leaves=3
num_cat=0
split_feature=8 32
split_gain=1.80048e+13 1.84008e+13
threshold=1.0000000180025095e-35 1.0000000180025095e-35
decision_type=2 2
left_child=1 -1
right_child=-2 -3
leaf_value=220.21173903813383 -4629.6840815315472 -4582.408330373456
leaf_weight=85633 2052 2042
leaf_count=85633 2052 2042
internal_value=0 108.356
internal_weight=0 87675
internal_count=89727 87675
is_linear=0
shrinkage=0.05


Tree=157
num_leaves=3
num_cat=0
split_feature=31 36
split_gain=1.82432e+13 1.81402e+13
threshold=1.0000000180025095e-35 1.0000000180025095e-35
decision_type=2 2
left_child=1 -1
right_child=-2 -3
leaf_value=227.3731668654915 -4583.1104602127261 -4333.7766966722984
leaf_weight=85370 2120 2237
leaf_count=85370 2120 2237
internal_value=0 110.907
internal_weight=0 87607
internal_count=89727 87607
is_linear=0
shrinkage=0.05


Tree=158
num_leaves=3
num_cat=0
split_feature=10 46
split_gain=1.72613e+13 1.86935e+13
threshold=1.0000000180025095e-35 0.14492540649496666
decision_type=2 2
left_child=1 -1
right_child=-2 -3
leaf_value=-778.65303481968249 4315.3101541695632 689.34876640662139
leaf_weight=47714 2259 39754
leaf_count=47714 2259 39754
internal_value=0 -111.45
internal_weight=0 87468
internal_count=89727 87468
is_linear=0
shrinkage=0.05


Tree=159
num_leaves=3
num_cat=0
split_feature=40 46
split_gain=1.78113e+13 1.8554e+13
threshold=1.0000000180025095e-35 0.14492540649496666
decision_type=2 2
left_child=1 -1
right_child=-2 -3
leaf_value=-520.96435302862744 -4497.126997386139 949.3012550201222
leaf_weight=49973 2149 37605
leaf_count=49973 2149 37605
internal_value=0 110.351
internal_weight=0 87578
internal_count=89727 87578
is_linear=0
shrinkage=0.05


Tree=160
num_leaves=3
num_cat=0
split_feature=12 29
split_gain=1.72308e+13 1.80295e+13
threshold=1.0000000180025095e-35 1.0000000180025095e-35
decision_type=2 2
left_child=1 -1
right_child=-2 -3
leaf_value=220.0049092716944 -4567.9599917877777 -4367.2797024229412
leaf_weight=85512 2018 2197
leaf_count=85512 2018 2197
internal_value=0 105.099
internal_weight=0 87709
internal_count=89727 87709
is_linear=0
shrinkage=0.05


Tree=161
num_leaves=3
num_cat=0
split_feature=17 18
split_gain=1.75324e+13 1.81126e+13
threshold=1.0000000180025095e-35 1.0000000180025095e-35
decision_type=2 2
left_child=1 -1
right_child=-2 -3
leaf_value=-225.51565010930591 4385.0338037845204 4423.2743134099019
leaf_weight=85356 2223 2148
leaf_count=85356 2223 2148
internal_value=0 -111.4
internal_weight=0 87504
internal_count=89727 87504
is_linear=0
shrinkage=0.05


Tree=162
num_leaves=3
num_cat=0
split_feature=31 11
split_gain=1.70878e+13 1.78253e+13
threshold=1.0000000180025095e-35 1.0000000180025095e-35
decision_type=2 2
left_child=1 -1
right_child=-2 -3
leaf_value=223.55450401431395 -4435.6119639875305 -4269.5807689356998
leaf_weight=85341 2120 2266
leaf_count=85341 2120 2266
internal_value=0 107.337
internal_weight=0 87607
internal_count=89727 87607
is_linear=0
shrinkage=0.05


Tree=163
num_leaves=3
num_cat=0
split_feature=21 32
split_gain=1.75858e+13 1.746e+13
threshold=1.0000000180025095e-35 1.0000000180025095e-35
decision_type=2 2
left_child=1 -1
right_child=-2 -3
leaf_value=220.85157218298571 -4387.6695192325906 -4457.4912484793895
leaf_weight=85458 2227 2042
leaf_count=85458 2227 2042
internal_value=0 111.672
internal_weight=0 87500
internal_count=89727 87500
is_linear=0
shrinkage=0.05


Tree=164
num_leaves=3
num_cat=0
split_feature=16 13
split_gain=1.68641e+13 1.75992e+13
threshold=1.0000000180025095e-35 1.0000000180025095e-35
decision_type=2 2
left_child=1 -1
right_child=-2 -3
leaf_value=-224.38128961951836 4191.7144795787917 4371.7083660459857
leaf_weight=85255 2337 2135
leaf_count=85255 2337 2135
internal_value=0 -112.096
internal_weight=0 87390
internal_count=89727 87390
is_linear=0
shrinkage=0.05


Tree=165
num_leaves=3
num_cat=0
split_feature=15 23
split_gain=1.65705e+13 1.72316e+13
threshold=1.0000000180025095e-35 1.0000000180025095e-35
decision_type=2 2
left_child=1 -1
right_child=-2 -3
leaf_value=-219.5447588153481 4420.560257649111 4165.2618852899677
leaf_weight=85355 2071 2301
leaf_count=85355 2071 2301
internal_value=0 -104.442
internal_weight=0 87656
internal_count=89727 87656
is_linear=0
shrinkage=0.05


Tree=166
num_leaves=3
num_cat=0
split_feature=22 10
split_gain=1.61904e+13 1.66279e+13
threshold=1.0000000180025095e-35 1.0000000180025095e-35
decision_type=2 2
left_child=1 -1
right_child=-2 -3
leaf_value=-220.39173185803102 4171.7291319509832 4125.8441347062244
leaf_weight=85201 2267 2259
leaf_count=85201 2267 2259
internal_value=0 -108.133
internal_weight=0 87460
internal_count=89727 87460
is_linear=0
shrinkage=0.05


Tree=167
num_leaves=3
num_cat=0
split_feature=1 4
split_gain=1.617e+13 1.69202e+13
threshold=1.0000000180025095e-35 1.0000000180025095e-35
decision_type=2 2
left_child=1 -1
right_child=-2 -3
leaf_value=212.1931896090598 -4328.4477630569972 -4361.6004963180858
leaf_weight=85549 2107 2071
leaf_count=85549 2107 2071
internal_value=0 104.086
internal_weight=0 87620
internal_count=89727 87620
is_linear=0
shrinkage=0.05


Tree=168
num_leaves=3
num_cat=0
split_feature=40 46
split_gain=1.60697e+13 1.79093e+13
threshold=1.0000000180025095e-35 0.14492540649496666
decision_type=2 2
left_child=1 -1
right_child=-2 -3
leaf_value=-515.43305082943016 -4271.6090811678396 929.06342140720812
leaf_weight=49973 2149 37605
leaf_count=49973 2149 37605
internal_value=0 104.817
internal_weight=0 87578
internal_count=89727 87578
is_linear=0
shrinkage=0.05


Tree=169
num_leaves=3
num_cat=0
split_feature=21 29
split_gain=1.60533e+13 1.65932e+13
threshold=1.0000000180025095e-35 1.0000000180025095e-35
decision_type=2 2
left_child=1 -1
right_child=-2 -3
leaf_value=217.19624968823305 -4192.1332554499022 -4183.7073859067632
leaf_weight=85303 2227 2197
leaf_count=85303 2227 2197
internal_value=0 106.696
internal_weight=0 87500
internal_count=89727 87500
is_linear=0
shrinkage=0.05


Tree=170
num_leaves=3
num_cat=0
split_feature=7 8
split_gain=1.59379e+13 1.65517e+13
threshold=1.0000000180025095e-35 1.0000000180025095e-35
decision_type=2 2
left_child=1 -1
right_child=-2 -3
leaf_value=215.22305633177703 -4091.1800968041857 -4329.0139247128382
leaf_weight=85356 2319 2052
leaf_count=85356 2319 2052
internal_value=0 108.542
internal_weight=0 87408
internal_count=89727 87408
is_linear=0
shrinkage=0.05


Tree=171
num_leaves=3
num_cat=0
split_feature=17 13
split_gain=1.58574e+13 1.59948e+13
threshold=1.0000000180025095e-35 1.0000000180025095e-35
decision_type=2 2
left_child=1 -1
right_child=-2 -3
leaf_value=-212.84896656513303 4170.3190374086962 4168.6611633302573
leaf_weight=85369 2223 2135
leaf_count=85369 2223 2135
internal_value=0 -105.945
internal_weight=0 87504
internal_count=89727 87504
is_linear=0
shrinkage=0.05


Tree=172
num_leaves=3
num_cat=0
split_feature=19 31
split_gain=1.59538e+13 1.65806e+13
threshold=1.0000000180025095e-35 1.0000000180025095e-35
decision_type=2 2
left_child=1 -1
right_child=-2 -3
leaf_value=216.73775222213328 -4108.7116236896336 -4259.6989162891323
leaf_weight=85305 2302 2120
leaf_count=85305 2302 2120
internal_value=0 108.187
internal_weight=0 87425
internal_count=89727 87425
is_linear=0
shrinkage=0.05


Tree=173
num_leaves=3
num_cat=0
split_feature=39 40
split_gain=1.5594e+13 1.54242e+13
threshold=1.0000000180025095e-35 1.0000000180025095e-35
decision_type=2 2
left_child=1 -1
right_child=-2 -3
leaf_value=209.08907892549564 -4185.0236529713839 -4079.8441849770243
leaf_weight=85406 2172 2149
leaf_count=85406 2172 2149
internal_value=0 103.819
internal_weight=0 87555
internal_count=89727 87555
is_linear=0
shrinkage=0.05


Tree=174
num_leaves=3
num_cat=0
split_feature=12 1
split_gain=1.55138e+13 1.53656e+13
threshold=1.0000000180025095e-35 1.0000000180025095e-35
decision_type=2 2
left_child=1 -1
right_child=-2 -3
leaf_value=203.55295340453122 -4334.3985432862055 -4118.5236511588946
leaf_weight=85602 2018 2107
leaf_count=85602 2018 2107
internal_value=0 99.7253
internal_weight=0 87709
internal_count=89727 87709
is_linear=0
shrinkage=0.05


Tree=175
num_leaves=3
num_cat=0
split_feature=32 11
split_gain=1.54609e+13 1.61125e+13
threshold=1.0000000180025095e-35 1.0000000180025095e-35
decision_type=2 2
left_child=1 -1
right_child=-2 -3
leaf_value=210.55235154865932 -4300.9112620010901 -4061.2136793306631
leaf_weight=85419 2042 2266
leaf_count=85419 2042 2266
internal_value=0 100.159
internal_weight=0 87685
internal_count=89727 87685
is_linear=0
shrinkage=0.05


Tree=176
num_leaves=3
num_cat=0
split_feature=36 46
split_gain=1.69504e+13 1.70533e+13
threshold=1.0000000180025095e-35 0.14492540649496666
decision_type=2 2
left_child=1 -1
right_child=-2 -3
leaf_value=-494.95260564561596 -4297.7868279867644 915.54247615312875
leaf_weight=49973 2237 37517
leaf_count=49973 2237 37517
internal_value=0 109.888
internal_weight=0 87490
internal_count=89727 87490
is_linear=0
shrinkage=0.05


Tree=177
num_leaves=3
num_cat=0
split_feature=18 17
split_gain=1.55283e+13 1.4947e+13
threshold=1.0000000180025095e-35 1.0000000180025095e-35
decision_type=2 2
left_child=1 -1
right_child=-2 -3
leaf_value=-208.4261363350123 4200.0402777014724 3944.5536975145023
leaf_weight=85356 2148 2223
leaf_count=85356 2148 2223
internal_value=0 -103.012
internal_weight=0 87579
internal_count=89727 87579
is_linear=0
shrinkage=0.05


Tree=178
num_leaves=3
num_cat=0
split_feature=16 15
split_gain=1.53682e+13 1.57979e+13
threshold=1.0000000180025095e-35 1.0000000180025095e-35
decision_type=2 2
left_child=1 -1
right_child=-2 -3
leaf_value=-211.74696302118755 4001.4812733524118 4207.9075182311963
leaf_weight=85319 2337 2071
leaf_count=85319 2337 2071
internal_value=0 -107.008
internal_weight=0 87390
internal_count=89727 87390
is_linear=0
shrinkage=0.05


Tree=179
num_leaves=3
num_cat=0
split_feature=36 21
split_gain=1.51407e+13 1.57673e+13
threshold=1.0000000180025095e-35 1.0000000180025095e-35
decision_type=2 2
left_child=1 -1
right_child=-2 -3
leaf_value=212.33686395628402 -4061.8891937595213 -4049.4101364450926
leaf_weight=85263 2237 2227
leaf_count=85263 2237 2227
internal_value=0 103.857
internal_weight=0 87490
internal_count=89727 87490
is_linear=0
shrinkage=0.05


Tree=180
num_leaves=3
num_cat=0
split_feature=31 4
split_gain=1.46944e+13 1.52181e+13
threshold=1.0000000180025095e-35 1.0000000180025095e-35
decision_type=2 2
left_child=1 -1
right_child=-2 -3
leaf_value=202.07751832963569 -4113.2593206173069 -4135.5841845443783
leaf_weight=85536 2120 2071
leaf_count=85536 2120 2071
internal_value=0 99.5367
internal_weight=0 87607
internal_count=89727 87607
is_linear=0
shrinkage=0.05


Tree=181
num_leaves=3
num_cat=0
split_feature=7 32
split_gain=1.44307e+13 1.49973e+13
threshold=1.0000000180025095e-35 1.0000000180025095e-35
decision_type=2 2
left_child=1 -1
right_child=-2 -3
leaf_value=204.57737600721714 -3892.9396044034906 -4131.3549605740391
leaf_weight=85366 2319 2042
leaf_count=85366 2319 2042
internal_value=0 103.283
internal_weight=0 87408
internal_count=89727 87408
is_linear=0
shrinkage=0.05


Tree=182
num_leaves=3
num_cat=0
split_feature=29 19
split_gain=1.49399e+13 1.52964e+13
threshold=1.0000000180025095e-35 1.0000000180025095e-35
decision_type=2 2
left_child=1 -1
right_child=-2 -3
leaf_value=210.8455699381152 -4072.3550128615116 -3919.6289248190583
leaf_weight=85228 2197 2302
leaf_count=85228 2197 2302
internal_value=0 102.216
internal_weight=0 87530
internal_count=89727 87530
is_linear=0
shrinkage=0.05


Tree=183
num_leaves=3
num_cat=0
split_feature=39 12
split_gain=1.41902e+13 1.47348e+13
threshold=1.0000000180025095e-35 1.0000000180025095e-35
decision_type=2 2
left_child=1 -1
right_child=-2 -3
leaf_value=198.6649091230953 -3992.213480014696 -4123.941860414473
leaf_weight=85537 2172 2018
leaf_count=85537 2172 2018
internal_value=0 99.0359
internal_weight=0 87555
internal_count=89727 87555
is_linear=0
shrinkage=0.05


Tree=184
num_leaves=3
num_cat=0
split_feature=36 46
split_gain=1.39551e+13 1.63483e+13
threshold=1.0000000180025095e-35 0.14492540649496666
decision_type=2 2
left_child=1 -1
right_child=-2 -3
leaf_value=-492.49854198269804 -3899.6025952467494 888.53170570684472
leaf_weight=49973 2237 37517
leaf_count=49973 2237 37517
internal_value=0 99.7076
internal_weight=0 87490
internal_count=89727 87490
is_linear=0
shrinkage=0.05


Tree=185
num_leaves=3
num_cat=0
split_feature=8 40
split_gain=1.4293e+13 1.49123e+13
threshold=1.0000000180025095e-35 1.0000000180025095e-35
decision_type=2 2
left_child=1 -1
right_child=-2 -3
leaf_value=199.90799693915164 -4124.9615039163637 -4017.1770580975167
leaf_weight=85526 2052 2149
leaf_count=85526 2052 2149
internal_value=0 96.5431
internal_weight=0 87675
internal_count=89727 87675
is_linear=0
shrinkage=0.05


Tree=186
num_leaves=3
num_cat=0
split_feature=21 46
split_gain=1.4196e+13 1.5107e+13
threshold=1.0000000180025095e-35 0.14492540649496666
decision_type=2 2
left_child=1 -1
right_child=-2 -3
leaf_value=-468.98954101831362 -3942.1703368640447 858.47610210038897
leaf_weight=49973 2227 37527
leaf_count=49973 2227 37527
internal_value=0 100.334
internal_weight=0 87500
internal_count=89727 87500
is_linear=0
shrinkage=0.05


Tree=187
num_leaves=3
num_cat=0
split_feature=31 32
split_gain=1.41451e+13 1.43356e+13
threshold=1.0000000180025095e-35 1.0000000180025095e-35
decision_type=2 2
left_child=1 -1
right_child=-2 -3
leaf_value=196.46562391127875 -4035.6466297366042 -4042.6083293012266
leaf_weight=85565 2120 2042
leaf_count=85565 2120 2042
internal_value=0 97.6586
internal_weight=0 87607
internal_count=89727 87607
is_linear=0
shrinkage=0.05


Tree=188
num_leaves=3
num_cat=0
split_feature=29 46
split_gain=1.43119e+13 1.43709e+13
threshold=1.0000000180025095e-35 0.14492540649496666
decision_type=2 2
left_child=1 -1
right_child=-2 -3
leaf_value=-455.36338393534697 -3985.8395236504098 839.0648177285708
leaf_weight=49973 2197 37557
leaf_count=49973 2197 37557
internal_value=0 100.044
internal_weight=0 87530
internal_count=89727 87530
is_linear=0
shrinkage=0.05


Tree=189
num_leaves=3
num_cat=0
split_feature=10 18
split_gain=1.42953e+13 1.48187e+13
threshold=1.0000000180025095e-35 1.0000000180025095e-35
decision_type=2 2
left_child=1 -1
right_child=-2 -3
leaf_value=-204.68575200353996 3927.0940637515046 4000.2244610878734
leaf_weight=85320 2259 2148
leaf_count=85320 2259 2148
internal_value=0 -101.423
internal_weight=0 87468
internal_count=89727 87468
is_linear=0
shrinkage=0.05


Tree=190
num_leaves=3
num_cat=0
split_feature=16 15
split_gain=1.39416e+13 1.4328e+13
threshold=1.0000000180025095e-35 1.0000000180025095e-35
decision_type=2 2
left_child=1 -1
right_child=-2 -3
leaf_value=-201.66763077712096 3811.2404261358492 4007.3453177724241
leaf_weight=85319 2337 2071
leaf_count=85319 2337 2071
internal_value=0 -101.921
internal_weight=0 87390
internal_count=89727 87390
is_linear=0
shrinkage=0.05


Tree=191
num_leaves=3
num_cat=0
split_feature=13 17
split_gain=1.38846e+13 1.36991e+13
threshold=1.0000000180025095e-35 1.0000000180025095e-35
decision_type=2 2
left_child=1 -1
right_child=-2 -3
leaf_value=-198.00809962630257 3983.90402434731 3777.8297611753096
leaf_weight=85369 2135 2223
leaf_count=85369 2135 2223
internal_value=0 -97.1052
internal_weight=0 87592
internal_count=89727 87592
is_linear=0
shrinkage=0.05


Tree=192
num_leaves=3
num_cat=0
split_feature=36 31
split_gain=1.31059e+13 1.35062e+13
threshold=1.0000000180025095e-35 1.0000000180025095e-35
decision_type=2 2
left_child=1 -1
right_child=-2 -3
leaf_value=194.5239835225515 -3779.1004396326907 -3845.5995066777718
leaf_weight=85370 2237 2120
leaf_count=85370 2237 2120
internal_value=0 96.6264
internal_weight=0 87490
internal_count=89727 87490
is_linear=0
shrinkage=0.05


Tree=193
num_leaves=3
num_cat=0
split_feature=11 40
split_gain=1.33732e+13 1.40211e+13
threshold=1.0000000180025095e-35 1.0000000180025095e-35
decision_type=2 2
left_child=1 -1
right_child=-2 -3
leaf_value=198.73068678853861 -3792.3064890337118 -3890.5269954775476
leaf_weight=85312 2266 2149
leaf_count=85312 2266 2149
internal_value=0 98.2537
internal_weight=0 87461
internal_count=89727 87461
is_linear=0
shrinkage=0.05


Tree=194
num_leaves=3
num_cat=0
split_feature=10 46
split_gain=1.29037e+13 1.37406e+13
threshold=1.0000000180025095e-35 0.13040722670177837
decision_type=2 2
left_child=1 -1
right_child=-2 -3
leaf_value=-697.251552154401 3731.0605228500062 557.22319119143947
leaf_weight=45571 2259 41897
leaf_count=45571 2259 41897
internal_value=0 -96.3606
internal_weight=0 87468
internal_count=89727 87468
is_linear=0
shrinkage=0.05


Tree=195
num_leaves=3
num_cat=0
split_feature=21 29
split_gain=1.32889e+13 1.37173e+13
threshold=1.0000000180025095e-35 1.0000000180025095e-35
decision_type=2 2
left_child=1 -1
right_child=-2 -3
leaf_value=197.54484799362885 -3814.144064538576 -3803.8534453996713
leaf_weight=85303 2227 2197
leaf_count=85303 2227 2197
internal_value=0 97.0755
internal_weight=0 87500
internal_count=89727 87500
is_linear=0
shrinkage=0.05


Tree=196
num_leaves=3
num_cat=0
split_feature=18 16
split_gain=1.28824e+13 1.33604e+13
threshold=1.0000000180025095e-35 1.0000000180025095e-35
decision_type=2 2
left_child=1 -1
right_child=-2 -3
leaf_value=-196.08070313409607 3825.5200129759382 3635.9011115554467
leaf_weight=85242 2148 2337
leaf_count=85242 2148 2337
internal_value=0 -93.8263
internal_weight=0 87579
internal_count=89727 87579
is_linear=0
shrinkage=0.05


Tree=197
num_leaves=3
num_cat=0
split_feature=4 19
split_gain=1.2655e+13 1.31458e+13
threshold=1.0000000180025095e-35 1.0000000180025095e-35
decision_type=2 2
left_child=1 -1
right_child=-2 -3
leaf_value=191.82958217329508 -3863.1411225706179 -3637.2120380341544
leaf_weight=85354 2071 2302
leaf_count=85354 2071 2302
internal_value=0 91.2722
internal_weight=0 87656
internal_count=89727 87656
is_linear=0
shrinkage=0.05


Tree=198
num_leaves=3
num_cat=0
split_feature=1 46
split_gain=1.27398e+13 1.29049e+13
threshold=1.0000000180025095e-35 0.070556445015483304
decision_type=2 2
left_child=1 -1
right_child=-2 -3
leaf_value=1245.1373924483019 -3842.0166813216342 -227.02807568210102
leaf_weight=19011 2107 68609
leaf_count=19011 2107 68609
internal_value=0 92.3892
internal_weight=0 87620
internal_count=89727 87620
is_linear=0
shrinkage=0.05


Tree=199
num_leaves=3
num_cat=0
split_feature=32 7
split_gain=1.27001e+13 1.31244e+13
threshold=1.0000000180025095e-35 1.0000000180025095e-35
decision_type=2 2
left_child=1 -1
right_child=-2 -3
leaf_value=191.59951929115209 -3898.0503396386384 -3620.6396102319663
leaf_weight=85366 2042 2319
leaf_count=85366 2042 2319
internal_value=0 90.7775
internal_weight=0 87685
internal_count=89727 87685
is_linear=0
shrinkage=0.05


Tree=200
num_leaves=3
num_cat=0
split_feature=33 30
split_gain=1.25771e+13 1.2751e+13
threshold=1.0000000180025095e-35 1.0000000180025095e-35
decision_type=2 2
left_child=1 -1
right_child=-2 -3
leaf_value=-202.21301675234812 3691.9352532386361 3301.3432297431427
leaf_weight=84799 2249 2679
leaf_count=84799 2249 2679
internal_value=0 -94.9172
internal_weight=0 87478
internal_count=89727 87478
is_linear=0
shrinkage=0.05


Tree=201
num_leaves=3
num_cat=0
split_feature=11 39
split_gain=1.23153e+13 1.27854e+13
threshold=1.0000000180025095e-35 1.0000000180025095e-35
decision_type=2 2
left_child=1 -1
right_child=-2 -3
leaf_value=190.75978669691972 -3639.2191258591251 -3693.9432496353629
leaf_weight=85289 2266 2172
leaf_count=85289 2266 2172
internal_value=0 94.2874
internal_weight=0 87461
internal_count=89727 87461
is_linear=0
shrinkage=0.05


Tree=202
num_leaves=3
num_cat=0
split_feature=12 8
split_gain=1.2515e+13 1.30059e+13
threshold=1.0000000180025095e-35 1.0000000180025095e-35
decision_type=2 2
left_child=1 -1
right_child=-2 -3
leaf_value=183.80781502990763 -3893.0034433264682 -3844.2216651068798
leaf_weight=85657 2018 2052
leaf_count=85657 2018 2052
internal_value=0 89.5699
internal_weight=0 87709
internal_count=89727 87709
is_linear=0
shrinkage=0.05


Tree=203
num_leaves=3
num_cat=0
split_feature=23 13
split_gain=1.22933e+13 1.2672e+13
threshold=1.0000000180025095e-35 1.0000000180025095e-35
decision_type=2 2
left_child=1 -1
right_child=-2 -3
leaf_value=-190.1869779689352 3607.4906403317345 3709.7894633701871
leaf_weight=85291 2301 2135
leaf_count=85291 2301 2135
internal_value=0 -94.947
internal_weight=0 87426
internal_count=89727 87426
is_linear=0
shrinkage=0.05


Tree=204
num_leaves=3
num_cat=0
split_feature=22 10
split_gain=1.20801e+13 1.17799e+13
threshold=1.0000000180025095e-35 1.0000000180025095e-35
decision_type=2 2
left_child=1 -1
right_child=-2 -3
leaf_value=-187.89060199404 3603.4814424996871 3470.2838301957108
leaf_weight=85201 2267 2259
leaf_count=85201 2267 2259
internal_value=0 -93.4038
internal_weight=0 87460
internal_count=89727 87460
is_linear=0
shrinkage=0.05


Tree=205
num_leaves=3
num_cat=0
split_feature=40 36
split_gain=1.2197e+13 1.26858e+13
threshold=1.0000000180025095e-35 1.0000000180025095e-35
decision_type=2 2
left_child=1 -1
right_child=-2 -3
leaf_value=188.7462693662427 -3721.4684611665311 -3625.55029552001
leaf_weight=85341 2149 2237
leaf_count=85341 2149 2237
internal_value=0 91.3179
internal_weight=0 87578
internal_count=89727 87578
is_linear=0
shrinkage=0.05


Tree=206
num_leaves=3
num_cat=0
split_feature=15 17
split_gain=1.19337e+13 1.1969e+13
threshold=1.0000000180025095e-35 1.0000000180025095e-35
decision_type=2 2
left_child=1 -1
right_child=-2 -3
leaf_value=-182.87917305010066 3751.4252265034988 3533.3857840956307
leaf_weight=85433 2071 2223
leaf_count=85433 2071 2223
internal_value=0 -88.6328
internal_weight=0 87656
internal_count=89727 87656
is_linear=0
shrinkage=0.05


Tree=207
num_leaves=3
num_cat=0
split_feature=31 29
split_gain=1.18196e+13 1.228e+13
threshold=1.0000000180025095e-35 1.0000000180025095e-35
decision_type=2 2
left_child=1 -1
right_child=-2 -3
leaf_value=184.21284569536783 -3689.0173585467073 -3601.6842421824681
leaf_weight=85410 2120 2197
leaf_count=85410 2120 2197
internal_value=0 89.2705
internal_weight=0 87607
internal_count=89727 87607
is_linear=0
shrinkage=0.05


Tree=208
num_leaves=3
num_cat=0
split_feature=1 4
split_gain=1.15532e+13 1.19658e+13
threshold=1.0000000180025095e-35 1.0000000180025095e-35
decision_type=2 2
left_child=1 -1
right_child=-2 -3
leaf_value=178.89343163672615 -3658.7137213516417 -3667.4302773041404
leaf_weight=85549 2107 2071
leaf_count=85549 2107 2071
internal_value=0 87.9811
internal_weight=0 87620
internal_count=89727 87620
is_linear=0
shrinkage=0.05


Tree=209
num_leaves=3
num_cat=0
split_feature=32 46
split_gain=1.15125e+13 1.37057e+13
threshold=1.0000000180025095e-35 0.14492540649496666
decision_type=2 2
left_child=1 -1
right_child=-2 -3
leaf_value=-456.60834063359709 -3711.3101849487316 806.01893232261727
leaf_weight=49973 2042 37712
leaf_count=49973 2042 37712
internal_value=0 86.4287
internal_weight=0 87685
internal_count=89727 87685
is_linear=0
shrinkage=0.05


Tree=210
num_leaves=3
num_cat=0
split_feature=19 40
split_gain=1.16598e+13 1.19162e+13
threshold=1.0000000180025095e-35 1.0000000180025095e-35
decision_type=2 2
left_child=1 -1
right_child=-2 -3
leaf_value=185.15598587221308 -3512.5206961541876 -3584.7075216670546
leaf_weight=85276 2302 2149
leaf_count=85276 2302 2149
internal_value=0 92.4887
internal_weight=0 87425
internal_count=89727 87425
is_linear=0
shrinkage=0.05


Tree=211
num_leaves=3
num_cat=0
split_feature=7 11
split_gain=1.12301e+13 1.16842e+13
threshold=1.0000000180025095e-35 1.0000000180025095e-35
decision_type=2 2
left_child=1 -1
right_child=-2 -3
leaf_value=185.42071568503661 -3434.1974314648101 -3452.4207080541419
leaf_weight=85142 2319 2266
leaf_count=85142 2319 2266
internal_value=0 91.1119
internal_weight=0 87408
internal_count=89727 87408
is_linear=0
shrinkage=0.05


Tree=212
num_leaves=3
num_cat=0
split_feature=21 46
split_gain=1.24274e+13 1.26523e+13
threshold=1.0000000180025095e-35 0.14492540649496666
decision_type=2 2
left_child=1 -1
right_child=-2 -3
leaf_value=-427.14390992252504 -3688.4453170264201 787.69474853439181
leaf_weight=49973 2227 37527
leaf_count=49973 2227 37527
internal_value=0 93.8761
internal_weight=0 87500
internal_count=89727 87500
is_linear=0
shrinkage=0.05


Tree=213
num_leaves=3
num_cat=0
split_feature=36 31
split_gain=1.15748e+13 1.19137e+13
threshold=1.0000000180025095e-35 1.0000000180025095e-35
decision_type=2 2
left_child=1 -1
right_child=-2 -3
leaf_value=182.75225287733795 -3551.4986198567685 -3611.7260304137899
leaf_weight=85370 2237 2120
leaf_count=85370 2237 2120
internal_value=0 90.807
internal_weight=0 87490
internal_count=89727 87490
is_linear=0
shrinkage=0.05


Tree=214
num_leaves=3
num_cat=0
split_feature=29 46
split_gain=1.12758e+13 1.18209e+13
threshold=1.0000000180025095e-35 0.14492540649496666
decision_type=2 2
left_child=1 -1
right_child=-2 -3
leaf_value=-414.92428879062675 -3537.8968293691369 759.05351881119452
leaf_weight=49973 2197 37557
leaf_count=49973 2197 37557
internal_value=0 88.8011
internal_weight=0 87530
internal_count=89727 87530
is_linear=0
shrinkage=0.05


Tree=215
num_leaves=3
num_cat=0
split_feature=16 15
split_gain=1.11069e+13 1.1453e+13
threshold=1.0000000180025095e-35 1.0000000180025095e-35
decision_type=2 2
left_child=1 -1
right_child=-2 -3
leaf_value=-180.15088925818011 3401.7824434322024 3582.9664325259146
leaf_weight=85319 2337 2071
leaf_count=85319 2337 2071
internal_value=0 -90.9712
internal_weight=0 87390
internal_count=89727 87390
is_linear=0
shrinkage=0.05


Tree=216
num_leaves=3
num_cat=0
split_feature=18 13
split_gain=1.13509e+13 1.16591e+13
threshold=1.0000000180025095e-35 1.0000000180025095e-35
decision_type=2 2
left_child=1 -1
right_child=-2 -3
leaf_value=-179.2654435378879 3590.9276941125399 3561.5207605350329
leaf_weight=85444 2148 2135
leaf_count=85444 2148 2135
internal_value=0 -88.0726
internal_weight=0 87579
internal_count=89727 87579
is_linear=0
shrinkage=0.05


Tree=217
num_leaves=3
num_cat=0
split_feature=21 32
split_gain=1.1403e+13 1.14659e+13
threshold=1.0000000180025095e-35 1.0000000180025095e-35
decision_type=2 2
left_child=1 -1
right_child=-2 -3
leaf_value=178.39880934395461 -3533.1423485531955 -3612.7780931799703
leaf_weight=85458 2227 2042
leaf_count=85458 2227 2042
internal_value=0 89.9236
internal_weight=0 87500
internal_count=89727 87500
is_linear=0
shrinkage=0.05


Tree=218
num_leaves=3
num_cat=0
split_feature=8 40
split_gain=1.09182e+13 1.1272e+13
threshold=1.0000000180025095e-35 1.0000000180025095e-35
decision_type=2 2
left_child=1 -1
right_child=-2 -3
leaf_value=174.2465323161492 -3605.2372785601701 -3492.1676170239066
leaf_weight=85526 2052 2149
leaf_count=85526 2052 2149
internal_value=0 84.3791
internal_weight=0 87675
internal_count=89727 87675
is_linear=0
shrinkage=0.05


Tree=219
num_leaves=3
num_cat=0
split_feature=12 39
split_gain=1.10635e+13 1.13196e+13
threshold=1.0000000180025095e-35 1.0000000180025095e-35
decision_type=2 2
left_child=1 -1
right_child=-2 -3
leaf_value=174.72949996122509 -3660.2920337567361 -3480.3752909230047
leaf_weight=85537 2018 2172
leaf_count=85537 2018 2172
internal_value=0 84.2156
internal_weight=0 87709
internal_count=89727 87709
is_linear=0
shrinkage=0.05


Tree=220
num_leaves=3
num_cat=0
split_feature=31 32
split_gain=1.0503e+13 1.04431e+13
threshold=1.0000000180025095e-35 1.0000000180025095e-35
decision_type=2 2
left_child=1 -1
right_child=-2 -3
leaf_value=168.4841470030797 -3477.4902640000832 -3449.5878241500709
leaf_weight=85565 2120 2042
leaf_count=85565 2120 2042
internal_value=0 84.1518
internal_weight=0 87607
internal_count=89727 87607
is_linear=0
shrinkage=0.05


Tree=221
num_leaves=3
num_cat=0
split_feature=19 21
split_gain=1.04797e+13 1.10067e+13
threshold=1.0000000180025095e-35 1.0000000180025095e-35
decision_type=2 2
left_child=1 -1
right_child=-2 -3
leaf_value=178.3870889330048 -3330.0221074950273 -3382.3582279897346
leaf_weight=85198 2302 2227
leaf_count=85198 2302 2227
internal_value=0 87.6833
internal_weight=0 87425
internal_count=89727 87425
is_linear=0
shrinkage=0.05


Tree=222
num_leaves=3
num_cat=0
split_feature=36 1
split_gain=1.08444e+13 1.08967e+13
threshold=1.0000000180025095e-35 1.0000000180025095e-35
decision_type=2 2
left_child=1 -1
right_child=-2 -3
leaf_value=175.55170015403084 -3437.6176995174665 -3464.2520639731865
leaf_weight=85383 2237 2107
leaf_count=85383 2237 2107
internal_value=0 87.8952
internal_weight=0 87490
internal_count=89727 87490
is_linear=0
shrinkage=0.05


Tree=223
num_leaves=3
num_cat=0
split_feature=4 11
split_gain=1.0277e+13 1.0527e+13
threshold=1.0000000180025095e-35 1.0000000180025095e-35
decision_type=2 2
left_child=1 -1
right_child=-2 -3
leaf_value=171.51120535713713 -3481.31064929382 -3281.3533573753311
leaf_weight=85390 2071 2266
leaf_count=85390 2071 2266
internal_value=0 82.251
internal_weight=0 87656
internal_count=89727 87656
is_linear=0
shrinkage=0.05


Tree=224
num_leaves=3
num_cat=0
split_feature=7 8
split_gain=1.01982e+13 1.06241e+13
threshold=1.0000000180025095e-35 1.0000000180025095e-35
decision_type=2 2
left_child=1 -1
right_child=-2 -3
leaf_value=172.29455395873282 -3272.6166715535587 -3468.4083818283234
leaf_weight=85356 2319 2052
leaf_count=85356 2319 2052
internal_value=0 86.825
